<?xml version="1.0"?>
<opencv_storage>
<opencv_ml_svm>
  <format>3</format>
  <svmType>C_SVC</svmType>
  <kernel>
    <type>LINEAR</type></kernel>
  <C>3.</C>
  <term_criteria><epsilon>9.9999999999999995e-07</epsilon>
    <iterations>10000</iterations></term_criteria>
  <var_count>900</var_count>
  <class_count>2</class_count>
  <class_labels type_id="opencv-matrix">
    <rows>2</rows>
    <cols>1</cols>
    <dt>i</dt>
    <data>
      0 1</data></class_labels>
  <sv_total>1</sv_total>
  <support_vectors>
    <_>
      4.81474102e-02 1.06090158e-01 7.32577667e-02 -2.03910500e-01
      4.99786809e-02 -1.72793251e-02 2.80089062e-02 4.22133170e-02
      9.06672031e-02 -7.59149864e-02 4.20584530e-02 1.14110626e-01
      -8.92716497e-02 1.52805954e-01 -2.80138981e-02 -1.62476711e-02
      -5.60682965e-03 -1.33348957e-01 -1.16734474e-03 9.23386365e-02
      7.61746019e-02 -8.51499662e-02 5.92182055e-02 3.13002765e-02
      1.17218085e-01 1.04018956e-01 6.72418177e-02 -6.65744022e-02
      1.00364700e-01 -3.04271486e-02 -6.32362217e-02 6.77121505e-02
      -6.47749156e-02 -3.56380939e-02 4.46458831e-02 -8.84981304e-02
      8.00224487e-03 3.05952001e-02 1.56170297e-02 -1.52071640e-01
      1.53233986e-02 -1.02256676e-02 -1.01278238e-01 -1.02925755e-01
      -1.45568073e-01 2.72580743e-01 2.54973322e-01 1.77668959e-01
      4.62934412e-02 -3.19032222e-02 5.64400107e-02 2.07564477e-02
      -9.90432203e-02 8.36230442e-02 -2.63895243e-02 5.47104739e-02
      -2.08033681e-01 -3.49861532e-01 -1.58198476e-01 -8.43502358e-02
      -1.18692935e-01 1.27861192e-02 -8.82778391e-02 1.35687649e-01
      2.38272622e-01 3.09813619e-02 -1.28023803e-01 -2.01978475e-01
      -2.35533323e-02 -5.38595691e-02 -1.58840790e-02 1.24277182e-01
      2.65138615e-02 9.32812691e-02 -2.36182497e-03 -1.01270787e-01
      -1.29376173e-01 -3.84441838e-02 -5.01988269e-02 -2.22036362e-01
      -8.74467567e-02 7.22721964e-02 -8.81360844e-02 -1.28788769e-01
      4.37193643e-03 -6.93972260e-02 4.94428650e-02 1.19444244e-01
      2.74556167e-02 1.00931413e-01 -1.51849359e-01 9.28838775e-02
      -7.30127171e-02 -8.09143409e-02 -9.46039185e-02 -8.89077112e-02
      -8.12625736e-02 -1.54014587e-01 -2.01405942e-01 -1.97265507e-03
      -8.22771341e-02 -1.19950034e-01 1.04034450e-02 -3.62406634e-02
      9.80318114e-02 7.55812898e-02 3.01804189e-02 7.43041262e-02
      5.66651970e-02 -4.25346978e-02 -1.36408478e-01 -4.66138273e-02
      -3.36270444e-02 2.86379829e-02 4.15624306e-03 5.95595017e-02
      8.68385136e-02 8.40074867e-02 9.62378532e-02 -1.26271501e-01
      -8.78027827e-02 -9.34885293e-02 6.56196922e-02 -1.12437606e-02
      1.26479939e-01 1.79226339e-01 -7.25153610e-02 -1.08769266e-02
      -6.98498115e-02 -9.46833119e-02 8.04784223e-02 -4.91471663e-02
      -2.56044213e-02 -8.97895917e-03 1.26398370e-01 -1.29674226e-01
      -9.38329101e-03 -4.44251411e-02 -8.65800008e-02 -3.10548078e-02
      -5.27415946e-02 -1.24942763e-02 3.09930313e-02 4.20640334e-02
      7.87161663e-02 1.31467581e-01 -1.02167480e-01 -9.91504639e-02
      -2.15814710e-02 6.94684163e-02 -1.33120744e-02 8.85594413e-02
      8.98842588e-02 1.45440415e-01 2.89320201e-02 -9.86685455e-02
      -1.22689627e-01 -5.53645641e-02 7.41879195e-02 -1.24499932e-01
      -4.86216322e-03 9.19103101e-02 -1.91934004e-01 2.47393213e-02
      -1.86327770e-02 -2.77947858e-02 1.10213675e-01 1.45960050e-02
      2.81799454e-02 2.35186182e-02 2.77604349e-02 -1.32822424e-01
      -7.22865537e-02 -5.36776856e-02 -2.36896761e-02 2.86448430e-02
      8.63591880e-02 -1.08581506e-01 -1.28762126e-01 -4.03598137e-02
      6.37540743e-02 -1.91382710e-02 2.25315224e-02 -1.97952747e-01
      4.62468639e-02 1.37868986e-01 8.94687325e-02 1.10397741e-01
      8.05237740e-02 6.72131032e-02 4.75090109e-02 -2.82325059e-01
      -3.46276104e-01 -1.77286845e-02 -1.44808060e-02 7.51528442e-02
      4.16243970e-02 -3.88205759e-02 3.98670793e-01 1.28846243e-01
      -8.96070153e-02 -3.11260253e-01 -1.07438691e-01 5.68361580e-02
      1.83346018e-01 1.49373427e-01 3.32615703e-01 2.14286461e-01
      1.42803058e-01 -3.31538379e-01 -3.91632825e-01 -1.65601850e-01
      -5.26085496e-03 1.37510225e-01 1.70924902e-01 1.47587448e-01
      1.40255848e-02 8.05813745e-02 -3.61422807e-01 -4.79653031e-01
      -1.37413040e-01 -1.26051769e-01 -1.69571098e-02 -1.77914742e-02
      -5.97351156e-02 -4.34857840e-03 2.49828920e-01 -9.60517675e-02
      -9.11099613e-02 1.26419198e-02 -4.61265668e-02 1.77952010e-04
      -5.13213053e-02 -9.85529833e-03 1.45608827e-01 1.33155704e-01
      -3.59304577e-01 -3.24495554e-01 -7.04890639e-02 -6.61490718e-03
      9.70029756e-02 7.41720051e-02 1.05065838e-01 7.24407732e-02
      1.22642510e-01 -1.98907126e-02 -5.40398769e-02 1.72946736e-01
      5.60588203e-02 5.14008291e-02 -1.10901389e-02 8.68815556e-02
      -5.35836592e-02 9.82013568e-02 1.10839345e-01 1.46965876e-01
      1.90331209e-02 -6.51558302e-03 2.68545877e-02 -1.39977587e-02
      -5.85243218e-02 6.47869483e-02 -4.87499647e-02 4.99264300e-02
      9.40624923e-02 1.50294118e-02 1.39872387e-01 2.22095624e-01
      1.66551515e-01 7.59656578e-02 -2.38461718e-02 1.29973302e-02
      8.61147642e-02 -1.29617164e-02 2.50087921e-02 -6.39462918e-02
      2.14954372e-02 -1.39852375e-01 -1.42063782e-01 3.93879833e-03
      3.54626440e-02 5.80698922e-02 1.56375356e-02 -6.67852461e-02
      -4.44579683e-02 6.59260973e-02 -1.80249047e-02 -4.63715866e-02
      -5.57241365e-02 -1.94325496e-03 5.11544608e-02 -3.32168415e-02
      2.92312074e-02 -2.40627192e-02 1.25695258e-01 1.24625050e-01
      1.09256625e-01 -1.08655334e-01 4.84720431e-02 6.00246005e-02
      3.72280963e-02 -2.53124591e-02 4.42088656e-02 6.81302249e-02
      8.88592824e-02 8.95496234e-02 -7.56216869e-02 6.56424239e-02
      9.47815776e-02 2.98095066e-02 1.52015751e-02 -3.64743173e-02
      6.88086674e-02 1.84333846e-02 -4.73304316e-02 -2.43576132e-02
      8.14923123e-02 1.08144581e-01 9.89287868e-02 5.59163131e-02
      1.54343888e-01 4.47964966e-02 3.71217467e-02 9.73968301e-03
      -1.01432353e-01 8.13735370e-03 -2.41782144e-03 -8.54956801e-04
      1.39683262e-01 1.23114295e-01 6.99236989e-02 1.04535751e-01
      6.45831302e-02 2.51796632e-03 6.68517838e-04 -3.58034410e-02
      7.76973646e-03 1.35813802e-01 1.03501379e-01 1.02916896e-01
      9.49645042e-02 6.92760851e-03 -3.43087241e-02 -1.14616165e-02
      5.55558167e-02 5.08679636e-02 1.05036393e-01 1.53122380e-01
      -4.81553525e-02 -1.09841237e-02 -1.08801508e-02 -1.14925660e-01
      -9.97276679e-02 -2.59445980e-02 5.35528734e-02 -3.84621955e-02
      8.59147608e-02 -5.83491139e-02 -8.01511854e-02 -9.22927409e-02
      3.93312007e-01 1.21733457e-01 -1.58965722e-01 -3.60801756e-01
      -2.69265562e-01 -2.91325171e-02 1.19667456e-01 4.32963260e-02
      2.35086516e-01 1.35536954e-01 7.96381906e-02 -2.47717306e-01
      -2.88891554e-01 -1.71871871e-01 7.43590221e-02 6.95560277e-02
      -2.21870169e-02 -7.75156692e-02 2.12913588e-01 1.22015744e-01
      -1.17125437e-01 -3.84634733e-01 -3.08914602e-01 -4.40651886e-02
      3.83148454e-02 -3.89834773e-03 1.46639526e-01 -6.45043105e-02
      5.07504940e-02 -5.96355600e-03 -1.24865673e-01 -4.65089381e-02
      1.23028502e-01 1.46056175e-01 5.69266677e-02 -1.25895619e-01
      5.65515384e-02 -2.11226232e-02 -2.13203087e-01 -2.29894534e-01
      -1.53231826e-02 1.45547256e-01 1.34240001e-01 2.55964305e-02
      -6.42666295e-02 -1.39850974e-01 -7.32773319e-02 -1.69935115e-02
      -3.67452092e-02 9.73392203e-02 1.43806323e-01 1.19168110e-01
      -3.57348635e-03 -8.77861530e-02 -1.67469218e-01 -6.30429462e-02
      1.33734852e-01 -1.93000282e-03 7.19448254e-02 1.35187030e-01
      1.57080695e-01 5.39925210e-02 5.61334826e-02 -9.21688080e-02
      -1.69373587e-01 1.63855236e-02 -1.99184008e-02 4.86556552e-02
      9.06721205e-02 9.95290801e-02 -4.30830568e-02 1.75783373e-02
      -1.04274713e-01 -2.99150329e-02 1.84703887e-01 1.38189420e-01
      9.96062607e-02 8.31843689e-02 9.41004828e-02 -1.63337775e-02
      -2.56848723e-01 -7.45214447e-02 6.11273460e-02 1.48450509e-01
      1.69479504e-01 2.47941777e-01 2.08139718e-01 9.85446051e-02
      -6.31369725e-02 -1.52894288e-01 -2.55572528e-01 -9.17776302e-02
      1.36924922e-01 8.67969841e-02 9.62458476e-02 8.66020471e-02
      7.12595209e-02 -7.68708885e-02 -1.47022888e-01 -1.64977774e-01
      8.39454979e-02 1.61715910e-01 1.76662743e-01 2.09092513e-01
      2.00095803e-01 6.24731481e-02 -1.35399461e-01 -9.54414234e-02
      -3.70565243e-02 2.03227684e-01 1.42512992e-01 1.49209142e-01
      1.51345015e-01 9.18445289e-02 -4.29170318e-02 -7.38439113e-02
      -2.95948982e-02 -2.40874812e-02 2.26656154e-01 2.39980534e-01
      1.66913539e-01 1.43748522e-01 8.05368945e-02 -1.39351562e-03
      -2.25833505e-02 5.29436693e-02 -6.09683134e-02 2.04582885e-01
      1.17198102e-01 1.33349583e-01 8.06491449e-02 5.16942143e-02
      -1.39570609e-02 -1.49120837e-01 -5.40360734e-02 4.83077429e-02
      1.26779824e-01 2.01931179e-01 1.24075890e-01 3.40398736e-02
      -3.78534431e-03 7.89148435e-02 9.91299376e-02 1.62230711e-03
      7.07875490e-02 9.27586481e-02 1.97849900e-01 1.50832906e-01
      1.41711429e-01 1.27836764e-01 1.77239403e-02 -1.01015747e-01
      1.05276834e-02 6.59890324e-02 9.14848149e-02 1.15486756e-01
      2.47794509e-01 1.11346029e-01 1.30840927e-01 4.94224653e-02
      -1.08503170e-01 -1.37419552e-01 4.16443199e-02 4.04809490e-02
      1.58323497e-01 9.58345383e-02 8.42185915e-02 5.14271185e-02
      6.17968887e-02 4.21197079e-02 -9.49454010e-02 -1.76573116e-02
      1.86121941e-01 1.26689121e-01 1.19028106e-01 1.73562840e-01
      5.97228222e-02 3.74233760e-02 -1.87877432e-01 -1.78771496e-01
      1.10893868e-01 5.12026735e-02 -1.16144642e-01 -3.02226603e-01
      -1.38865381e-01 -8.83746520e-02 -5.13090231e-02 -4.28786688e-02
      -1.94483288e-02 6.02928288e-02 9.80032049e-03 7.15781227e-02
      -7.35225454e-02 8.24913159e-02 1.27699211e-01 1.04779452e-01
      -6.02298044e-02 -1.05771057e-01 9.92083400e-02 1.08828411e-01
      -1.12980669e-02 -1.33422628e-01 -5.22366576e-02 -8.39378238e-02
      -2.34352183e-02 -8.76287147e-02 2.16354765e-02 2.00940177e-01
      1.24386877e-01 3.11607365e-02 -7.77438432e-02 4.47805114e-02
      1.05747774e-01 5.31892888e-02 -5.59639297e-02 3.83830667e-02
      -7.02698305e-02 2.75486405e-03 1.53061375e-01 2.33318359e-02
      -3.26085626e-03 4.90474217e-02 8.49483013e-02 -2.00924482e-02
      -2.06287056e-02 -2.99363639e-02 -7.91214928e-02 7.30240270e-02
      -3.96834053e-02 -6.41979650e-02 -5.23045547e-02 -7.11333081e-02
      -6.06994815e-02 -3.10683884e-02 4.83985171e-02 3.79009359e-02
      3.34879570e-02 1.46263908e-03 7.38505423e-02 9.01942179e-02
      6.43910095e-02 -1.40849417e-02 2.52677370e-02 4.76160645e-02
      1.09860562e-02 -3.35930511e-02 -8.53845757e-03 5.33027062e-03
      -1.73651818e-02 -1.34368585e-02 5.80689125e-02 6.91609010e-02
      -7.65672028e-02 -8.88319220e-03 9.63506475e-02 2.82632001e-02
      5.40535711e-02 5.92824910e-03 -3.53548415e-02 -1.39791727e-01
      -1.03909880e-01 -1.48429334e-01 4.10252959e-02 6.23313636e-02
      7.91910961e-02 2.83392221e-02 2.86721475e-02 -3.14625762e-02
      -1.30680919e-01 -8.89591649e-02 7.48581812e-02 -4.14722972e-02
      6.56581149e-02 4.74912710e-02 7.50682428e-02 3.77163924e-02
      1.44929104e-02 3.63897160e-02 -5.94220869e-02 2.11622640e-02
      -2.22245455e-02 -1.79022215e-02 5.56302071e-02 7.63286799e-02
      8.40624571e-02 4.53103669e-02 -4.37324494e-02 -4.66059931e-02
      -3.54015306e-02 9.91659611e-02 -9.07469075e-03 5.39173968e-02
      2.00720243e-02 -2.04340331e-02 -6.51754672e-03 -5.68907149e-02
      -3.32714729e-02 -1.90342795e-02 9.75531992e-03 5.63655905e-02
      8.31509680e-02 -1.48684240e-03 -3.51437107e-02 4.13288586e-02
      4.29246426e-02 -1.26936445e-02 6.46973327e-02 -3.76779377e-03
      3.08441669e-02 8.67685750e-02 1.07671544e-01 1.15269320e-02
      2.52838507e-02 6.71620816e-02 2.00505089e-02 1.09058417e-01
      1.13620989e-01 1.20098479e-01 1.07328303e-01 7.50353634e-02
      -2.06628554e-02 -9.33116954e-03 7.07097873e-02 1.46230338e-02
      -4.63597439e-02 -1.06668115e-01 3.00323609e-02 5.38221300e-02
      7.15350881e-02 8.47563297e-02 1.20274760e-02 6.74682036e-02
      -1.66325271e-02 -1.75290167e-01 9.58975255e-02 8.43463764e-02
      -2.01066514e-03 -5.12334332e-02 1.12762570e-01 7.88256600e-02
      -4.95905131e-02 -1.62208661e-01 6.50311187e-02 4.01893184e-02
      5.99662140e-02 8.14661905e-02 1.38523206e-01 6.87014312e-02
      -8.82232748e-03 8.23615417e-02 1.04929646e-02 -2.47119013e-02
      8.64026397e-02 4.27309386e-02 -2.59765740e-02 9.60671529e-03
      1.34621218e-01 2.03184426e-01 9.35866907e-02 -7.40214586e-02
      -1.60507690e-02 -1.23918485e-02 -7.02952687e-03 -1.68678135e-01
      -3.80854346e-02 5.35971299e-02 1.73041504e-02 -5.55609092e-02
      -1.55159697e-01 5.42342924e-02 -2.31522340e-02 -3.62016112e-02
      -1.23999968e-01 1.04893602e-01 8.35747197e-02 6.82759136e-02
      -2.94872634e-02 -1.33783758e-01 1.42970681e-01 -7.31073990e-02
      -4.85046729e-02 -1.36402324e-01 -5.17770983e-02 -4.09240238e-02
      -1.01813793e-01 -1.99827135e-01 -6.34379266e-03 9.41549316e-02
      -1.05495177e-01 2.56648492e-02 1.26053855e-01 1.16938896e-01
      1.32117867e-01 -1.36460708e-02 3.81802395e-03 5.34962937e-02
      4.48396280e-02 2.32955571e-02 -5.48545308e-02 -3.55176926e-02
      -2.16417406e-02 6.89083338e-02 8.08299407e-02 2.44707661e-03
      -4.03480716e-02 -3.38416211e-02 -4.96807173e-02 -1.73983555e-02
      5.56410514e-02 -1.46855018e-03 5.23470417e-02 3.76044512e-02
      3.95593978e-02 1.12907998e-01 -8.88441689e-03 -6.79489672e-02
      -2.67378520e-03 1.03726804e-01 1.10756800e-01 1.71203725e-02
      7.25416467e-02 2.20881570e-02 6.76054955e-02 -8.17860216e-02
      -1.72567904e-01 7.56382570e-03 2.17251644e-01 1.43344805e-01
      5.66950589e-02 -4.55271266e-03 2.70598312e-03 1.15947556e-02
      -2.24917792e-02 -5.42316809e-02 2.49137487e-02 1.12475604e-02
      -3.51812644e-03 2.17235330e-02 4.74086292e-02 9.13126916e-02
      8.22321996e-02 1.80029366e-02 -4.20576446e-02 -3.80495638e-02
      5.53733995e-03 7.40245869e-03 -4.45401967e-02 -1.74733400e-02
      -4.59075160e-02 3.34138162e-02 -1.43121064e-01 -5.50329462e-02
      1.42383501e-01 1.50564119e-01 1.44055039e-01 7.56257474e-02
      -4.37335490e-04 2.16603167e-02 -6.46494776e-02 -3.16411890e-02
      -1.28577147e-02 -1.59496497e-02 5.91565445e-02 -3.00140511e-02
      2.54380032e-02 -5.16162142e-02 -1.36805043e-01 -2.55027283e-02
      7.07132071e-02 8.60707685e-02 2.17743721e-02 2.49190908e-02
      -1.71687230e-02 -5.31072542e-02 -5.62435389e-02 -4.04654555e-02
      2.40761638e-02 1.22515082e-01 1.16804764e-01 1.35859877e-01
      5.01017906e-02 -6.71920404e-02 -1.31417453e-01 -3.17806825e-02
      4.89931703e-02 7.11723836e-03 1.44518480e-01 -2.17484925e-02
      -5.11987098e-02 7.78429583e-03 6.38086647e-02 2.17608605e-02
      -7.16056451e-02 3.58472625e-03 8.13166946e-02 -4.93818782e-02
      -1.27052814e-02 3.46383005e-02 2.02397317e-01 1.94635596e-02
      -3.09174005e-02 -2.44467962e-03 1.19399734e-01 4.83264551e-02
      6.79997876e-02 6.81296885e-02 3.49743366e-02 1.45723829e-02
      -8.70558992e-02 -8.24292153e-02 -3.64633948e-02 1.36728967e-02
      3.21758841e-03 -9.30033177e-02 -5.81129976e-02 -8.30647442e-03
      -3.54853496e-02 -4.62543741e-02 -1.98927391e-02 7.04028271e-03
      1.42596764e-02 2.27655694e-02 6.51722252e-02 -4.27177921e-02
      -1.49655435e-02 1.33105651e-01 3.13137919e-02 -8.26406851e-02
      5.11147901e-02 4.25004140e-02 8.15152004e-02 3.83822434e-02
      -1.19359732e-01 -3.36412853e-03 1.22290887e-01 -3.67210770e-04
      5.34012802e-02 2.99079325e-02 -1.72804445e-02 1.70120925e-01</_></support_vectors>
  <uncompressed_sv_total>134</uncompressed_sv_total>
  <uncompressed_support_vectors>
    <_>
      1.81901962e-01 1.56756833e-01 3.00317407e-01 3.00317407e-01
      4.65942211e-02 2.42804587e-02 2.65083788e-03 5.38777979e-03
      9.28729177e-02 3.00317407e-01 1.13232642e-01 1.60402790e-01
      1.41686857e-01 2.96052657e-02 1.71922147e-02 7.87433162e-02
      5.58705851e-02 3.00317407e-01 5.83175942e-02 8.34371895e-02
      3.00317407e-01 3.00317407e-01 1.29856259e-01 8.66545271e-03
      9.66363400e-03 9.60564986e-03 1.68582015e-02 1.74583644e-01
      3.38617861e-02 3.00317407e-01 3.00317407e-01 2.39538580e-01
      2.41105519e-02 6.51477203e-02 3.95860411e-02 1.18759833e-01
      1.55189782e-01 6.17587939e-03 1.05566770e-01 1.54801443e-01
      1.87288374e-01 5.10196574e-03 2.32473463e-01 6.53399825e-02
      2.90322572e-01 2.36370526e-02 1.81155205e-02 7.33455867e-02
      1.91233277e-01 2.90322572e-01 3.15520819e-03 1.53561249e-01
      4.11134511e-02 1.55612573e-01 1.03382908e-01 5.12278266e-03
      2.90322572e-01 2.90322572e-01 2.90322572e-01 8.50327685e-03
      1.37006477e-01 6.31792769e-02 1.21025741e-01 1.20723173e-01
      1.95255466e-02 2.90322572e-01 2.90322572e-01 2.90322572e-01
      1.89312489e-03 8.09054747e-02 4.06145491e-02 8.04466456e-02
      4.55485918e-02 1.29705131e-01 1.31135792e-01 2.34348848e-01
      3.02803993e-01 6.23917058e-02 2.41875947e-02 9.48721617e-02
      5.52580804e-02 9.60343629e-02 4.64425795e-02 1.20858312e-01
      5.95487207e-02 4.07711752e-02 4.93534207e-02 2.26921216e-02
      1.74440250e-01 1.06735520e-01 3.02803993e-01 1.02754399e-01
      1.38166696e-01 3.02803993e-01 3.02803993e-01 5.33781201e-02
      6.76631033e-02 1.29747421e-01 3.00689131e-01 1.72384635e-01
      3.72621752e-02 1.49875566e-01 2.39029318e-01 8.86126906e-02
      1.32461607e-01 1.37669772e-01 3.02803993e-01 2.35863060e-01
      1.48767799e-01 6.56232685e-02 1.28560558e-01 3.38650420e-02
      7.80723840e-02 2.20053289e-02 6.26440421e-02 1.64209798e-01
      1.46503821e-01 2.65032977e-01 2.38852262e-01 1.63103670e-01
      1.03738651e-01 2.41730422e-01 1.04386853e-02 7.61502311e-02
      7.64456093e-02 1.44390747e-01 1.69831395e-01 6.16943352e-02
      1.28552884e-01 1.82940707e-01 1.34327993e-01 1.65227592e-01
      1.59775257e-01 2.63303339e-01 2.28792354e-01 2.90068120e-01
      1.51732400e-01 1.74883977e-01 1.59915879e-01 2.90068120e-01
      1.46942392e-01 2.24683478e-01 1.28129676e-01 1.64999425e-01
      1.82530448e-01 1.51818916e-01 9.30702686e-02 9.27415639e-02
      2.41866454e-01 8.00836161e-02 7.14802369e-02 5.65124042e-02
      8.66334438e-02 2.38107026e-01 6.79323897e-02 9.38959271e-02
      4.52671275e-02 2.85947978e-01 1.31678268e-01 7.98395649e-02
      7.58188590e-02 2.18946442e-01 2.50695527e-01 7.29008317e-02
      7.13164061e-02 1.09357327e-01 2.87730545e-01 2.41080478e-01
      1.93848163e-01 8.88789594e-02 3.71171720e-02 1.50651976e-01
      2.14420650e-02 1.16073117e-01 1.69804901e-01 1.86681420e-01
      2.87730545e-01 2.87730545e-01 2.04846635e-01 1.74957410e-01
      4.58840877e-02 1.39604181e-01 2.93781072e-01 2.93781072e-01
      1.90715060e-01 2.45812498e-02 1.48779582e-02 2.78739799e-02
      4.40135114e-02 5.04332110e-02 9.03053861e-03 2.93781072e-01
      2.93781072e-01 2.93781072e-01 1.20070435e-01 2.17577424e-02
      2.28872940e-01 1.22661687e-01 6.09574579e-02 7.25162625e-02
      1.34648055e-01 1.08066387e-01 6.58225566e-02 4.99572121e-02
      3.64655890e-02 5.99446259e-02 8.99211690e-02 9.70432535e-02
      2.80625392e-02 7.91470110e-02 2.14809015e-01 2.77093768e-01
      2.03556642e-01 8.37492943e-02 2.93781072e-01 2.93781072e-01
      1.23053946e-01 3.58546531e-04 3.13405365e-01 2.72517115e-01
      2.02756628e-01 2.00402290e-02 2.05579563e-03 1.84454948e-01
      2.32404485e-01 2.99649060e-01 5.81328198e-03 1.48559138e-01
      9.53077301e-02 8.60554427e-02 0. 0. 1.37042537e-01 3.13405365e-01
      2.28782192e-01 5.86147653e-03 3.78175601e-02 8.01676884e-02
      8.41035694e-02 4.25784029e-02 1.30375428e-02 1.96409032e-01
      3.13405365e-01 3.13405365e-01 8.18253309e-03 1.25606153e-02
      1.83873996e-02 1.65663641e-02 3.25061008e-02 9.65556223e-03
      1.72565237e-01 3.13405365e-01 2.01611251e-01 5.64490678e-03
      3.91942216e-03 1.11129759e-02 2.03922577e-02 2.03443831e-03
      1.46994116e-02 1.03403613e-01 3.94845098e-01 1.31443948e-01
      2.56852666e-03 1.00782393e-02 1.33859133e-02 6.36025053e-03
      7.30718486e-03 2.50284523e-02 9.91395563e-02 3.94845098e-01
      3.10986876e-01 4.07808879e-03 8.31587939e-04 4.46711993e-03
      3.85148660e-03 1.68755800e-02 2.16595158e-02 1.60109788e-01
      3.94845098e-01 3.94845098e-01 9.05601867e-03 1.89358741e-02
      4.10844572e-03 7.16390728e-04 2.46710633e-03 2.49467734e-02
      1.09735392e-01 3.94845098e-01 1.48346469e-01 2.30464106e-03
      1.52704353e-02 1.19238012e-02 5.82784787e-03 6.76525990e-03
      7.96184782e-03 1.90744177e-02 3.56958926e-01 2.09524706e-01
      4.31709969e-03 1.41921006e-02 8.37163441e-03 1.86458658e-02
      1.49626136e-02 1.71221700e-02 1.22972224e-02 3.67581367e-01
      3.88647914e-01 1.38236815e-02 2.41259038e-02 5.71029959e-03
      9.68439505e-04 9.75486706e-04 5.37388911e-03 1.61622837e-02
      4.13289547e-01 4.13289547e-01 6.67165965e-03 9.62025765e-03
      3.42617952e-03 8.90735816e-03 6.31902646e-03 7.18287006e-03
      1.85852200e-02 4.13289547e-01 1.36852771e-01 1.74871262e-03
      5.07049169e-03 1.14040468e-02 2.13458110e-02 1.49887763e-02
      1.06989667e-02 1.63877811e-02 2.69957542e-01 1.29368231e-01
      1.17949490e-03 1.84785705e-02 2.51795147e-02 1.17432838e-02
      1.72406659e-02 1.62283666e-02 1.70043483e-02 2.95189738e-01
      4.44127381e-01 5.48975263e-03 4.05755313e-03 4.42222832e-03
      1.44111468e-02 3.58532998e-03 2.91334488e-03 3.88102680e-02
      4.44127381e-01 4.44127381e-01 9.43241268e-03 1.25844739e-02
      1.01704039e-02 8.52206443e-03 1.88155693e-03 5.73036319e-04
      7.53199309e-02 4.44127381e-01 2.09813952e-01 1.16252089e-02
      6.33498747e-03 7.24459998e-03 3.95597797e-03 7.98439886e-03
      1.88819766e-02 1.61063075e-02 2.71141022e-01 1.78321451e-01
      1.20779201e-02 1.63870808e-02 3.96215869e-03 1.51110822e-02
      1.73167773e-02 3.82271372e-02 3.50173786e-02 3.75668317e-01
      4.18275416e-01 8.87890533e-03 1.84306130e-03 2.11095461e-03
      4.17991634e-03 3.78428632e-03 8.44988134e-03 4.64972341e-03
      4.18275416e-01 4.18275416e-01 1.72541721e-03 5.50786406e-03
      6.93599181e-03 1.06993867e-02 3.57307121e-03 1.02814585e-02
      2.10943222e-02 4.18275416e-01 1.77456290e-01 7.43119558e-03
      1.06080817e-02 8.16919655e-03 1.40862456e-02 2.11198088e-02
      1.28854085e-02 2.90143117e-02 2.80868858e-01 2.06823334e-01
      1.44535955e-02 5.08026825e-03 1.17486948e-02 9.89045296e-03
      4.46934290e-02 1.13881025e-02 3.49108800e-02 4.08322304e-01
      4.08322304e-01 2.09301035e-03 4.81891865e-03 7.02842837e-03
      1.22216893e-02 6.83446880e-03 3.34165082e-03 2.09998377e-02
      4.08322304e-01 4.08322304e-01 7.99953844e-03 3.90130607e-03
      1.11029120e-02 9.82088968e-03 1.32865999e-02 2.31191190e-03
      4.71405685e-02 4.08322304e-01 1.47666082e-01 4.72409232e-03
      2.03851820e-03 1.37260128e-02 3.09013738e-03 1.94273051e-02
      2.97442693e-02 4.17147428e-02 3.49231184e-01 2.00492546e-01
      1.12577779e-02 1.80610418e-02 1.52445734e-02 2.54884874e-03
      2.98331492e-03 4.50142622e-02 4.10278104e-02 4.21252578e-01
      3.28723490e-01 2.89211911e-03 1.39566371e-03 1.10379197e-02
      4.65083821e-03 4.15177830e-03 1.84987783e-02 4.33699936e-02
      4.21252578e-01 3.93209308e-01 5.44620119e-03 3.06956726e-03
      1.76878199e-02 4.22992744e-03 1.06862269e-03 3.54045182e-02
      7.16749951e-02 4.21252578e-01 1.82807386e-01 1.75411608e-02
      2.02928968e-02 8.93170945e-03 6.58039981e-03 2.01973191e-04
      1.00745782e-02 1.09999776e-02 3.92662734e-01 2.31825873e-01
      7.56773259e-03 4.73988056e-03 1.11716250e-02 2.54941341e-02
      5.84425684e-03 0. 1.08383903e-02 3.92662734e-01 3.64995420e-01
      6.58160215e-03 3.92748555e-03 9.97736026e-03 9.65992175e-03
      1.21183919e-04 7.34989112e-03 3.31948735e-02 3.92662734e-01
      3.92662734e-01 7.22458493e-03 2.53216107e-03 1.56740844e-02
      2.53836438e-02 9.74042807e-03 0. 1.58572253e-02 3.92662734e-01
      2.68593669e-01 1.46661373e-02 9.92113724e-03 3.21485125e-03
      2.20630895e-02 6.07249700e-03 8.45645045e-05 1.48859257e-02
      3.74584168e-01 3.32382351e-01 2.89470274e-02 1.80498175e-02 0.
      8.15251190e-03 8.67499504e-04 5.91951539e-04 4.59389761e-02
      3.74584168e-01 3.20795268e-01 2.58763228e-02 9.19263903e-03
      5.35808504e-03 1.64210089e-02 1.01208268e-02 5.91951539e-04
      1.67567600e-02 3.74584168e-01 3.74584168e-01 3.85710709e-02
      1.78453792e-02 0. 4.96986089e-03 1.44583243e-03 4.14366089e-03
      3.82619314e-02 3.74584168e-01 4.76263970e-01 2.58371849e-02
      2.36688256e-02 2.32726857e-02 3.64878438e-02 1.79313514e-02
      1.11631909e-02 3.40380333e-03 4.76263970e-01 4.76263970e-01
      4.26708255e-03 3.35761085e-02 5.36964126e-02 3.97868715e-02
      3.18815187e-02 1.40594887e-02 3.35661396e-02 4.76263970e-01
      5.77019192e-02 3.18580866e-02 3.72310132e-02 4.32393663e-02
      4.37621139e-02 2.12960113e-02 6.26898557e-02 1.54902572e-02
      5.29745109e-02 1.53683171e-01 4.11799066e-02 3.52874622e-02
      5.84718920e-02 5.57730235e-02 7.07784966e-02 1.08821541e-01
      1.20940702e-02 9.69033018e-02 4.72113281e-01 2.24912968e-02
      1.66831277e-02 1.71236973e-02 3.61403339e-02 3.87023482e-03
      2.12943112e-03 2.74768099e-02 4.72113281e-01 4.72113281e-01
      3.71066369e-02 1.58031955e-02 3.25082876e-02 4.91263308e-02 0.
      1.00726145e-03 4.04293314e-02 4.72113281e-01 1.52777359e-01
      5.31543046e-02 1.85462851e-02 2.61224173e-02 4.39440794e-02
      2.70765200e-02 4.03742753e-02 7.07384711e-03 7.19682351e-02
      1.38320386e-01 9.22939330e-02 2.63211168e-02 4.66488525e-02
      7.12492764e-02 3.87428235e-03 1.68215651e-02 4.52090846e-03
      1.45600274e-01 3.29555959e-01 6.18224917e-03 7.67509546e-03
      1.34598659e-02 2.22267974e-02 7.97357317e-03 4.78747999e-03
      2.82151289e-02 5.13259053e-01 4.09784079e-01 4.22679214e-03
      2.63178768e-03 8.06502346e-03 1.13006094e-02 1.83382183e-02
      8.07181466e-03 9.10989568e-02 5.13259053e-01 4.58432175e-02
      1.98569596e-02 1.86360199e-02 1.70603357e-02 3.72390114e-02
      1.94649752e-02 1.98848583e-02 1.39695304e-02 1.67285666e-01
      1.08890213e-01 6.14240533e-03 1.20397117e-02 4.01347801e-02
      3.70095149e-02 7.43508860e-02 3.50290239e-02 5.27929775e-02
      3.50519419e-01 3.56530249e-01 5.96487010e-03 0. 1.69892907e-02
      8.21179058e-03 3.97347845e-03 1.70725351e-03 3.76225486e-02
      4.34640884e-01 4.34640884e-01 1.05102984e-02 5.80173032e-03
      2.26796679e-02 9.35010426e-03 7.61767197e-03 4.53377469e-03
      1.78715643e-02 4.34640884e-01 1.26493841e-01 9.95000359e-03
      3.09352460e-03 5.39536737e-02 4.17398065e-02 2.02053469e-02
      1.35401329e-02 2.53765211e-02 2.56181926e-01 2.67811686e-01
      2.21230481e-02 1.98025499e-02 4.28703688e-02 6.03614897e-02
      1.21192709e-02 2.38572732e-02 1.82842296e-02 3.63418758e-01
      3.60068291e-01 1.69326682e-02 9.86125600e-03 2.94737960e-03
      2.99014780e-03 3.37197562e-03 4.11184411e-03 1.81318428e-02
      4.12746251e-01 4.12746251e-01 1.47999795e-02 9.33959708e-03 0.
      2.73549487e-03 2.16747794e-04 1.25692599e-02 2.22863350e-02
      4.12746251e-01 1.62246943e-01 2.41830498e-02 4.21438105e-02
      5.38260862e-03 1.56346224e-02 6.95572980e-03 2.24960335e-02
      1.50994966e-02 3.04700851e-01 2.29817927e-01 3.23139429e-02
      7.48312622e-02 3.01507558e-03 6.08551735e-03 4.19362634e-03
      2.51700822e-02 1.79378912e-02 4.12746251e-01 1.00936703e-01
      2.02547833e-01 3.75234596e-02 1.78816646e-01 1.38530612e-01
      2.22793818e-02 1.06417000e-01 4.47738878e-02 8.52384046e-02
      2.71814913e-01 2.59661317e-01 4.88355346e-02 1.59798652e-01
      1.21851869e-01 1.11854725e-01 2.13781402e-01 1.34406183e-02
      1.71470374e-01 1.10057428e-01 2.34690756e-01 3.72521169e-02
      2.25158811e-01 2.71098733e-01 7.54807144e-02 1.54718816e-01
      2.96417847e-02 8.89874101e-02 2.71814913e-01 2.71814913e-01
      9.78088155e-02 2.23330215e-01 2.71814913e-01 1.12310722e-01
      2.23621696e-01 2.77359709e-02 1.57625005e-01 2.83093214e-01
      1.10041499e-01 7.88125843e-02 6.95515871e-02 8.87030140e-02
      1.06754556e-01 1.99744344e-01 1.08275739e-02 1.86450034e-01
      1.47232726e-01 1.14117987e-01 8.71233791e-02 9.54461694e-02
      2.88469017e-01 2.74224672e-02 1.10819571e-01 2.18441729e-02
      1.69569612e-01 2.81404376e-01 1.70769393e-01 1.84701189e-01
      6.31170198e-02 1.34952560e-01 5.09893633e-02 2.25377187e-01
      5.62269017e-02 3.09199780e-01 1.68213338e-01 2.31183201e-01
      1.29146948e-01 6.93558902e-02 2.92601913e-01 1.22184921e-02
      1.19856082e-01 8.30686614e-02 3.09199780e-01 6.27962947e-02
      3.83565947e-02 6.33561388e-02 3.41007859e-02 2.47719973e-01
      6.27408400e-02 5.91666251e-02 2.83961222e-02 1.37493357e-01
      1.25685006e-01 2.00892594e-02 5.32354340e-02 9.83310640e-02
      1.38942823e-01 2.76105016e-01 1.77900344e-01 1.61614075e-01
      2.57469922e-01 2.04157203e-01 1.83347344e-01 3.31057683e-02
      9.38183218e-02 2.76105016e-01 1.09410569e-01 3.62678729e-02
      3.66141237e-02 2.76105016e-01 2.76105016e-01 7.38203675e-02
      2.02820059e-02 6.13955669e-02 2.60348678e-01 2.76105016e-01
      1.87248781e-01 2.37425759e-01 2.76105016e-01 1.25863314e-01
      7.66637623e-02 3.13931853e-02 9.33242366e-02 9.08058733e-02
      1.02635823e-01 1.57166108e-01 1.56710818e-01 1.88711420e-01
      1.28641948e-01 1.92516401e-01 1.00502513e-01 5.45031913e-02
      2.57093757e-01 2.57677007e-02 1.44132525e-01 9.48913693e-02
      2.00052172e-01 2.62675434e-01 1.23558782e-01 1.93018708e-02
      1.13508785e-02 1.08871974e-01 1.98466733e-01 2.45718181e-01
      2.62675434e-01 1.57832250e-01 2.14565575e-01 1.87895745e-01
      8.87862965e-02 8.63284245e-02 2.59600163e-01 2.62675434e-01
      2.62675434e-01 2.54234612e-01 4.54747714e-02 1.14237815e-01
      1.63498610e-01 2.27768302e-01 2.65634693e-02 2.54514754e-01
      4.00832407e-02 1.39244780e-01 9.80000049e-02 1.20752901e-01
      1.19741179e-01 2.70761281e-01 3.10339212e-01 3.54517177e-02
      1.42962903e-01 6.93997294e-02 1.08215056e-01 9.79133174e-02
      8.90724361e-02 1.40259460e-01 1.15328170e-01 1.03355832e-01
      1.33560866e-01 3.10339212e-01 1.40945956e-01 1.19357422e-01
      2.36101642e-01 7.95691311e-02 1.94993421e-01 1.32547677e-01
      2.40727603e-01 1.11905120e-01 3.10339212e-01 3.17195095e-02
      9.35008451e-02 1.86767429e-01 1.84049711e-01</_>
    <_>
      6.79118410e-02 3.09587736e-02 4.01769392e-02 1.94069818e-02
      3.56716007e-01 2.06560157e-02 1.82106141e-02 2.87034940e-02
      8.47326070e-02 1.72420695e-01 9.51540843e-02 7.12237582e-02
      1.13712708e-02 9.61221755e-02 6.51072264e-02 7.28581250e-02
      5.57251349e-02 1.31386742e-01 9.79322717e-02 2.12897677e-02
      5.41648418e-02 5.69036119e-02 3.56716007e-01 5.91963604e-02
      1.08251311e-02 4.11653891e-03 8.93161222e-02 2.89733559e-01
      3.56716007e-01 3.56716007e-01 3.00368905e-01 3.56716007e-01
      2.09351391e-01 4.83823568e-02 1.27357338e-02 1.11408889e-01
      1.62970111e-01 6.18017763e-02 3.99608240e-02 1.27600692e-02
      2.73269545e-02 1.64088849e-02 2.90407315e-02 2.85012871e-02
      1.30772457e-01 1.76166594e-01 4.18391451e-02 2.92111710e-02
      3.11948545e-02 5.23192920e-02 3.71356010e-02 3.02278418e-02
      4.24529202e-02 1.68941215e-01 2.62705445e-01 2.62705445e-01
      2.62705445e-01 1.53801441e-01 2.62705445e-01 1.61029816e-01
      1.26563516e-02 1.20521657e-01 2.62705445e-01 2.62705445e-01
      2.00259283e-01 2.00767860e-01 2.62705445e-01 2.62705445e-01
      2.62705445e-01 2.31065731e-02 2.00299740e-01 2.62705445e-01
      1.60180509e-01 1.33852065e-01 4.88593578e-02 7.92635977e-02
      1.44481108e-01 1.16412200e-01 5.95537461e-02 5.83716072e-02
      1.28964335e-01 5.23985364e-02 1.29369318e-01 3.77896950e-02
      1.82450771e-01 1.26152799e-01 7.85924420e-02 1.21294461e-01
      3.12558860e-02 1.09075680e-01 2.52780676e-01 1.92577422e-01
      2.38364935e-01 3.31672996e-01 3.31672996e-01 3.31672996e-01
      1.25463858e-01 1.34498909e-01 2.64888704e-01 4.61578034e-02
      2.72112757e-01 2.55695414e-02 1.55808255e-01 1.41291589e-01
      9.15772691e-02 2.26899132e-01 7.85571933e-02 6.01916499e-02
      8.66513103e-02 8.99307802e-02 1.36913568e-01 2.61862367e-01
      1.23627879e-01 4.01456989e-02 2.31329992e-01 1.23348832e-01
      2.53901184e-01 1.16764054e-01 1.29124597e-01 1.97516724e-01
      1.47005796e-01 1.21875487e-01 5.45199588e-02 2.45643795e-01
      1.10070959e-01 2.61862367e-01 7.96247721e-02 1.55773550e-01
      6.34493753e-02 1.19867094e-01 6.92366362e-02 1.80426002e-01
      2.59661525e-01 1.47387221e-01 2.11984158e-01 1.92111731e-01
      2.08386391e-01 1.30610198e-01 6.28870055e-02 9.32324976e-02
      2.61862367e-01 1.42858207e-01 8.10778216e-02 2.61862367e-01
      9.26206559e-02 6.91737756e-02 7.28874281e-02 3.30360830e-02
      1.18249990e-01 8.53778198e-02 1.55256063e-01 1.63563475e-01
      2.53311247e-01 4.46108133e-02 7.16656959e-03 2.02042967e-01
      2.46240839e-01 1.58006892e-01 9.35147852e-02 2.77885020e-01
      2.77885020e-01 1.24653280e-01 1.89012349e-01 1.60740539e-01
      4.71243449e-02 1.92375239e-02 5.93105927e-02 2.18979329e-01
      9.17019919e-02 8.12004805e-02 2.64686525e-01 9.53637883e-02
      5.42245433e-02 1.68763667e-01 1.83455616e-01 2.42662176e-01
      2.77885020e-01 2.77885020e-01 1.42704025e-01 1.59452528e-01
      1.81232300e-02 1.41560091e-02 4.49940413e-02 3.05520911e-02
      1.76789716e-01 3.56788523e-02 3.78108758e-04 0. 1.47340391e-02
      2.77095120e-02 1.39526337e-01 3.64582926e-01 2.37184212e-01
      3.64582926e-01 1.38843164e-01 9.33576724e-04 5.02845692e-03
      6.95048133e-03 1.67089216e-02 6.32802993e-02 3.14030051e-01
      4.46369089e-02 2.73865312e-01 8.08351561e-02 1.27314171e-02 0.
      3.37367668e-03 7.73117272e-03 1.97119802e-01 3.64582926e-01
      2.66191483e-01 3.64582926e-01 1.89536542e-01 1.04319882e-02
      1.38397664e-02 5.02765935e-04 4.07095663e-02 1.10503227e-01
      2.62517512e-01 1.61481425e-01 2.62517512e-01 1.13687523e-01
      2.54102773e-03 3.47730480e-02 3.47826704e-02 3.96371186e-02
      4.60244119e-02 2.39924982e-01 2.56277978e-01 2.62517512e-01
      1.78491876e-01 2.48402655e-02 5.38705811e-02 6.16221465e-02
      1.67926867e-02 3.95225286e-02 2.62517512e-01 2.43977383e-01
      2.62517512e-01 8.39173421e-02 5.64199053e-02 5.80659360e-02
      3.59630771e-02 1.90987632e-01 7.85531069e-04 2.62517512e-01
      2.62517512e-01 2.62517512e-01 6.15113936e-02 1.78550974e-01
      8.56447294e-02 2.62517512e-01 3.58865894e-02 1.70659870e-02
      1.18098624e-01 2.21125945e-01 3.56134057e-01 1.12779953e-01
      6.51337057e-02 3.15277763e-02 4.90334965e-02 4.08372022e-02
      2.85162069e-02 1.39405783e-02 2.19347570e-02 2.11343598e-02
      2.53657345e-02 7.05499128e-02 2.76813284e-02 2.88958699e-02
      4.07103032e-01 2.17717234e-03 1.16243966e-01 1.23817302e-01
      2.33125970e-01 4.25297171e-02 1.47003099e-01 4.62941378e-02
      4.07103032e-01 4.07103032e-01 1.76274106e-02 9.08579864e-03
      1.93675123e-02 1.03588402e-02 4.86055715e-03 2.59911921e-02
      1.51599469e-02 4.07103032e-01 4.02834117e-02 3.63832824e-02
      2.08939034e-02 3.68650770e-03 1.14620104e-02 5.33756204e-02
      5.80776073e-02 1.94785893e-02 2.30440926e-02 4.91733253e-02
      8.20012093e-02 2.17429157e-02 1.13207027e-02 3.73497754e-02
      7.32539818e-02 3.80185768e-02 1.19633181e-02 2.30131857e-02
      4.87164229e-01 2.97716781e-02 1.32008260e-02 3.04507650e-03
      1.41348727e-02 1.11674676e-02 1.98472440e-02 1.48307560e-02
      4.87164229e-01 4.87164229e-01 9.96718779e-02 2.06653029e-02
      1.61724340e-03 3.61038893e-02 2.20812820e-02 2.05729976e-02
      4.41450104e-02 4.87164229e-01 4.78361771e-02 6.59680814e-02
      8.99438281e-03 5.44710224e-03 4.42622826e-02 5.63606806e-02
      2.64644735e-02 1.96286570e-02 3.85458246e-02 4.14779037e-02
      4.38617989e-02 6.50721230e-03 5.19632883e-02 6.57518134e-02
      1.37076721e-01 3.34214382e-02 2.20126696e-02 4.92024980e-02
      3.90432924e-01 9.02695581e-02 1.06577519e-02 7.78157439e-04
      9.01380852e-02 2.75257491e-02 1.85685188e-01 1.33587912e-01
      3.90432924e-01 3.90432924e-01 5.15854917e-02 3.10262833e-02
      2.85277888e-02 3.69157672e-01 1.13490425e-01 2.92443693e-01
      1.72566921e-01 3.90432924e-01 4.28478327e-03 7.73739293e-02
      2.48937562e-01 7.04240724e-02 3.21301341e-01 9.07068551e-02
      1.88202597e-02 1.35195593e-03 2.58838711e-03 2.27205642e-03
      1.52702019e-01 3.21301341e-01 1.87942252e-01 3.21301341e-01
      1.05965428e-01 1.48792127e-02 1.97428968e-02 1.81627332e-03
      2.83429921e-02 4.32706252e-02 7.75534585e-02 9.38806161e-02
      3.21301341e-01 9.84756202e-02 1.46480486e-01 1.02718985e-02
      7.05407113e-02 3.17867577e-01 8.08185190e-02 1.24486320e-01
      1.48319915e-01 3.21301341e-01 8.80408511e-02 2.37167060e-01
      3.76234017e-02 2.53735900e-01 5.63851558e-02 4.41779494e-02
      2.19497755e-01 1.74232051e-01 3.11191678e-01 5.44400252e-02
      8.45117196e-02 1.05335727e-01 1.15111776e-01 3.28269333e-01
      1.00541916e-02 1.20316468e-01 1.38559863e-01 1.47149563e-01
      1.63327921e-02 1.70994297e-01 1.31256297e-01 3.28269333e-01
      3.28269333e-01 4.31074053e-02 2.65663061e-02 3.78936008e-02
      1.16596103e-01 2.97582466e-02 5.65105900e-02 5.39719872e-02
      3.28269333e-01 3.28269333e-01 5.89528419e-02 7.41426251e-04
      3.37776504e-02 4.33356985e-02 2.03555208e-02 1.63549781e-02
      3.56296562e-02 3.28269333e-01 3.50417465e-01 8.83953180e-03
      1.35985734e-02 2.10459661e-02 1.92885976e-02 4.97836899e-03
      3.47474255e-02 2.17092000e-02 3.50417465e-01 3.50417465e-01
      9.36847366e-03 1.11131277e-02 6.35700766e-03 2.35855859e-03
      3.97261186e-03 9.16874129e-03 1.34663368e-02 3.50417465e-01
      3.50417465e-01 4.31788191e-02 0. 2.47201417e-02 2.08798200e-02
      1.67547502e-02 1.13124494e-02 2.64376961e-02 3.50417465e-01
      3.50417465e-01 3.74725834e-02 1.82647593e-02 1.23608233e-02
      7.37258000e-03 2.78082825e-02 3.96058559e-02 5.03381304e-02
      3.50417465e-01 3.51038784e-01 6.96826447e-03 1.35078561e-02
      3.33164888e-03 5.25213685e-03 2.73719197e-03 6.67467946e-03
      6.51927572e-03 3.51038784e-01 3.51038784e-01 1.16690649e-02
      4.89714881e-03 4.12074896e-03 1.53724533e-02 7.63986551e-04
      4.95859329e-03 1.31564476e-02 3.51038784e-01 3.51038784e-01
      4.95097563e-02 2.26787850e-02 6.05031149e-03 7.40877399e-03
      1.91603452e-02 3.72044109e-02 2.58145034e-02 3.51038784e-01
      3.51038784e-01 2.97058597e-02 8.76596104e-03 2.65415534e-02
      2.91754417e-02 5.34790615e-03 3.26973908e-02 2.45671552e-02
      3.51038784e-01 3.28035116e-01 6.38993317e-03 7.30823202e-04
      8.01109802e-03 1.46890953e-01 7.26326415e-03 1.09536380e-01
      4.50366251e-02 3.43730897e-01 1.47523209e-01 4.15949337e-03
      9.71687585e-03 2.78598797e-02 3.43730897e-01 1.57160051e-02
      1.80921271e-01 6.78762645e-02 2.28431910e-01 2.13810235e-01
      3.01625654e-02 1.50406044e-02 1.18326314e-01 3.43730897e-01
      2.23205313e-02 7.45192096e-02 3.05674337e-02 3.43730897e-01
      7.27970302e-02 5.06624058e-02 2.52814144e-02 2.10006073e-01
      3.43730897e-01 5.77435903e-02 1.12460122e-01 4.19765115e-02
      1.08785726e-01 5.66855520e-02 3.90491448e-04 1.16849935e-03
      5.97210079e-02 3.42375368e-01 3.96954343e-02 2.37915054e-01
      2.39995867e-02 2.60662824e-01 3.42375368e-01 1.93685107e-02
      8.83489498e-04 4.67680842e-02 3.42375368e-01 3.05580143e-02
      3.42375368e-01 5.12414016e-02 3.42375368e-01 2.16299556e-02
      3.67366080e-03 2.00949097e-03 6.28886744e-02 1.50083810e-01
      2.75822263e-02 8.38391259e-02 2.65715271e-02 1.66328251e-01
      2.61989057e-01 2.53808517e-02 3.61844478e-03 2.53467821e-02
      7.42064342e-02 1.24232816e-02 1.07651740e-01 5.77512905e-02
      3.42375368e-01 3.59093189e-01 2.13932469e-02 6.98306190e-04
      4.90743434e-03 2.34882608e-02 6.62859902e-03 4.39818129e-02
      1.40207028e-02 3.59093189e-01 3.59093189e-01 3.21980789e-02
      5.29934943e-04 7.03942636e-03 6.38013659e-03 7.40698259e-03
      2.64142710e-03 4.86485288e-03 3.59093189e-01 2.88227737e-01
      2.06872653e-02 7.67326797e-04 9.16652288e-03 2.00029109e-02
      3.29162204e-03 3.87634076e-02 2.47606188e-02 3.59093189e-01
      3.59093189e-01 1.39797525e-02 8.42434727e-03 1.26616228e-02
      1.44770555e-02 6.29559718e-03 3.07526011e-02 4.02371734e-02
      3.59093189e-01 3.57169479e-01 3.61910500e-02 1.19099347e-03
      6.99636759e-03 6.51289523e-03 8.15571193e-03 4.40421375e-03
      2.47078184e-02 3.57169479e-01 3.57169479e-01 4.63357344e-02
      6.04722602e-03 3.63681489e-03 2.98595685e-03 1.35402251e-02
      1.67663489e-02 5.15083708e-02 3.57169479e-01 2.81369776e-01
      1.56967044e-02 1.40015967e-02 1.74529257e-03 2.83588422e-03
      8.61965958e-03 1.03516411e-02 5.14988750e-02 3.57169479e-01
      3.57169479e-01 5.47891259e-02 2.58128494e-02 5.97319705e-03
      1.17095921e-03 7.33249355e-03 1.36771817e-02 9.80660543e-02
      3.57169479e-01 3.50136817e-01 6.00372106e-02 6.36406941e-03
      1.82548491e-03 1.41204824e-03 8.45980458e-03 1.69941038e-02
      1.89151578e-02 3.50136817e-01 3.50136817e-01 3.11419014e-02
      3.15633579e-03 1.23066287e-02 1.00005707e-02 2.92742648e-03
      1.51583487e-02 1.76538639e-02 3.50136817e-01 3.50136817e-01
      5.14903329e-02 2.15582084e-02 1.01018837e-02 1.75112393e-03
      3.70707898e-03 2.00945679e-02 5.23811541e-02 3.50136817e-01
      3.50136817e-01 2.50402372e-02 7.52540119e-03 1.06517607e-02
      4.04420644e-02 8.87074787e-03 1.56636667e-02 2.11299974e-02
      3.50136817e-01 3.07987005e-01 1.24775589e-01 5.90946637e-02
      1.37953550e-01 2.29325488e-01 2.55552046e-02 6.81999465e-03
      2.79738419e-02 3.07987005e-01 1.08028300e-01 2.13637620e-01
      1.04304448e-01 2.45504722e-01 3.07987005e-01 1.22807056e-01
      4.80287150e-03 2.64544040e-02 2.91659355e-01 3.07987005e-01
      8.26981291e-02 4.00689468e-02 2.60837674e-02 7.16088861e-02
      3.22782323e-02 6.97610993e-03 2.70210020e-02 3.07987005e-01
      1.27254978e-01 1.63041860e-01 8.56471062e-02 8.72474015e-02
      1.59731656e-01 1.00917287e-01 4.12864573e-02 3.33818458e-02
      2.98044205e-01 9.13787782e-02 9.10969749e-02 2.27622483e-02
      2.08677799e-01 2.83683985e-01 1.55074850e-01 1.50684237e-01
      1.80114191e-02 9.45108682e-02 2.60039300e-01 3.43333408e-02
      4.56527025e-02 1.61605954e-01 1.90438315e-01 1.04098000e-01
      1.83122009e-01 5.05095199e-02 1.49858117e-01 1.02689661e-01
      2.12633222e-01 2.18879268e-01 7.42379278e-02 2.83683985e-01
      2.83683985e-01 1.76194578e-01 0. 9.59174484e-02 2.65494168e-01
      9.22347307e-02 6.59660324e-02 1.64711475e-01 2.83683985e-01
      2.11112931e-01 1.27070278e-01 3.06433626e-02 1.85302362e-01
      2.49702126e-01 3.40545513e-02 1.22718709e-02 4.82740849e-02
      1.83378279e-01 5.72643504e-02 1.72177792e-01 7.52654597e-02
      9.20980796e-02 2.62833744e-01 3.64410393e-02 3.83656174e-02
      4.06507738e-02 1.19169861e-01 1.18878864e-01 2.69060224e-01
      2.57790565e-01 1.30663216e-01 2.66483247e-01 2.93040182e-02
      7.36312335e-03 6.21656366e-02 2.69060224e-01 1.09820902e-01
      1.32529810e-01 7.84018338e-02 1.62857234e-01 2.69060224e-01
      4.51341048e-02 4.54971986e-03 9.27199721e-02 2.69060224e-01
      1.68557003e-01 2.69060224e-01 2.69060224e-01 2.31759161e-01
      1.64789110e-01 3.91164497e-02 5.83459437e-02 7.54763000e-03
      1.86313316e-02 7.71372318e-02 1.77070767e-01 1.95617095e-01
      1.34761766e-01 2.70999849e-01 1.65854782e-01 1.12354159e-01
      8.24910551e-02 9.03443396e-02 6.29486293e-02 9.33383182e-02
      2.52649695e-01 2.21976638e-01 2.70999849e-01 5.53514734e-02
      2.74195652e-02 2.99996547e-02 1.02725141e-01 8.04859921e-02
      2.64037192e-01 2.62818515e-01 1.45521179e-01 2.70999849e-01
      5.67393750e-02 6.75477237e-02 1.59220457e-01 2.70999849e-01
      9.85652059e-02 1.58061326e-01 2.70999849e-01 2.70999849e-01
      2.61425525e-01 1.50572404e-01 8.13454390e-02 9.25304592e-02
      8.92858803e-02 7.29198828e-02 1.05077982e-01 2.22395286e-01
      1.98409691e-01 2.61425525e-01 1.79851830e-01 6.10255636e-02
      7.83149451e-02 1.55467987e-01 6.52283803e-02 1.41639084e-01
      1.42914310e-01 2.23342702e-01 2.61425525e-01 1.05753660e-01
      3.94517109e-02 1.63704306e-01 2.61425525e-01 9.85469148e-02
      5.42942472e-02 1.45573348e-01 2.30884582e-01 2.61425525e-01
      2.61425525e-01 9.52950418e-02 6.70489147e-02 2.06050426e-01
      8.67730454e-02 1.33900344e-01 1.19574271e-01 2.29857206e-01
      2.55401403e-01 1.12066478e-01 5.32711297e-02 6.81140646e-02
      1.55583531e-01 1.05125569e-01 6.37331977e-02 1.26000062e-01
      1.73696652e-01 1.29329115e-01 1.13260821e-01 4.60717939e-02
      9.02676061e-02 7.04022199e-02 2.55401403e-01 2.55401403e-01
      2.55401403e-01 2.23356754e-01 2.38915890e-01 1.58283606e-01
      7.04812109e-02 7.56451935e-02 2.03602597e-01 2.48577818e-01
      1.59793288e-01 9.98635143e-02 1.05828963e-01 9.24337730e-02
      4.74629737e-02 7.87192956e-03 5.54394312e-02 1.98839113e-01
      2.55401403e-01 2.11001724e-01 2.55401403e-01 2.55401403e-01</_>
    <_>
      6.28094152e-02 8.67842063e-02 3.46316159e-01 2.06698716e-01
      7.10552186e-02 1.87424161e-02 3.03755095e-03 0. 8.95846169e-03
      3.46316159e-01 1.71947598e-01 3.46316159e-01 2.23873511e-01
      4.96134907e-02 4.85402532e-03 1.58292754e-03 1.37448490e-01
      2.58792132e-01 2.02278420e-02 2.38159940e-01 3.46316159e-01
      1.69887617e-01 5.14001772e-02 5.43173542e-03 1.17823249e-03 0.
      1.85029376e-02 6.88747317e-02 6.59924448e-02 3.46316159e-01
      2.32799292e-01 1.13579728e-01 2.40983795e-02 4.71029477e-03
      2.76984461e-02 5.06508462e-02 1.83374122e-01 3.92172448e-02
      8.83723721e-02 1.00757211e-01 2.94486620e-02 8.94109532e-03
      1.69813670e-02 2.94366717e-01 2.94366717e-01 6.35244921e-02
      7.74324965e-03 1.49697870e-01 2.56342024e-01 2.56484091e-01
      5.78379408e-02 3.00375149e-02 2.94366717e-01 1.87258363e-01
      5.85969500e-02 7.77962478e-03 2.94366717e-01 2.94366717e-01
      7.58302361e-02 4.59482670e-02 1.34665426e-02 1.19963899e-01
      6.52448684e-02 4.76404950e-02 3.87340109e-03 2.94366717e-01
      2.94366717e-01 2.46175274e-01 5.67933954e-02 2.44924426e-02
      1.69578269e-01 1.14749104e-01 4.22042944e-02 6.92579746e-02
      2.24090785e-01 3.30707997e-01 3.30707997e-01 1.00607947e-01
      9.47779343e-02 3.30707997e-01 1.14015818e-01 3.50607969e-02
      9.22359228e-02 6.93707541e-02 9.57599133e-02 1.51678860e-01
      1.89112406e-02 1.06597699e-01 4.79189754e-02 2.30205543e-02
      1.06243014e-01 3.81806158e-02 3.30707997e-01 3.30707997e-01
      3.30707997e-01 5.67985624e-02 6.55019432e-02 1.75535783e-01
      2.57280797e-01 5.42316101e-02 1.06004499e-01 1.32210791e-01
      9.68861952e-02 1.30013406e-01 1.85739750e-03 3.29798497e-02
      8.44602883e-02 8.29262882e-02 1.02604829e-01 7.44759142e-02
      8.80176052e-02 2.05870047e-01 1.67600229e-01 5.28192557e-02
      9.96785611e-02 1.54394925e-01 6.26119897e-02 1.39006600e-01
      5.41452579e-02 9.96788591e-02 1.63181558e-01 2.17265874e-01
      7.61097297e-02 8.85229185e-02 1.50618151e-01 1.47911102e-01
      1.40332013e-01 1.65974453e-01 2.74682969e-01 2.97375709e-01
      1.39266312e-01 3.24740028e-03 3.67463492e-02 1.31625742e-01
      5.07759489e-02 2.97375709e-01 2.97375709e-01 2.80548602e-01
      2.97375709e-01 2.29603544e-01 1.76694281e-02 5.77486269e-02
      1.44225672e-01 1.58371925e-01 1.03917994e-01 3.21960486e-02
      5.56880981e-02 1.23212866e-01 2.07794324e-01 5.40498793e-02
      6.51275367e-02 7.57676065e-02 2.00052366e-01 1.09611809e-01
      1.80857927e-02 7.17961118e-02 2.14654863e-01 2.98857808e-01
      1.72025278e-01 1.12009481e-01 1.10604018e-01 2.98857808e-01
      1.86275661e-01 2.12543666e-01 1.12345427e-01 2.52409190e-01
      1.40795112e-01 3.56759503e-02 4.90670279e-02 1.10561818e-01
      2.66961783e-01 1.68489546e-01 6.34786114e-02 1.29088849e-01
      2.98857808e-01 1.96731523e-01 8.38404223e-02 9.97869521e-02
      1.66160956e-01 2.98857808e-01 8.56130868e-02 3.28178376e-01
      3.28178376e-01 6.82973042e-02 5.23107164e-02 1.62539948e-02
      1.98922609e-03 2.21910626e-02 1.01511724e-01 3.54095288e-02
      6.31082878e-02 3.28178376e-01 1.61734208e-01 3.28178376e-01
      1.28443033e-01 7.40590505e-03 5.80038838e-02 1.45505100e-01
      1.99072585e-01 1.53955817e-01 1.50769800e-01 1.73952617e-02
      2.54614577e-02 3.99299264e-02 1.62106995e-02 1.64795488e-01
      3.28178376e-01 1.96208924e-01 6.32960275e-02 6.33325055e-02
      6.60853013e-02 2.36082554e-01 1.30435079e-01 3.19998525e-02
      1.07478105e-01 3.28178376e-01 2.12457348e-02 6.16914453e-03
      3.10968369e-01 1.62573606e-01 1.58330396e-01 1.23533592e-01
      2.08878703e-03 1.22355640e-01 2.12599412e-01 1.10825323e-01
      5.20669064e-03 3.10968369e-01 2.65520245e-01 9.34247300e-02
      7.17992559e-02 4.38188761e-03 3.10968369e-01 3.10968369e-01
      7.38828927e-02 2.98306830e-02 6.55822977e-02 5.05912527e-02
      9.82654467e-02 7.99267963e-02 4.71427804e-03 1.25992745e-01
      3.10968369e-01 1.79873005e-01 3.57720256e-02 1.07137240e-01
      4.99039292e-02 3.54000591e-02 4.28921729e-02 1.65263319e-03
      3.10968369e-01 3.10968369e-01 8.64773989e-02 2.09467788e-03
      4.92917523e-02 6.28154799e-02 2.81506702e-02 0. 6.37696078e-03
      3.03780764e-01 3.57288659e-01 8.33573118e-02 1.00612929e-02
      1.22866165e-02 8.70746840e-03 1.50759351e-02 0. 3.28678987e-03
      2.26527318e-01 3.57288659e-01 1.35217875e-01 2.35641357e-02
      2.69201864e-02 1.59999635e-02 1.01500051e-02 2.08024657e-03
      3.27208964e-03 3.57288659e-01 3.57288659e-01 2.04842106e-01
      4.84343097e-02 1.78052336e-02 5.44808339e-03 8.23933166e-03
      4.45472682e-03 4.18324908e-03 3.57288659e-01 3.57288659e-01
      9.59188119e-02 1.56799443e-02 1.51960813e-02 2.74593513e-02
      9.14443843e-03 8.11782782e-04 2.30831187e-03 1.17182367e-01
      2.15485960e-01 7.12463036e-02 3.59884202e-02 2.50108186e-02
      2.66301390e-02 4.73836856e-03 8.33779108e-03 1.82786956e-02
      4.14072797e-02 1.57172084e-01 2.68937290e-01 2.52341460e-02
      9.19367746e-03 2.90043023e-03 3.42987338e-03 4.54686722e-03
      7.43011618e-03 4.35824156e-01 4.35824156e-01 2.38135815e-01
      1.16793094e-02 5.19731222e-03 3.45542561e-03 3.61307379e-04
      9.90849361e-03 2.26355996e-02 4.35824156e-01 4.35824156e-01
      6.52026460e-02 2.92303693e-02 1.94184277e-02 2.02531982e-02
      4.68484359e-03 1.71411987e-02 1.89454872e-02 1.11774607e-02
      9.33916867e-02 7.38404691e-02 1.21760378e-02 1.64113846e-02
      5.15747480e-02 1.10180620e-02 1.76397357e-02 1.02415923e-02
      2.22131610e-02 5.98524548e-02 3.90469044e-01 2.13902183e-02
      1.01910457e-02 7.04945484e-03 7.09288812e-04 1.43953571e-02
      2.20578462e-02 4.02745068e-01 4.02745068e-01 4.02745068e-01
      2.99278628e-02 1.34421149e-02 2.88325921e-02 2.18668790e-03
      1.11710764e-02 2.43357997e-02 4.02745068e-01 4.02745068e-01
      1.39641732e-01 1.00827180e-02 9.59956460e-03 9.54871997e-03 0.
      9.27922502e-03 4.56002261e-03 2.28961900e-01 3.58370960e-01
      1.72128618e-01 3.16096768e-02 6.75683049e-03 7.67053152e-03
      2.72055529e-03 1.49343628e-02 7.46610854e-03 2.72451907e-01
      3.58370960e-01 1.66571006e-01 2.17304453e-02 1.78393088e-02
      2.27286965e-02 5.37523301e-03 6.71540061e-03 3.28304246e-03
      2.26854458e-01 3.58370960e-01 3.07628244e-01 3.35286632e-02
      7.66118802e-03 4.42693103e-03 1.28903994e-02 6.04414288e-03
      8.15506000e-03 3.58370960e-01 3.58370960e-01 9.74742249e-02
      3.08720525e-02 6.84962980e-03 8.76794290e-03 4.13635047e-03
      3.22346110e-03 2.80695339e-03 1.75887853e-01 3.79152775e-01
      8.18066448e-02 4.58913855e-02 2.27813870e-02 1.25525314e-02
      1.33252088e-02 0. 3.59700760e-03 2.01469958e-01 3.79152775e-01
      1.58538878e-01 1.69293974e-02 0. 0. 7.86260515e-03 1.43003520e-02
      8.68230686e-03 3.76678944e-01 3.79152775e-01 1.27594382e-01
      3.83326821e-02 0. 3.79065255e-04 9.89573728e-03 1.04885884e-02
      3.84245091e-03 3.79152775e-01 3.79152775e-01 7.55225644e-02
      7.75316879e-02 1.08243329e-02 1.02786934e-02 1.14098703e-02
      6.01030281e-03 8.28815904e-03 1.92895412e-01 3.36580575e-01
      1.29055023e-01 8.09911117e-02 1.62320882e-02 4.89948504e-03
      7.88466819e-03 1.28707113e-02 1.13869626e-02 3.11139852e-01
      3.68372649e-01 1.07530728e-01 8.56255740e-02 3.31267132e-04
      1.16654404e-03 4.18193871e-03 4.92496323e-03 8.09807144e-03
      3.68372649e-01 3.68372649e-01 1.08196303e-01 5.76396845e-02
      2.31887004e-03 6.99926459e-04 3.00996099e-03 9.11954883e-03
      1.90239307e-02 3.68372649e-01 3.68372649e-01 1.35399207e-01
      1.81610268e-02 7.06066517e-03 5.35260951e-05 6.21584617e-03
      1.37808267e-02 1.55853583e-02 2.88180381e-01 3.56280446e-01
      1.29909277e-01 2.05168806e-04 5.88084199e-03 1.72886532e-02
      8.37452430e-03 1.23487236e-02 1.93729699e-02 3.56280446e-01
      3.56280446e-01 8.12697262e-02 4.62424662e-03 6.10947516e-03
      3.74682655e-04 8.64940044e-03 1.28860371e-02 1.38298720e-02
      3.56280446e-01 3.56280446e-01 1.63057253e-01 1.35318022e-02
      3.72621864e-02 3.08127273e-02 1.76225621e-02 1.44578861e-02
      1.60552450e-02 2.78933942e-01 3.56280446e-01 1.68855295e-01
      5.65965474e-03 2.94515537e-03 1.65867005e-02 3.43469530e-03
      1.41753699e-03 1.00961719e-02 3.34629029e-01 3.34629029e-01
      2.57721722e-01 2.16141194e-02 2.27185711e-03 4.60428232e-03
      5.91273699e-03 7.26972285e-05 1.05039533e-02 3.34629029e-01
      3.34629029e-01 1.82793662e-01 3.93629596e-02 1.40258772e-02
      2.83595845e-02 1.86455902e-02 1.76491693e-03 1.63185466e-02
      2.37603009e-01 3.34629029e-01 1.76903486e-01 4.80005108e-02
      1.45765638e-03 3.91729083e-03 4.41929549e-02 1.75342686e-03
      3.38969566e-02 3.14700663e-01 3.34629029e-01 2.51676023e-01
      1.36733398e-01 1.07677102e-01 6.86498880e-02 1.11866720e-01
      2.34825443e-02 2.80390885e-02 1.48030788e-01 3.55665445e-01
      3.55665445e-01 1.36975750e-01 7.26588741e-02 2.91261729e-02
      1.88863739e-01 3.07877194e-02 8.76334310e-02 3.55665445e-01
      3.55665445e-01 3.90786007e-02 5.76506741e-02 5.32201640e-02
      6.90952167e-02 1.86066538e-01 3.97344828e-02 6.24953285e-02
      1.93547741e-01 1.61372364e-01 3.53569351e-02 9.83776525e-02
      1.88364640e-01 1.05671659e-01 1.45722181e-01 5.17422706e-02
      1.09249972e-01 2.31580019e-01 1.55053511e-01 1.90744743e-01
      2.16740090e-02 6.96561020e-03 2.96683866e-03 6.25910535e-02
      6.40677959e-02 4.81836125e-02 3.63647759e-01 4.38401997e-01
      3.61831278e-01 6.54636472e-02 3.25386622e-03 5.53179649e-04
      4.23826016e-02 5.85656762e-02 2.10505053e-02 4.38401997e-01
      4.38401997e-01 2.82689314e-02 4.45344709e-02 5.23454919e-02
      2.07678694e-02 6.21805005e-02 2.49143001e-02 6.46348521e-02
      7.18434080e-02 3.51167396e-02 9.21502560e-02 9.17615369e-02
      4.59345356e-02 1.14391241e-02 1.20334074e-01 2.27415245e-02
      8.88730064e-02 1.35841638e-01 1.30901515e-01 1.44032344e-01
      3.57889235e-02 7.93834776e-03 8.77911225e-04 1.64522026e-02
      6.81912666e-03 1.58358887e-02 4.21079606e-01 4.21079606e-01
      3.21756840e-01 2.35319920e-02 1.07273124e-02 5.26746735e-04
      1.64600238e-02 8.45108368e-03 3.61314975e-02 4.21079606e-01
      4.21079606e-01 3.78246345e-02 5.48538007e-02 5.81650026e-02
      2.13427879e-02 4.20992896e-02 4.09147562e-03 2.92138178e-02
      8.95592198e-02 1.15991086e-01 1.96585193e-01 6.19051009e-02
      7.64236450e-02 2.97811851e-02 2.80434992e-02 1.29226623e-02
      6.01469874e-02 1.65610284e-01 2.10855857e-01 1.66583672e-01
      1.05059259e-02 1.10780122e-02 1.53075904e-04 6.61936542e-03
      2.39890045e-03 7.31586711e-03 3.77650708e-01 3.77650708e-01
      2.37082556e-01 3.61229405e-02 2.80361082e-02 5.30838128e-03
      6.76962361e-03 1.83724845e-03 3.48714786e-03 3.77650708e-01
      3.77650708e-01 1.12253137e-01 2.23273020e-02 2.78822798e-02
      8.82549305e-03 1.43349497e-02 8.18731450e-03 2.77446322e-02
      1.17371269e-01 2.59719372e-01 1.73912451e-01 3.98015603e-02
      3.28475647e-02 1.94839910e-02 2.16677394e-02 4.95964615e-03
      2.83619147e-02 2.56588846e-01 3.77650708e-01 1.67515650e-01
      3.98448855e-02 6.15853677e-03 3.85804102e-03 6.88199373e-03
      4.33183712e-04 5.51638054e-03 3.38713765e-01 3.38713765e-01
      1.18061513e-01 2.84875762e-02 1.87630008e-04 5.04235039e-04
      1.72279235e-02 1.66772259e-03 2.44035739e-02 3.38713765e-01
      3.38713765e-01 1.17611654e-01 2.28510182e-02 6.72576716e-03
      8.29251949e-03 1.38388406e-02 5.07785997e-04 7.47200847e-03
      2.54272848e-01 3.38713765e-01 2.58994609e-01 3.98976356e-02
      1.85217394e-03 5.72148419e-04 5.92996413e-03 3.21073039e-03
      3.31100146e-03 3.38713765e-01 3.38713765e-01 3.53136100e-02
      1.28863491e-02 4.21538316e-02 7.53398985e-02 1.67690903e-01
      1.26989096e-01 2.05553338e-01 2.34541520e-01 1.71062738e-01
      1.00823753e-01 1.19508937e-01 1.61739975e-01 7.88970888e-02
      6.27470836e-02 1.02260917e-01 1.48616716e-01 1.45097405e-01
      1.63644344e-01 5.03956527e-02 1.57690212e-01 6.16439022e-02
      9.71293543e-03 1.58757016e-01 1.22622676e-01 2.86786646e-01
      2.86786646e-01 1.22741692e-01 1.53206378e-01 2.80521870e-01
      1.46003708e-01 1.92161530e-01 2.34694913e-01 5.28850816e-02
      2.86786646e-01 2.86786646e-01 2.06087455e-01 7.88660944e-02
      2.12209702e-01 1.30674630e-01 5.56322597e-02 8.40890706e-02
      2.06189677e-02 6.51053190e-02 4.10086960e-02 6.98989108e-02
      8.60876665e-02 2.69816458e-01 1.68515816e-01 7.16859400e-02
      2.69291759e-01 1.93122812e-02 1.35102212e-01 1.23893641e-01
      1.00233085e-01 1.40145227e-01 2.75475621e-01 1.45149633e-01
      2.55588382e-01 2.82398731e-01 2.71226186e-02 5.41572161e-02
      8.32789391e-02 1.71034187e-01 1.63273051e-01 2.62365073e-01
      2.59441555e-01 2.01741323e-01 2.82398731e-01 1.71998277e-01
      1.13073245e-01 9.47165266e-02 2.02594191e-01 1.02878518e-01
      2.08410665e-01 1.73544273e-01 1.86707228e-01 1.12967998e-01
      6.61332812e-03 8.34186450e-02 1.04434609e-01 1.65545180e-01
      9.76381972e-02 2.39982367e-01 2.62949735e-01 2.42770389e-01
      6.11699671e-02 1.26060089e-02 1.81312069e-01 6.61058277e-02
      9.40865502e-02 1.82438523e-01 1.74638018e-01 2.12870613e-01
      2.63064146e-01 2.63064146e-01 5.88993616e-02 7.69870952e-02
      5.51731624e-02 1.47527441e-01 1.44019559e-01 2.38507316e-01
      1.98384508e-01 2.63064146e-01 2.43946359e-01 0. 1.71666726e-01
      1.13645822e-01 7.28677139e-02 6.38001487e-02 1.34509638e-01
      1.83370471e-01 1.02345832e-01 6.86614662e-02 9.24579799e-02
      1.93760037e-01 1.05036430e-01 4.91557047e-02 1.97749376e-01
      9.15875807e-02 1.59721211e-01 1.62181571e-01 1.76544636e-01
      2.31594861e-01 2.73291290e-01 1.80110350e-01 1.78201616e-01
      6.84127435e-02 2.73291290e-01 1.40613660e-01 7.83481896e-02
      1.79378957e-01 6.61793724e-02 1.13871962e-01 9.37334597e-02
      9.26476493e-02 9.97072235e-02 2.69405305e-01 1.68925524e-01
      2.31687948e-02 2.26639986e-01 2.73291290e-01 2.34458774e-01
      1.58482000e-01 2.32056469e-01 1.68642133e-01 1.13903075e-01
      6.13557436e-02 6.93250597e-02 1.66785136e-01 5.20728007e-02
      8.24066028e-02 1.43677533e-01 3.43228430e-01 3.48602563e-01
      2.78992712e-01 7.86568075e-02 4.78313258e-03 7.86766559e-02
      6.75488263e-02 6.31527230e-03 3.48602563e-01 3.48602563e-01
      8.76118168e-02 1.28591776e-01 1.05620496e-01 9.90357995e-03
      1.82358831e-01 1.56102613e-01 1.46986991e-01 1.11561067e-01
      1.31469756e-01 1.48175627e-01 2.36622646e-01 1.51116997e-01
      6.83304679e-04 1.58994794e-01 1.24172866e-01 8.50988626e-02
      5.91859072e-02 1.21257618e-01</_>
    <_>
      1.67907029e-01 8.80792812e-02 3.05915684e-01 3.05915684e-01
      7.68667683e-02 3.65460068e-02 7.10140448e-05 5.28395222e-03
      8.28254223e-02 3.05915684e-01 9.08258334e-02 2.11647719e-01
      1.69236824e-01 3.13063115e-02 1.62575915e-02 5.90717047e-02
      1.28465176e-01 3.05915684e-01 4.29447256e-02 7.03158081e-02
      3.05915684e-01 3.05915684e-01 1.16661087e-01 1.75316874e-02
      4.97098255e-04 2.91208015e-03 3.21913697e-02 1.26416132e-01
      4.01023589e-02 3.05915684e-01 3.05915684e-01 1.86257526e-01
      7.89548457e-03 4.65350673e-02 5.27344383e-02 1.27366871e-01
      1.74517557e-01 1.08735813e-02 1.03148729e-01 2.03320697e-01
      1.63184881e-01 6.91804290e-02 1.74617752e-01 2.14485705e-01
      2.83035666e-01 2.78629456e-02 1.28837861e-02 6.50384948e-02
      2.33299628e-01 2.83035666e-01 8.55074301e-02 1.27055928e-01
      1.10237025e-01 7.10516199e-02 9.47850868e-02 1.70888547e-02
      2.83035666e-01 2.83035666e-01 2.83035666e-01 2.89010927e-02
      1.07592463e-01 8.48785862e-02 9.42465737e-02 8.67968053e-02
      5.28732128e-02 2.83035666e-01 2.83035666e-01 2.83035666e-01
      3.42700705e-02 6.39177039e-02 4.70905229e-02 9.99823287e-02
      8.43407214e-02 6.56688139e-02 1.26842493e-02 2.06250682e-01
      2.79390007e-01 1.52740657e-01 1.03496969e-01 5.35772182e-02
      2.32605785e-02 2.36470833e-01 4.96591516e-02 2.74966080e-02
      3.51644345e-02 5.52031435e-02 1.00741766e-01 1.27505377e-01
      1.14477180e-01 7.63816908e-02 2.79390007e-01 2.52926886e-01
      1.03053339e-01 2.31747597e-01 2.79390007e-01 1.37760893e-01
      2.88753118e-02 1.31082132e-01 2.79390007e-01 2.79390007e-01
      1.15438484e-01 7.43995830e-02 0. 9.29819494e-02 2.79390007e-01
      9.62854847e-02 2.19946250e-01 2.79390007e-01 2.47661650e-01
      4.00568880e-02 3.90125439e-02 4.38482426e-02 5.27291372e-02
      8.94157663e-02 1.69886455e-01 2.30775937e-01 9.95604098e-02
      9.83873531e-02 7.53028085e-03 5.82482107e-02 9.29526463e-02
      1.56462029e-01 1.13271013e-01 1.76447213e-01 1.82265386e-01
      1.52684316e-01 2.48920113e-01 7.55973458e-02 9.83237252e-02
      2.40204800e-02 1.31522521e-01 2.70848453e-01 2.47122869e-01
      2.22076893e-01 2.70848453e-01 1.59919932e-01 7.84147680e-02
      2.70848453e-01 1.48191914e-01 1.50674179e-01 1.72768980e-01
      2.09906697e-01 2.13869959e-01 2.44199336e-01 1.00548349e-01
      3.99795026e-02 1.64036527e-02 4.81415875e-02 1.71521068e-01
      2.75971889e-02 1.88345119e-01 1.17161334e-01 1.60407335e-01
      9.86662582e-02 6.54586852e-02 0. 1.32293567e-01 3.02529067e-01
      6.55739680e-02 2.80254126e-01 2.21999124e-01 1.76317826e-01
      1.70378610e-01 4.96962331e-02 9.73801911e-02 7.58738071e-02
      9.22370926e-02 9.74566042e-02 3.02529067e-01 2.64089167e-01
      2.01957420e-01 2.16645584e-01 7.81866536e-02 0. 7.93761387e-02
      1.93186000e-01 2.18659304e-02 3.02529067e-01 3.02529067e-01
      2.10516870e-01 5.94301857e-02 1.11157060e-01 3.06796461e-01
      3.06796461e-01 1.44510999e-01 7.92273879e-03 5.67887630e-03
      3.41530237e-03 5.96572347e-02 6.34520277e-02 2.08779648e-02
      3.06796461e-01 3.06796461e-01 3.06796461e-01 2.96155214e-02
      1.48298638e-02 1.40062571e-01 2.63922095e-01 7.74767324e-02
      7.68431798e-02 1.85297340e-01 7.24392086e-02 8.99145305e-02
      7.05131469e-03 1.11721652e-02 1.73035581e-02 6.76784143e-02
      2.12412134e-01 1.04759298e-01 1.31633252e-01 2.05757067e-01
      3.06796461e-01 4.93592061e-02 1.86202750e-02 1.40102714e-01
      3.06796461e-01 1.06047481e-01 5.17482171e-03 3.24909747e-01
      2.92184442e-01 2.19056919e-01 7.55115040e-03 3.79135227e-03
      1.31251916e-01 3.43765944e-01 2.21242875e-01 1.63340513e-02
      1.41556993e-01 1.25967205e-01 8.11276883e-02 7.63740763e-03
      3.95923480e-03 9.06423479e-02 3.47338796e-01 1.75730154e-01
      2.58911327e-02 4.89442535e-02 8.84608626e-02 1.15557291e-01
      8.80903006e-03 1.34645193e-03 1.13497294e-01 3.47338796e-01
      2.62887299e-01 2.27281097e-02 3.00592892e-02 4.01936434e-02
      1.71966478e-02 2.07084417e-03 5.33399871e-04 9.16572809e-02
      3.47338796e-01 1.56300217e-01 2.02103499e-02 1.26172761e-02
      1.05489576e-02 1.37061300e-02 7.36474572e-03 2.56189704e-03
      6.40209243e-02 4.16710347e-01 1.65114447e-01 1.99233908e-02
      7.53889186e-03 0. 1.13908742e-02 2.83805784e-02 5.00791799e-03
      7.29867071e-02 4.16710347e-01 2.85242021e-01 3.33910622e-02
      1.04154320e-02 9.91351344e-03 7.70677067e-03 3.59772681e-03
      3.65985325e-04 9.63865221e-02 4.16710347e-01 3.62503082e-01
      7.45648965e-02 2.61768084e-02 2.57593254e-03 5.45827206e-03
      5.16187958e-03 8.05469789e-03 8.92083198e-02 4.16710347e-01
      9.19282958e-02 5.47976932e-03 4.05457895e-03 5.29896468e-04
      1.20537048e-02 2.30466295e-02 7.74610881e-03 2.84771249e-02
      4.09695715e-01 1.93207338e-01 6.71455450e-03 1.63854063e-02
      3.70927504e-03 8.42406414e-03 1.08171282e-02 7.34572811e-03
      2.53434982e-02 4.09695715e-01 2.94902086e-01 6.21783696e-02
      1.86132081e-02 2.23633440e-04 2.53495551e-03 3.41862114e-03
      1.92290340e-02 2.10762620e-02 4.09695715e-01 4.09695715e-01
      4.42119204e-02 6.81271404e-03 0. 2.57068779e-03 3.52839800e-03
      9.17487293e-02 7.49595314e-02 4.09695715e-01 1.50837660e-01
      7.68305641e-03 6.29850477e-03 1.63135317e-03 1.20511535e-03
      8.51721317e-03 1.24080237e-02 3.46080251e-02 3.05975467e-01
      1.57607526e-01 8.91810935e-03 0. 0. 7.57227698e-03 1.21674477e-03
      1.85604468e-02 3.72783095e-02 3.19125265e-01 3.57465029e-01
      2.69329939e-02 2.92510702e-03 0. 3.93373222e-04 2.12467252e-03
      4.70080785e-02 1.21491745e-01 4.45278466e-01 4.45278466e-01
      1.62213203e-02 2.78859120e-03 0. 3.65815754e-03 1.44578086e-03
      5.39660966e-03 9.20576751e-02 4.45278466e-01 1.87404051e-01
      1.26721188e-02 1.38434572e-02 4.31267405e-03 1.30056059e-02
      4.32982109e-04 3.41062108e-03 1.78762246e-02 3.42315942e-01
      2.91966915e-01 4.03526649e-02 2.49847472e-02 2.40401886e-02
      1.55993234e-02 3.03087477e-03 5.68436831e-03 1.68553498e-02
      3.80793184e-01 3.89937311e-01 1.43299922e-02 4.40905802e-03
      2.61571899e-04 4.49351920e-03 0. 1.72041461e-03 1.32936174e-02
      3.89937311e-01 3.89937311e-01 1.80072356e-02 1.17882499e-02
      6.27602311e-03 1.46272336e-03 9.69740853e-04 2.86735781e-03
      1.19213304e-02 3.89937311e-01 2.00692371e-01 3.30832601e-02
      2.59655230e-02 4.90390621e-02 1.08947773e-02 1.19689526e-03
      8.25801922e-04 2.11719256e-02 3.38651270e-01 1.73221499e-01
      2.50902325e-02 3.84458676e-02 5.78445233e-02 1.50406854e-02
      2.78584380e-03 0. 3.47762480e-02 3.98312479e-01 3.81292880e-01
      1.34109929e-02 1.21339168e-02 2.21598148e-02 2.63051805e-03
      2.82965065e-03 4.16558090e-04 6.31863549e-02 3.98312479e-01
      3.81136298e-01 8.05611070e-03 1.86793711e-02 3.22197415e-02
      7.62553653e-03 3.36929667e-03 0. 1.62661314e-01 3.98312479e-01
      1.76221296e-01 3.34054083e-02 1.84648950e-02 2.51510087e-02
      2.03478951e-02 8.48110113e-03 0. 2.61072591e-02 3.55380118e-01
      1.68422595e-01 8.45992789e-02 4.09570001e-02 1.30322855e-02
      1.16432039e-02 5.30295959e-03 2.19912324e-02 2.86857225e-02
      4.42967474e-01 3.14373285e-01 1.20934751e-02 9.45668668e-03
      1.50906062e-02 1.22087374e-02 5.08866040e-03 0. 6.03756085e-02
      4.42967474e-01 3.14312875e-01 3.27557661e-02 1.62201300e-02
      1.38305919e-02 7.49493344e-03 3.18177603e-03 1.31947407e-02
      6.15909658e-02 4.42967474e-01 1.48307353e-01 8.19522217e-02
      2.82828230e-02 6.08524075e-03 4.59758769e-04 5.24554460e-04
      3.53486091e-02 1.71882436e-02 3.96254569e-01 1.95767835e-01
      6.84693381e-02 1.18095055e-02 7.75653461e-04 6.56798220e-05
      2.25610286e-03 1.35748744e-01 6.35471269e-02 4.02368218e-01
      2.94364065e-01 2.62443107e-02 1.01556266e-02 9.44269076e-03
      7.66264566e-04 1.69321604e-04 1.58391297e-02 3.59913558e-02
      4.02368218e-01 4.02368218e-01 3.77272852e-02 6.17344165e-03
      1.29275583e-03 1.09466368e-04 3.35784018e-04 5.35709746e-02
      3.51126865e-02 4.02368218e-01 2.04875663e-01 4.13070023e-02
      7.75227183e-03 0. 1.31884334e-03 9.30234790e-04 7.95652792e-02
      7.26937279e-02 3.60463679e-01 3.60463679e-01 2.66688131e-02
      1.04065640e-02 0. 9.23190359e-03 3.54249566e-03 1.31238941e-02
      4.88736555e-02 3.60463679e-01 3.60463679e-01 6.98034093e-02
      6.34105830e-03 0. 2.19807238e-03 1.32890680e-04 4.30640504e-02
      4.44531702e-02 3.60463679e-01 3.50763291e-01 6.01907372e-02
      9.06009600e-03 0. 1.53865060e-02 2.12549767e-03 9.44996439e-03
      1.48792818e-01 3.60463679e-01 4.72423226e-01 6.47292212e-02
      4.41745073e-02 0. 5.31071238e-02 3.65173095e-03 0. 1.48589127e-02
      4.72423226e-01 4.72423226e-01 4.11301404e-02 6.25240654e-02
      9.15026385e-03 4.27783541e-02 3.55507992e-02 0. 4.04018052e-02
      4.72423226e-01 9.05351490e-02 6.31240904e-02 6.50635064e-02
      1.91244800e-02 6.06495664e-02 2.59023272e-02 2.51333620e-02
      4.33619507e-02 6.23864122e-02 9.42663476e-02 6.21530451e-02
      5.75048551e-02 4.03413437e-02 6.64147362e-02 5.98469004e-02
      2.13954430e-02 9.66477990e-02 1.41180679e-01 4.06522840e-01
      1.72687788e-02 2.75699366e-02 9.15222242e-03 2.88607925e-02
      3.02715562e-02 3.77882714e-03 8.03366825e-02 4.88536090e-01
      4.88536090e-01 5.03891110e-02 1.65516175e-02 3.70742125e-03
      1.87719800e-02 1.34906238e-02 6.29804516e-03 1.78249285e-01
      4.88536090e-01 5.10367267e-02 4.66154665e-02 4.64977585e-02
      4.23172116e-02 4.60704938e-02 3.78168412e-02 2.60197129e-02
      2.81212758e-02 8.08685422e-02 1.09766424e-01 8.62541944e-02
      6.02583624e-02 3.12865563e-02 3.27980816e-02 1.79930665e-02
      3.25215645e-02 2.85644047e-02 1.47179782e-01 3.42165917e-01
      3.24805789e-02 3.48176365e-03 2.54742859e-04 4.59110411e-03 0.
      6.11203141e-04 4.05736938e-02 5.02622366e-01 4.83206660e-01
      2.89409533e-02 1.83154526e-03 2.37911241e-03 1.47665702e-02 0. 0.
      4.09020782e-02 5.02622366e-01 9.48913991e-02 3.88709344e-02
      2.30355579e-02 3.16993124e-03 1.11961346e-02 4.68573620e-04
      1.81692243e-02 1.52803492e-02 1.33070663e-01 1.86682999e-01
      4.15185578e-02 5.73208816e-02 3.20203020e-03 4.69466075e-02 0.
      1.01528866e-02 1.44779738e-02 2.48682410e-01 3.48141164e-01
      2.98026204e-03 2.19971081e-03 4.55188658e-03 8.93000513e-03 0. 0.
      1.85877364e-02 4.55513239e-01 4.55513239e-01 7.91351870e-03
      5.71095338e-03 4.93273744e-03 7.16333464e-03 0. 2.92039267e-03
      1.12190964e-02 4.55513239e-01 1.18255369e-01 1.17572891e-02
      2.33380515e-02 6.15704199e-03 4.21575680e-02 7.72090442e-03 0.
      1.82453077e-02 2.08664745e-01 1.89372733e-01 1.22550968e-02
      5.35064079e-02 2.60297861e-02 4.01738882e-02 1.44654242e-02 0.
      2.43339892e-02 3.85515392e-01 3.76008838e-01 2.75194515e-02
      3.61489528e-03 5.64352900e-04 1.14161866e-02 0. 2.59997277e-03
      2.68438738e-02 4.24725205e-01 3.63757759e-01 2.68916935e-02
      1.08395366e-03 0. 1.08640669e-02 7.89815385e-04 2.08229688e-03
      1.43965766e-01 4.24725205e-01 1.48103073e-01 1.47737060e-02
      3.15865017e-02 2.74834838e-02 4.86754030e-02 5.41585218e-03 0.
      1.22980410e-02 2.99724877e-01 1.89692199e-01 1.83619093e-02
      8.57801829e-03 1.27946306e-02 4.74002734e-02 7.84795266e-03
      1.19761061e-02 4.87681478e-02 4.24725205e-01 1.69578359e-01
      1.09814920e-01 7.90750235e-02 1.30322799e-01 6.19048253e-02
      1.71481892e-01 9.38371122e-02 1.04223713e-01 1.14936821e-01
      1.46000028e-01 2.18893096e-01 1.01338014e-01 1.70424640e-01
      8.31442699e-02 7.40685239e-02 6.68449998e-02 1.71297923e-01
      2.49871790e-01 2.29971007e-01 1.27466410e-01 7.27247223e-02
      2.04161167e-01 2.29725942e-01 2.66903490e-01 1.31935984e-01
      1.03148766e-01 9.03865173e-02 2.32369572e-01 2.55557746e-01
      2.53409386e-01 2.67767638e-01 1.91554129e-01 1.01211369e-01
      7.80648887e-02 1.74739093e-01 1.86668366e-01 3.67767513e-02
      2.01477811e-01 1.42980978e-01 1.00652412e-01 5.59790283e-02
      5.08570299e-02 6.22444786e-02 1.10693172e-01 1.31051883e-01
      6.68409467e-02 3.25815827e-01 2.79690176e-01 9.36684608e-02
      3.57768461e-02 4.80078310e-02 7.25623220e-02 1.20606959e-01
      8.26955140e-02 6.18782416e-02 2.47060299e-01 3.25815827e-01
      2.19382554e-01 1.52411103e-01 3.76874991e-02 2.69501247e-02
      1.55329734e-01 1.30740985e-01 1.22490034e-01 3.25815827e-01
      3.25815827e-01 3.25815827e-01 1.36881843e-01 2.26889942e-02
      1.75699592e-02 9.65104029e-02 9.61706117e-02 1.68098897e-01
      1.94751248e-01 1.60407200e-01 2.37936378e-02 3.35694551e-02
      5.35633462e-03 7.43579790e-02 9.42563638e-02 6.85522929e-02
      2.30974838e-01 1.59456596e-01 2.34097660e-01 2.01869626e-02
      1.99437499e-01 1.67394578e-02 4.45095338e-02 5.87927960e-02
      4.53726687e-02 2.96989173e-01 2.96989173e-01 2.87797242e-01
      1.12410516e-01 7.99444392e-02 3.21380072e-03 1.17368307e-02
      1.05640255e-01 1.68687195e-01 2.96989173e-01 2.96989173e-01
      9.81985107e-02 4.89742383e-02 2.70230830e-01 2.78991014e-02
      1.24063089e-01 2.96989173e-01 1.37398422e-01 1.26039088e-01
      7.96841756e-02 1.24228485e-01 3.31832804e-02 2.79826969e-01
      1.06319509e-01 7.00019905e-03 3.58783156e-02 9.78657082e-02
      2.79826969e-01 8.69982913e-02 2.38928705e-01 2.28611246e-01
      2.17620507e-01 1.49284229e-01 1.16669945e-02 6.64931759e-02
      1.55642584e-01 2.41758376e-01 9.58176106e-02 8.89368355e-02
      1.02316342e-01 2.79826969e-01 9.72275808e-02 1.73552573e-01
      2.13420555e-01 1.24601670e-01 2.79826969e-01 5.58679998e-02
      1.07043743e-01 2.31415451e-01 2.69090980e-01 8.40411559e-02
      1.26466364e-01 1.20736822e-01 2.06949472e-01 2.69024968e-01
      6.33941814e-02 1.33117184e-01 2.60724574e-01 1.92297593e-01
      8.38482678e-02 2.73641665e-03 2.82898527e-02 1.11777589e-01
      2.85131663e-01 1.12534650e-01 1.09901734e-01 1.18779011e-01
      2.85131663e-01 5.79835176e-02 3.06372754e-02 4.41740602e-02
      2.60672867e-01 2.05270648e-01 2.60313321e-02 3.21700349e-02
      1.71420634e-01 2.27691457e-01 4.53802049e-02 4.37503159e-02
      1.12028860e-01 2.28808120e-01 2.85131663e-01 1.22950062e-01
      6.03147410e-02 1.60814628e-01 2.85131663e-01 2.63039861e-02
      3.51362862e-03 1.37554318e-01 2.85131663e-01</_>
    <_>
      2.40196615e-01 3.67261618e-02 5.00135012e-02 1.41116520e-02
      5.82987629e-03 7.92638492e-03 6.04614010e-03 1.85354706e-02
      2.67085224e-01 1.39622852e-01 1.14185531e-02 2.85380264e-03
      5.75585244e-03 1.48867089e-02 2.30242368e-02 1.95998587e-02
      1.00706451e-01 3.42008352e-01 3.27215821e-01 1.71716094e-01
      3.10854405e-01 2.01855049e-01 1.65166855e-02 6.11442747e-03 0.
      1.17434643e-01 3.42008352e-01 1.75286666e-01 3.31929624e-02
      1.69210434e-02 1.29873782e-01 5.71357198e-02 1.40415698e-01
      6.48811013e-02 3.42008352e-01 3.42008352e-01 7.21599013e-02
      7.22918659e-03 0. 3.29032890e-03 2.34777182e-02 5.78216352e-02
      1.01748310e-01 2.34513432e-01 2.66227484e-01 8.94502848e-02
      6.57702330e-04 0. 2.60733836e-03 2.37720180e-02 6.24551810e-02
      1.33544326e-01 1.88962311e-01 9.23146904e-02 7.61262178e-02
      1.08470060e-02 2.82887043e-03 3.10547203e-01 3.10547203e-01
      3.10547203e-01 2.47889549e-01 3.10547203e-01 3.10547203e-01
      1.15702987e-01 3.98548283e-02 1.66900214e-02 1.93117008e-01
      3.10547203e-01 1.62144095e-01 1.22856706e-01 1.49960339e-01
      1.20583564e-01 3.48477006e-01 9.36708599e-03 0. 8.83126340e-04
      3.53515185e-02 2.82877311e-02 9.15195718e-02 1.75615132e-01
      3.48477006e-01 3.48477006e-01 1.19429544e-01 0. 0. 3.22245546e-02
      5.79244748e-04 1.05630867e-02 5.56381457e-02 3.48477006e-01
      3.48477006e-01 1.05360404e-01 3.58150639e-02 2.13382170e-02
      4.84389178e-02 1.17433574e-02 1.63636655e-02 3.45573165e-02
      2.31901795e-01 3.48477006e-01 1.54848263e-01 9.55594890e-03
      5.74812889e-02 1.10322377e-02 4.05471306e-03 3.61393876e-02
      5.57542145e-02 3.24879915e-01 3.41150016e-01 2.43199453e-01
      2.19662092e-04 2.21313536e-03 2.91504711e-02 1.77105493e-03
      9.52292327e-03 2.62389295e-02 3.41150016e-01 3.41150016e-01
      2.85306901e-01 3.76591459e-02 2.17591263e-02 5.63070513e-02
      1.06263300e-03 5.71375433e-03 6.51144832e-02 3.41150016e-01
      3.16381633e-01 1.19924389e-01 6.15934515e-03 9.84487608e-02
      2.13890094e-02 1.99817903e-02 8.10348541e-02 6.93197846e-02
      2.06128970e-01 2.81261712e-01 1.64623991e-01 7.27963001e-02
      1.80934995e-01 1.02359161e-01 1.03506453e-01 7.26745278e-02
      4.22777571e-02 1.67648986e-01 3.15886110e-01 3.15886110e-01
      1.31263301e-01 1.62830949e-02 7.28673041e-02 0. 0. 1.98649578e-02
      2.43593276e-01 3.15886110e-01 3.15886110e-01 3.15886110e-01
      8.27585533e-03 1.16642185e-01 0. 0. 6.09016465e-03 6.38231635e-02
      2.64728636e-01 2.87168205e-01 7.61609599e-02 1.15217455e-01
      1.70893416e-01 1.02913544e-01 1.85098648e-02 9.40189324e-03
      4.52689342e-02 2.27518648e-01 3.15886110e-01 7.13366121e-02
      6.65815473e-02 1.21621311e-01 5.86783215e-02 2.17211619e-03
      1.01502743e-02 6.54978976e-02 9.70988721e-02 8.34502280e-02
      1.96808785e-01 2.71880716e-01 4.94538024e-02 1.65544823e-02
      2.49417289e-03 5.53401969e-02 2.54064202e-01 4.97653671e-02
      3.22131589e-02 1.56707495e-01 3.28357369e-01 1.03779271e-01
      1.35176405e-01 5.57795614e-02 3.00353497e-01 3.28357369e-01
      4.39565033e-02 1.75515171e-02 6.57040551e-02 2.47225404e-01
      1.58961043e-01 2.41920166e-02 2.90138200e-02 1.68685056e-02
      5.02331778e-02 1.08341295e-02 1.65653434e-02 3.28357369e-01
      3.28357369e-01 2.95861781e-01 1.17090210e-01 7.74333626e-02
      5.25230840e-02 8.97390321e-02 9.00783855e-03 9.73176770e-03
      1.77492857e-01 3.21811885e-01 3.21811885e-01 1.93473160e-01
      8.94746706e-02 2.08535850e-01 1.12524055e-01 2.22572926e-02
      3.40230763e-02 3.69072929e-02 2.59857744e-01 2.34391332e-01
      4.81191874e-02 2.88190357e-02 2.34902110e-02 1.63607355e-02
      5.92133589e-03 8.43549985e-03 3.21811885e-01 3.21811885e-01
      3.02387834e-01 1.14544153e-01 3.78315635e-02 9.14042667e-02
      2.30728030e-01 3.58372591e-02 1.70677099e-02 6.15691282e-02
      2.07615733e-01 1.41642407e-01 2.33044047e-02 1.22590046e-02
      1.00743473e-01 2.69738108e-01 3.23348701e-01 1.91057533e-01
      1.05972290e-01 6.70800358e-02 9.93509665e-02 1.39153907e-02
      2.14643944e-02 2.74328738e-02 1.32498905e-01 3.20624888e-01
      1.00521445e-01 4.90928739e-02 2.13752747e-01 5.25856875e-02
      2.08436511e-02 1.26100868e-01 1.02673560e-01 1.30663380e-01
      3.27696085e-01 5.55789620e-02 5.69852628e-02 2.80541331e-02
      1.18542820e-01 5.28815277e-02 8.55976939e-02 2.86870778e-01
      3.27696085e-01 2.49823466e-01 3.38647142e-02 9.41432491e-02
      8.85438472e-02 1.00460745e-01 3.35973687e-02 1.46446422e-01
      2.33893871e-01 3.27696085e-01 8.29512402e-02 2.79378798e-02
      3.10198870e-02 2.39948645e-01 5.73671199e-02 4.36579809e-02
      1.45260677e-01 1.24468356e-01 1.01252943e-01 9.04192775e-02
      1.23892598e-01 1.18802235e-01 2.33786285e-01 2.27876991e-01
      2.21175566e-01 1.25454798e-01 6.71714172e-02 7.20007122e-02
      3.13027501e-01 5.57175353e-02 3.92917506e-02 8.29490647e-02
      2.31420565e-02 3.26205902e-02 1.19771056e-01 2.52659738e-01
      3.13027501e-01 3.13027501e-01 3.13027501e-01 1.76095679e-01
      1.11915722e-01 1.04674920e-01 5.52418232e-02 5.48803248e-02
      1.35121331e-01 3.13027501e-01 5.42823672e-02 1.17178194e-01
      1.10207230e-01 2.41481900e-01 2.95200437e-01 2.46971726e-01
      4.82705422e-02 4.87740710e-03 8.59940052e-03 5.07278554e-02
      6.99431300e-02 7.11674616e-02 2.12166652e-01 2.95200437e-01
      1.33711517e-01 4.94964654e-03 3.13025643e-03 2.49555074e-02
      2.95200437e-01 2.89851397e-01 2.30009943e-01 2.88936347e-01
      2.95200437e-01 4.42929715e-02 1.64997224e-02 9.03322175e-03
      6.81751445e-02 6.44671097e-02 4.57496606e-02 1.00047834e-01
      2.95200437e-01 2.95200437e-01 1.91016439e-02 3.70962918e-02
      1.21606616e-02 4.51292805e-02 1.41592771e-02 3.22684296e-03
      4.13147435e-02 1.59651488e-01 2.37855092e-01 3.85343172e-02
      6.88599870e-02 4.86913547e-02 4.66421731e-02 5.82444528e-03
      3.15846782e-03 2.39581704e-01 3.05732995e-01 3.05732995e-01
      2.36557439e-01 2.66024053e-01 2.70970702e-01 3.05732995e-01
      7.03691840e-02 3.50486208e-03 1.37543976e-02 4.72445115e-02
      9.62072983e-02 2.71122232e-02 6.13720492e-02 6.87037036e-02
      2.28487119e-01 9.36765075e-02 2.07417142e-02 1.36474306e-02
      8.96286368e-02 1.58332527e-01 1.13194980e-01 2.09413156e-01
      3.05732995e-01 3.05732995e-01 1.08728586e-02 2.45188037e-03
      8.96946415e-02 1.93844765e-01 9.10252407e-02 7.90072158e-02
      5.38086630e-02 2.19759852e-01 3.72813195e-01 5.35759851e-02
      2.05024122e-03 9.02196765e-03 1.47135835e-02 2.21484285e-02
      1.03043579e-02 3.95017071e-03 3.15220773e-01 3.72813195e-01
      8.43695924e-02 1.95200182e-02 2.17079232e-03 1.34474086e-02
      1.66275445e-02 3.00846882e-02 5.23391962e-02 2.53275543e-01
      3.72813195e-01 9.56102312e-02 1.24611380e-02 4.67142789e-03
      2.52454425e-04 2.32537882e-03 1.40613150e-02 3.79412994e-02
      3.72813195e-01 3.72813195e-01 7.60522336e-02 4.50074935e-04
      9.69646382e-04 0. 6.22796267e-03 2.54415371e-03 3.07066180e-03
      1.79774165e-01 4.20094103e-01 8.54103118e-02 1.64974842e-03
      3.45018925e-03 0. 4.91320388e-03 6.18173392e-04 1.87647017e-03
      7.55310878e-02 4.20094103e-01 7.55153149e-02 1.54909492e-03
      3.58764245e-03 7.06277438e-04 2.17488850e-03 5.19322557e-03
      2.29447559e-02 3.72215986e-01 4.20094103e-01 1.37807459e-01
      4.34835820e-04 2.00678012e-03 4.23766469e-04 8.68599047e-04
      2.93669029e-04 2.46262015e-03 2.73610443e-01 4.20094103e-01
      8.76444504e-02 3.52655211e-03 1.40616018e-03 0. 3.13601078e-04
      3.57121025e-04 1.51076517e-03 5.25528528e-02 3.65966380e-01
      1.07020058e-01 1.98936202e-02 3.06550716e-03 1.17350125e-03
      1.47372979e-04 5.10172904e-05 4.46064194e-04 4.31748107e-02
      3.11347306e-01 1.40005201e-01 6.98741293e-04 2.86574184e-04 0.
      4.48001592e-05 0. 2.10565020e-04 2.55747676e-01 4.92638886e-01
      9.72179472e-02 4.67664562e-03 0. 0. 0. 0. 3.00807205e-05
      4.00198162e-01 4.92638886e-01 5.49021624e-02 1.87812280e-02
      6.66227238e-03 6.39666058e-03 4.21921071e-03 0. 6.05396286e-04
      2.47516055e-02 2.06078604e-01 2.68519241e-02 8.42175726e-03
      4.40550363e-03 7.49735720e-03 1.22024044e-02 0. 4.23777429e-03
      1.85003653e-02 1.10706478e-01 4.44196425e-02 4.10378352e-03 0. 0.
      6.33506745e-04 0. 8.64851827e-05 4.75485444e-01 4.77594197e-01
      1.50227413e-01 9.92002804e-03 2.14864453e-03 0. 2.95527186e-03 0.
      6.05396286e-04 4.77594197e-01 4.77594197e-01 8.59918743e-02
      3.72302951e-04 7.85562850e-04 4.05117497e-03 8.98139377e-04
      2.21291301e-03 6.07999461e-03 9.14999619e-02 4.49429661e-01
      1.44602284e-01 1.74858831e-02 4.71337698e-04 4.17193258e-03
      1.27842941e-03 5.34220971e-03 1.63877215e-02 9.82075855e-02
      4.49429661e-01 1.41270831e-01 6.58685822e-05 0. 0. 0.
      2.26096847e-04 1.67154195e-03 1.57063350e-01 4.49429661e-01
      2.06576824e-01 1.08983982e-02 0. 0. 0. 4.99166315e-04
      3.27291922e-03 2.30491564e-01 4.49429661e-01 1.13279633e-01
      2.19469517e-02 1.62341422e-03 3.79498786e-04 1.61183241e-04
      5.78626432e-03 1.49981715e-02 7.04027712e-02 4.35283542e-01
      8.17432925e-02 2.41700523e-02 1.28705781e-02 6.95554889e-04
      3.53931659e-03 1.57485120e-02 3.80827859e-02 1.52973399e-01
      4.40427542e-01 1.64550364e-01 1.32254623e-02 9.74048569e-04 0. 0.
      7.27949082e-04 2.01955461e-03 1.88223854e-01 4.40427542e-01
      1.15393192e-01 2.37117000e-02 7.72234658e-03 4.17332951e-04
      2.12359009e-03 4.35566576e-03 5.44039812e-03 3.10559899e-01
      4.40427542e-01 5.86043820e-02 2.03542635e-02 1.50286863e-02
      2.94757099e-03 4.18556854e-03 9.10184160e-03 2.64393725e-02
      1.29170388e-01 4.04323637e-01 8.64279866e-02 6.61883736e-03
      1.16417203e-02 2.52761110e-03 5.97938371e-04 7.78248417e-04
      4.54853196e-03 1.28267601e-01 4.04323637e-01 1.13969892e-01
      2.87481174e-02 1.30987065e-02 2.52761110e-03 2.51134112e-03
      3.79065843e-03 3.77705367e-03 3.52916688e-01 4.04323637e-01
      2.18296677e-01 1.04532717e-02 1.37875248e-02 2.78168102e-03
      3.58763034e-04 4.66949074e-04 2.98439455e-03 3.31367940e-01
      4.04323637e-01 7.86923543e-02 2.63183587e-03 2.58718012e-03
      1.21370761e-03 1.69072743e-03 1.66305830e-03 4.22521774e-03
      1.40507877e-01 4.29454148e-01 3.21057327e-02 4.05779807e-03
      8.20010062e-03 2.21181512e-02 1.57022160e-02 4.51859320e-03
      2.63174041e-03 3.18694681e-01 4.29454148e-01 2.07431823e-01
      1.75899975e-02 1.00019481e-02 2.46216520e-03 2.81787920e-03
      2.77176383e-03 6.35384629e-03 1.13209583e-01 4.29454148e-01
      2.20796213e-01 2.84045879e-02 5.74007072e-02 4.70285676e-02
      3.16175073e-02 7.53098913e-03 4.28792229e-03 1.26941592e-01
      4.29454148e-01 1.42722754e-02 1.29115279e-03 3.29043623e-03
      1.67715251e-02 8.79960135e-03 4.87837102e-03 1.74614936e-04
      3.29760045e-01 3.84336054e-01 1.79250747e-01 5.64953638e-03
      3.31883179e-03 4.35315352e-03 5.84492739e-03 2.71272007e-03 0.
      3.79026502e-01 3.84336054e-01 1.57046616e-01 8.75625294e-03
      2.30330545e-02 3.57802883e-02 2.37453654e-02 8.13061930e-03
      4.29845648e-03 1.14830792e-01 3.84336054e-01 2.31199980e-01
      1.33895297e-02 2.16674246e-02 2.05596723e-02 3.77322286e-02
      1.56527422e-02 4.15479839e-02 1.47520632e-01 3.84336054e-01
      2.15411752e-01 2.37077568e-03 7.09426589e-03 0. 1.05645014e-02 0.
      2.00362615e-02 1.58485249e-01 5.63044071e-01 3.50728571e-01
      3.07709929e-02 5.65341907e-03 2.85724457e-03 2.14529000e-02
      2.19837367e-03 3.12556662e-02 3.68605465e-01 5.63044071e-01
      1.21117113e-02 9.41789057e-03 3.29102054e-02 9.67163406e-03
      5.28577045e-02 0. 1.20217567e-02 1.07972557e-02 3.02026682e-02
      5.39555140e-02 3.30912620e-02 3.28497104e-02 3.26061361e-02
      7.04081506e-02 2.32383069e-02 4.05612588e-02 3.42794657e-02
      8.42411444e-02 1.96013674e-01 2.71550305e-02 2.18634866e-03
      4.47212579e-03 3.63242580e-03 1.26582477e-03 4.80308570e-03
      1.82610258e-01 5.69659412e-01 1.34779811e-01 1.76405869e-02
      1.65338465e-03 2.68327538e-03 1.75190938e-03 1.80832110e-04
      8.92627425e-03 3.49992692e-01 5.69659412e-01 3.72518301e-02
      2.19539478e-02 5.71203278e-03 1.16838450e-02 2.38459222e-02
      2.11470202e-02 1.67855527e-02 8.24245624e-03 9.83229727e-02
      4.90431897e-02 9.90537647e-03 4.57737688e-03 4.47212579e-03
      2.40056254e-02 8.63757264e-03 1.65766794e-02 3.58719118e-02
      3.37382764e-01 1.00435548e-01 6.23970013e-03 1.68162980e-03
      2.10989863e-04 6.16793172e-04 0. 1.91589619e-03 3.21666420e-01
      4.45287377e-01 2.03548506e-01 3.21874488e-03 3.27202398e-03
      3.51649767e-04 5.84907830e-04 2.85187649e-04 5.46635129e-04
      4.08803731e-01 4.45287377e-01 5.51119633e-02 3.89027013e-03
      4.35645692e-03 0. 9.67832468e-03 0. 3.19316029e-03 4.96261343e-02
      2.31795311e-01 1.08479671e-01 5.92323765e-03 1.33537166e-02 0.
      9.85660963e-03 1.99631345e-03 9.75962670e-04 8.41564983e-02
      4.45287377e-01 1.27479568e-01 6.14676112e-03 3.78015917e-03
      4.24355210e-04 4.13029804e-04 9.94059490e-04 1.05273875e-03
      1.37046754e-01 4.65114206e-01 1.83570951e-01 9.53144114e-03
      1.93025377e-02 8.59701540e-03 5.39543759e-03 1.31758605e-03
      7.11842848e-04 1.74711436e-01 4.65114206e-01 7.46983662e-02
      2.45796843e-03 7.35515077e-03 0. 2.48005637e-03 4.57392912e-03
      2.23611365e-03 6.03111349e-02 4.65114206e-01 9.41566303e-02
      2.96584651e-04 8.87490925e-04 0. 3.04044224e-03 2.74435757e-03
      1.34166831e-03 1.09345675e-01 4.65114206e-01 1.50753081e-01
      2.85497587e-03 7.55797699e-03 6.45023398e-03 5.33818454e-03
      9.81483958e-04 3.60962609e-03 1.23715699e-01 4.23991770e-01
      1.38746113e-01 3.14731803e-03 7.10986461e-03 6.10385695e-03
      1.21750366e-02 1.04747377e-02 3.70594151e-02 2.68494010e-01
      4.23991770e-01 8.32896978e-02 5.22404152e-04 0. 0. 1.00824365e-03
      0. 5.10642130e-04 9.10000503e-02 4.23991770e-01 2.20467493e-01
      3.65682901e-03 0. 0. 7.20174052e-04 1.41842349e-03 5.29420190e-03
      2.85602689e-01 4.23991770e-01</_>
    <_>
      1.02920167e-01 1.85449440e-02 1.31535633e-02 8.95162299e-03
      1.48834782e-02 3.13662412e-03 4.34540818e-03 2.38516508e-03
      6.92163929e-02 7.66305700e-02 8.76551215e-03 7.89213832e-03
      8.30808014e-04 1.01835029e-02 3.98414023e-03 1.76387262e-02
      3.57499644e-02 1.37661353e-01 4.45732743e-01 1.70329079e-01
      4.48063426e-02 0. 9.46640316e-03 1.88197452e-03 6.56987820e-03
      1.58688389e-02 4.45732743e-01 4.45732743e-01 1.29156224e-02
      1.54741609e-03 3.14456318e-03 1.02730341e-01 9.78598669e-02
      9.04668868e-02 3.13094139e-01 4.45732743e-01 8.76775533e-02 0. 0.
      6.26970408e-03 1.93054639e-02 1.05644614e-02 5.00258505e-02
      1.56085104e-01 2.23360702e-01 1.01399988e-01 2.76095560e-03
      5.80873573e-04 4.50760983e-02 3.98367159e-02 4.81247641e-02
      8.12707245e-02 1.37592971e-01 2.85640895e-01 3.40580881e-01 0. 0.
      2.64274441e-02 3.40580881e-01 2.98733711e-01 2.03270659e-01
      3.40580881e-01 3.40580881e-01 8.73131305e-02 2.63767429e-02
      4.06611478e-03 4.82493043e-02 3.40580881e-01 1.15446724e-01
      1.12634018e-01 1.90382257e-01 6.41821921e-02 1.89246163e-01
      6.95720920e-03 3.26542854e-02 5.57618551e-02 8.30567628e-02
      1.45502776e-01 2.13566631e-01 1.15476429e-01 2.78002381e-01
      2.78002381e-01 2.29568914e-01 1.42923295e-01 1.02206744e-01
      1.43276900e-01 9.17846784e-02 2.62193382e-01 9.81730595e-02
      2.78002381e-01 9.05573070e-02 6.58992082e-02 1.00661285e-01
      1.12029731e-01 7.39349946e-02 9.71167088e-02 1.95959330e-01
      1.51824519e-01 1.46613702e-01 4.48204093e-02 9.22052711e-02
      2.62189716e-01 2.78002381e-01 2.77850300e-01 5.50708063e-02
      2.13627338e-01 1.40877083e-01 1.09883823e-01 2.98254818e-01
      2.98254818e-01 2.09027067e-01 1.08989827e-01 1.34544179e-01
      1.12977838e-02 8.04650411e-02 2.80568507e-02 7.63759091e-02
      2.98254818e-01 2.13290215e-01 1.48450866e-01 4.84216660e-02
      1.34787157e-01 0. 2.53275521e-02 3.99526358e-02 2.51411885e-01
      7.46916607e-02 9.37360451e-02 1.90668419e-01 2.43124381e-01
      2.98254818e-01 6.77867001e-03 9.89212692e-02 4.09603789e-02
      3.69730778e-02 2.85310000e-01 7.84856528e-02 1.44500971e-01
      2.04846010e-01 2.98254818e-01 0. 5.63051961e-02 3.77094075e-02
      1.84807971e-01 2.97226906e-01 5.32182790e-02 8.35256502e-02
      1.66516602e-02 1.55177176e-01 0. 9.58649591e-02 7.03257769e-02
      2.78311849e-01 2.97226906e-01 1.64654285e-01 6.68887272e-02
      6.57320544e-02 2.80936629e-01 0. 8.95784944e-02 6.25737906e-02
      1.86111897e-01 2.30577216e-01 4.65681143e-02 6.54542744e-02
      1.44069970e-01 2.89552957e-01 0. 1.57314569e-01 1.00902535e-01
      1.63707599e-01 2.19917461e-01 4.63848561e-02 1.13571912e-01
      1.90148517e-01 2.74382651e-01 0. 1.89522490e-01 2.60417640e-01
      1.69224799e-01 3.14698994e-01 9.98614803e-02 6.72851801e-02
      3.38507332e-02 8.66421219e-03 2.18170229e-03 7.33048748e-03
      1.96228325e-02 3.14698994e-01 3.14698994e-01 5.85246831e-03
      9.97510273e-03 2.01028898e-01 2.02360824e-01 1.09803446e-01
      6.46499619e-02 2.13690534e-01 3.14698994e-01 2.15169191e-01
      4.93258014e-02 1.60273597e-01 1.75633416e-01 2.08669528e-02
      1.52719151e-02 1.12245223e-02 1.87447052e-02 1.26734108e-01
      1.25321701e-01 5.96078904e-03 3.14698994e-01 3.14698994e-01
      2.71584153e-01 9.17084590e-02 4.14102934e-02 9.07068476e-02
      1.12948343e-01 1.03823438e-01 0. 1.17403092e-02 3.31982762e-01
      3.64012331e-01 2.26955712e-01 7.45467618e-02 2.69428760e-01
      2.35475436e-01 1.30318562e-02 8.72599613e-03 2.17397977e-03
      6.30604476e-02 2.56632626e-01 4.71604355e-02 2.05604751e-02
      4.00851369e-02 1.12586422e-02 2.82145292e-02 9.30734750e-05
      2.70616323e-01 3.64012331e-01 3.64012331e-01 1.47898898e-01
      2.90571731e-02 8.13666582e-02 5.55744283e-02 1.31785180e-02
      4.47032647e-03 1.74848344e-02 1.67510122e-01 2.85398364e-01
      2.67818943e-02 1.16579514e-02 1.03821987e-02 2.67378259e-02
      1.08216107e-01 1.41645789e-01 5.68499640e-02 5.40962592e-02
      9.55695808e-02 1.65110789e-02 1.50206253e-01 2.50989288e-01
      2.19493344e-01 2.04123512e-01 1.60876647e-01 2.49097601e-01
      1.96354002e-01 1.86034873e-01 0. 1.65376276e-01 2.74617016e-01
      2.42603645e-01 1.40388712e-01 1.31894052e-01 1.03109162e-02
      1.20157108e-03 1.83673933e-01 2.35872553e-03 1.14862137e-01
      1.24568909e-01 1.49989188e-01 3.02627325e-01 3.02627325e-01
      8.55128244e-02 2.60923188e-02 1.85021073e-01 2.04036329e-02
      9.27373469e-02 1.43574864e-01 2.72646159e-01 1.47401288e-01
      7.03614950e-02 1.73037201e-01 1.30522177e-01 1.63586527e-01
      3.77728860e-03 1.05743796e-01 1.16544962e-01 1.19708940e-01
      2.62340337e-01 1.49986640e-01 1.78477764e-01 2.04510719e-01
      2.80617684e-01 2.64410172e-02 9.24335644e-02 8.90880600e-02
      1.46397948e-01 2.21282393e-01 1.68506131e-01 8.14816728e-02
      2.81199850e-02 6.45915866e-02 1.23961926e-01 1.20851353e-01
      1.38531923e-01 2.13735864e-01 1.62504524e-01 1.56020164e-01
      8.95240456e-02 5.55398352e-02 2.92008132e-01 2.92008132e-01
      2.92008132e-01 1.92824051e-01 1.91197157e-01 1.48194522e-01
      8.74216408e-02 6.08166531e-02 8.42117518e-02 2.05097675e-01
      3.19116600e-02 1.50862008e-01 5.42633384e-02 6.65423945e-02
      1.57011241e-01 3.78012694e-02 3.85841019e-02 5.07845357e-02
      1.88139409e-01 3.97826917e-02 1.72303498e-01 1.33963391e-01
      1.52562261e-01 1.70096219e-01 9.83242914e-02 4.35639806e-02
      1.53888129e-02 2.59019464e-01 1.93450719e-01 2.91807175e-01
      1.20250091e-01 1.68184981e-01 2.91807175e-01 1.96280584e-01
      7.85043836e-02 1.50047928e-01 2.45504394e-01 1.58217743e-01
      2.91807175e-01 2.53626227e-01 2.91807175e-01 3.80647182e-02
      2.20361557e-02 1.70471683e-01 2.49792978e-01 1.21158674e-01
      2.84568295e-02 2.42123958e-02 3.67891812e-03 5.34756221e-02
      7.82086775e-02 2.81420862e-03 3.13617945e-01 3.13617945e-01
      2.18290344e-01 1.14294380e-01 5.49894534e-02 2.77278735e-03
      1.52675003e-01 8.20756257e-02 3.87454815e-02 6.55199066e-02
      1.97839141e-01 2.08047032e-01 5.51031865e-02 1.01374030e-01
      1.41564365e-02 1.19483039e-01 3.13617945e-01 3.50566604e-03
      2.08103448e-01 3.13617945e-01 2.42136359e-01 1.85480699e-01
      1.99875757e-01 2.27746367e-02 3.13617945e-01 1.03195056e-01
      1.33440815e-04 1.59558818e-01 3.70236486e-01 1.11884348e-01
      4.19326760e-02 1.29844677e-02 8.75620928e-04 2.43610457e-01
      1.10587753e-01 9.34085750e-04 7.07472255e-03 3.26773264e-02
      3.57653722e-02 3.86717427e-03 4.53795772e-03 4.94708121e-03
      3.69881898e-01 3.79755020e-01 8.00644921e-05 5.59185818e-02
      6.77549541e-02 4.59197350e-02 5.70532642e-02 3.87025923e-02
      3.47387902e-02 3.79755020e-01 3.79755020e-01 2.56486703e-03
      4.01414698e-03 3.19877290e-03 5.13035106e-03 8.91527394e-04
      3.44798970e-03 7.08322227e-02 3.79755020e-01 1.12037219e-01
      2.56104325e-03 1.28450617e-03 0. 1.24582592e-02 0. 3.54502886e-03
      5.62812947e-03 2.79719293e-01 1.62894994e-01 1.68405883e-02
      6.50219573e-03 2.57816166e-03 2.14464776e-02 1.25083548e-03
      9.41380102e-04 1.10516185e-03 2.66900867e-01 4.48471993e-01
      7.30345305e-03 7.70703773e-04 0. 6.03562500e-03 8.83834378e-04
      1.36063504e-03 2.86030229e-02 4.48471993e-01 4.48471993e-01
      7.11158896e-03 5.66697074e-03 1.54689711e-03 1.15652289e-02
      1.65174820e-03 1.86722691e-03 1.74884703e-02 4.48471993e-01
      1.53393269e-01 1.06089683e-02 9.22528096e-03 2.94406130e-03
      7.27159530e-03 8.83082952e-03 4.75559197e-03 1.66060356e-03
      1.82340473e-01 1.65244371e-01 2.39550415e-03 2.88308971e-03
      4.20580211e-04 1.27990227e-02 2.28877850e-02 2.05078833e-02
      6.83487114e-03 2.36766502e-01 4.58559662e-01 4.91864933e-03
      7.55140791e-03 1.76643708e-03 3.82036949e-03 1.37477810e-03
      4.05174075e-03 7.35523105e-02 4.58559662e-01 4.58559662e-01
      1.67093743e-02 1.85993651e-03 2.52348138e-04 1.95438764e-03
      2.46875104e-03 6.25491561e-03 8.23375136e-02 4.58559662e-01
      1.14603244e-01 1.19232445e-03 2.69144453e-04 0. 9.64656938e-03
      9.78361070e-03 2.27114260e-02 6.26478810e-03 1.92544550e-01
      1.08291857e-01 1.03428261e-02 7.50768883e-03 1.52782071e-02
      1.55794676e-02 6.42176811e-03 5.21278009e-02 1.49754761e-02
      2.17874318e-01 4.66918617e-01 6.08417671e-03 0. 0. 6.02837827e-04
      7.95610831e-04 4.45176708e-03 1.57604292e-02 4.66918617e-01
      4.66918617e-01 5.54764271e-03 1.06703432e-03 2.18260125e-03
      2.11451156e-03 9.91774956e-04 2.57702544e-02 9.21980292e-02
      4.66918617e-01 9.82616395e-02 1.94232520e-02 1.31579116e-02
      8.39160830e-02 8.94317105e-02 3.19134146e-02 5.88597767e-02
      2.25902572e-02 1.11646205e-01 3.89955789e-01 3.76178650e-03
      1.49570871e-02 5.51980287e-02 6.90987557e-02 6.23002611e-02
      1.34469956e-01 2.50015669e-02 3.89955789e-01 3.89955789e-01
      1.72197577e-02 2.19298527e-02 4.78177071e-02 3.57603282e-02
      5.41248405e-03 2.58206972e-03 4.42167334e-02 3.89955789e-01
      3.89955789e-01 7.72186695e-03 1.82743073e-02 2.58282665e-02
      1.89696308e-02 7.97951035e-03 2.35564206e-02 4.45704013e-02
      3.89955789e-01 3.24497402e-01 2.96134991e-03 1.45115517e-02
      1.16342418e-02 6.50634198e-03 1.41033968e-02 3.75701599e-02
      5.51760085e-02 3.55965942e-01 3.07079941e-01 9.18084942e-03
      1.08116232e-02 1.56007512e-02 2.47988058e-03 0. 1.58261787e-02
      1.29275277e-01 3.55965942e-01 3.55965942e-01 1.11523420e-02
      8.86437669e-03 8.38088896e-03 4.15473199e-03 1.15919323e-03
      1.72938108e-02 2.54718307e-02 3.55965942e-01 3.55965942e-01
      1.43037541e-02 1.38594825e-02 4.06516343e-02 1.37103954e-02 0.
      2.87500285e-02 9.90345702e-02 3.55965942e-01 3.49157274e-01
      2.35336553e-02 1.14683723e-02 1.01433247e-02 2.71305698e-03
      3.06709716e-03 5.33088483e-03 5.48184440e-02 3.49157274e-01
      3.49157274e-01 2.77782753e-02 1.86802708e-02 3.48568126e-03
      6.23567263e-03 1.36358617e-02 7.68805575e-03 2.93908622e-02
      3.49157274e-01 3.49157274e-01 3.40521447e-02 3.32287475e-02
      5.46488687e-02 1.76065527e-02 1.84025837e-03 1.13860471e-02
      5.09730801e-02 3.49157274e-01 3.49157274e-01 4.96184453e-02
      3.30669805e-02 2.43997648e-02 4.10624929e-02 2.61635464e-02
      1.13971336e-02 1.27784219e-02 3.49157274e-01 3.60106230e-01
      1.64369605e-02 1.06956782e-02 3.84793733e-04 3.65057262e-03
      1.34187648e-02 1.44180376e-02 8.66696760e-02 3.60106230e-01
      3.60106230e-01 5.67398742e-02 3.19003500e-02 4.26510908e-03
      3.19836801e-03 7.22903619e-03 1.05502559e-02 9.80759189e-02
      3.60106230e-01 2.41702050e-01 1.93829872e-02 1.11596901e-02
      2.52607325e-03 2.29150262e-02 4.15646695e-02 2.82066427e-02
      3.47230285e-02 3.60106230e-01 3.48378539e-01 4.07627933e-02
      5.22149056e-02 2.03017686e-02 2.20115799e-02 3.14857252e-02
      2.14629360e-02 6.86510652e-02 3.60106230e-01 3.74380559e-01
      1.77546237e-02 1.69575922e-02 2.73979292e-03 2.24450021e-03
      2.52853404e-03 4.62779589e-03 2.75123790e-02 3.74380559e-01
