<?xml version="1.0"?>
<opencv_storage>
<opencv_ml_svm>
  <format>3</format>
  <svmType>C_SVC</svmType>
  <kernel>
    <type>LINEAR</type></kernel>
  <C>8.0000000000000002e-02</C>
  <term_criteria><epsilon>9.9999999999999995e-07</epsilon>
    <iterations>10000</iterations></term_criteria>
  <var_count>900</var_count>
  <class_count>2</class_count>
  <class_labels type_id="opencv-matrix">
    <rows>2</rows>
    <cols>1</cols>
    <dt>i</dt>
    <data>
      0 2</data></class_labels>
  <sv_total>1</sv_total>
  <support_vectors>
    <_>
      3.81176150e-03 -5.18917851e-03 -4.27318849e-02 -2.88625099e-02
      2.81923246e-02 4.75937538e-02 2.58372910e-02 4.73770592e-03
      3.61579470e-02 3.01949438e-02 4.50099558e-02 5.83936786e-03
      3.39299329e-02 2.80150194e-02 6.13123327e-02 3.60884853e-02
      1.32742431e-02 5.74631849e-03 -1.29492596e-01 2.14960631e-02
      -1.41719850e-02 -3.03590484e-02 -2.99452953e-02 -5.30417822e-03
      -6.48137042e-03 -6.22728504e-02 -1.13755986e-01 -8.70026648e-02
      -1.08499802e-03 -3.14166695e-02 -1.11725694e-02 9.16348863e-03
      3.77962068e-02 2.90146545e-02 9.12870094e-03 -8.98252875e-02
      -1.37365917e-02 3.88818942e-02 -8.34014360e-03 -3.15824077e-02
      -2.56319903e-02 6.64355094e-03 -2.20754906e-03 -2.37458497e-02
      -5.13434298e-02 -1.07434280e-02 -1.30503264e-03 1.89384613e-02
      -8.64661392e-03 2.50894763e-02 2.17443816e-02 2.23734900e-02
      -9.12949350e-03 -6.01458456e-03 -4.08681668e-02 -5.94269205e-03
      -6.58100024e-02 -5.21849170e-02 -2.14418303e-02 -6.06920104e-03
      -9.06828791e-03 -1.15233976e-02 -7.04677403e-02 -5.09140128e-03
      -2.10848134e-02 -1.36276791e-02 -4.42521088e-02 1.63662974e-02
      -1.35679571e-02 -7.06923753e-03 -2.30866279e-02 1.23167213e-03
      1.88215896e-02 4.50869976e-03 1.21646868e-02 1.22135170e-02
      3.77599411e-02 1.63203441e-02 3.86609440e-03 -1.89692751e-02
      -2.26090127e-03 4.28591445e-02 2.95367301e-03 -5.29740974e-02
      -4.69090752e-02 2.67343801e-02 3.64779606e-02 -3.87047091e-03
      -7.63157010e-03 6.95258519e-03 4.49871868e-02 9.16764885e-03
      1.36499014e-02 -1.26304207e-02 1.63151678e-02 -6.07225066e-03
      -1.23413391e-02 -2.04281360e-02 3.20838578e-02 5.30746812e-03
      -5.20477481e-02 -1.42753541e-01 -8.67045894e-02 -6.13090321e-02
      3.77002335e-03 -2.08943095e-02 -1.67228468e-02 -1.58159453e-02
      4.80747111e-02 1.62694752e-02 -5.79955690e-02 -1.81206372e-02
      9.83689427e-02 4.04428244e-02 3.46393958e-02 6.50241077e-02
      2.69118845e-02 3.25615965e-02 -9.34402868e-02 -5.47350459e-02
      -4.22272686e-04 1.12646684e-01 6.14661910e-02 5.13805635e-02
      6.02637418e-02 5.27770780e-02 -1.51606682e-05 -9.58955009e-03
      -9.01211798e-02 -3.56063955e-02 7.48632625e-02 3.72482426e-02
      2.72239242e-02 2.45687999e-02 -8.22114106e-03 -5.18357307e-02
      -9.12077054e-02 -1.14181258e-01 -3.52795199e-02 5.52492253e-02
      1.42703280e-02 2.75662374e-02 3.05407755e-02 -2.85166763e-02
      4.39819228e-03 -9.24385935e-02 -5.50929904e-02 4.68439162e-02
      9.01332125e-02 4.19240445e-02 3.37190665e-02 3.41063626e-02
      6.50737509e-02 -4.39331430e-04 -4.79528680e-02 -2.11993251e-02
      1.56935062e-02 4.03712951e-02 1.00993980e-02 2.03744993e-02
      3.25056911e-02 3.12492475e-02 -4.40084338e-02 -9.55803916e-02
      -5.73260449e-02 2.16991287e-02 2.71789618e-02 -2.61967070e-02
      1.13236029e-02 2.70488169e-02 -9.83856805e-03 -4.66333851e-02
      -2.56581362e-02 -7.88536854e-03 3.25906016e-02 -2.87220161e-02
      -3.76739316e-02 -2.83859391e-02 4.51062398e-04 -2.46561375e-02
      -2.62838509e-02 -1.19645940e-02 -4.88461833e-03 -1.36737963e-02
      -3.53134796e-02 3.50710563e-02 2.12722011e-02 -4.43927292e-03
      -1.05002616e-02 1.64320245e-02 2.47212108e-02 -3.93390004e-03
      -1.64837192e-03 -2.41077375e-02 6.46390766e-02 5.35436645e-02
      3.05417441e-02 -2.74548866e-02 2.09030192e-02 -4.68568169e-02
      -1.00223146e-01 -9.66728032e-02 -8.62671584e-02 -5.39991725e-03
      1.65507905e-02 4.18895250e-03 2.89069992e-02 4.61081490e-02
      -4.46927361e-03 -6.99940026e-02 -8.16548765e-02 -8.32940862e-02
      1.12610348e-02 4.92309220e-02 4.95631844e-02 3.24820913e-02
      1.69495698e-02 1.92711912e-02 -4.60660234e-02 -5.82228750e-02
      -1.11424975e-01 -1.26556987e-02 -4.55788570e-03 -1.53795108e-02
      -6.16859198e-02 9.13863480e-02 4.95764427e-02 3.92696336e-02
      2.66088489e-02 3.99033092e-02 -1.39181362e-02 -1.18902524e-03
      1.17290663e-02 4.67111878e-02 1.53648946e-02 -4.27717948e-03
      -8.76612142e-02 -1.26571000e-01 -1.63061142e-01 -6.57636449e-02
      -5.54935075e-03 1.69497496e-03 -3.53028253e-02 9.39825773e-02
      3.04894615e-03 -2.91887466e-02 1.72613803e-02 -6.63899910e-03
      9.20895115e-03 3.32852378e-02 4.35991362e-02 3.22735421e-02
      9.67727005e-02 5.28126210e-02 3.50232050e-02 5.64230606e-02
      6.36263564e-02 2.13122256e-02 2.81695295e-02 3.27844247e-02
      6.24375790e-02 8.82413089e-02 -3.95726645e-03 -1.02173880e-01
      -1.20235269e-03 5.39280064e-02 3.98222469e-02 3.15683149e-02
      2.54953597e-02 4.15553488e-02 8.02861005e-02 -3.50704119e-02
      -1.35407209e-01 6.16358407e-02 7.41553754e-02 4.07286063e-02
      4.36037481e-02 3.49072479e-02 8.23577493e-02 2.16499679e-02
      -1.09066218e-01 -1.97493955e-01 5.97828217e-02 7.05583021e-02
      5.33431172e-02 4.00634855e-02 1.46873146e-02 3.15023735e-02
      7.11936355e-02 4.73590754e-03 -4.66431119e-02 1.45393582e-02
      8.55926052e-02 4.85610105e-02 3.95006426e-02 3.89626883e-02
      5.56089953e-02 -1.03748171e-02 -5.89600950e-02 -9.97831672e-03
      3.03980894e-02 6.88802153e-02 4.79733683e-02 4.38755117e-02
      5.68540767e-02 4.85208370e-02 1.25844991e-02 -6.97752982e-02
      -9.15310830e-02 5.93798459e-02 7.49365687e-02 4.09446806e-02
      2.57537458e-02 4.11040373e-02 3.41897309e-02 -4.38263714e-02
      -1.12677090e-01 -3.92742045e-02 5.32942973e-02 4.24117967e-02
      6.13516681e-02 5.75386062e-02 6.18527010e-02 -2.54085958e-02
      -3.47712040e-02 -4.57438827e-02 3.89980637e-02 6.90525323e-02
      3.84601392e-02 2.48027202e-02 4.22488973e-02 4.58640829e-02
      2.97288620e-03 1.12832729e-02 4.40416448e-02 7.12767988e-02
      5.91899566e-02 -2.19215881e-02 -2.27923272e-04 8.99920706e-03
      4.25217785e-02 1.90836862e-02 -9.20346603e-02 -3.53714228e-02
      1.18522467e-02 6.21943064e-02 -1.16507988e-03 1.29604628e-02
      2.61185355e-02 4.51232642e-02 -9.57760587e-02 -4.68380563e-02
      1.07572511e-01 1.01005569e-01 5.19210398e-02 -5.18865287e-02
      -1.68465357e-02 -3.97186279e-02 5.14985668e-03 -7.33554363e-02
      8.07110444e-02 2.50145737e-02 -6.33151233e-02 -8.19750801e-02
      -8.64163488e-02 -4.69360724e-02 -2.03244668e-02 2.69450061e-02
      7.15900511e-02 6.15449660e-02 4.23513949e-02 -1.88463349e-02
      -2.12574471e-02 -4.45777513e-02 -1.78802032e-02 7.13017583e-03
      3.54148708e-02 1.98895391e-02 6.55632168e-02 6.05636463e-02
      4.14067693e-02 3.13246287e-02 -8.93471669e-03 -6.99382424e-02
      -8.71405825e-02 -2.90657748e-02 2.27974448e-02 1.45311682e-02
      6.26659244e-02 6.35837168e-02 6.89516962e-02 1.37654291e-02
      -3.60240750e-02 -4.57926318e-02 -3.16908062e-02 -1.58268381e-02
      4.45491485e-02 3.69722210e-02 1.79293752e-02 2.62831151e-02
      1.75357854e-03 3.52816768e-02 5.52850887e-02 5.18494248e-02
      1.20274285e-02 2.25020796e-02 -1.67449508e-02 -4.43610027e-02
      3.67341638e-02 7.32116252e-02 6.51133209e-02 7.06956163e-02
      7.16225207e-02 3.59129906e-02 -6.04045689e-02 -2.69397488e-03
      1.29975416e-02 7.19043836e-02 3.77763733e-02 2.07859240e-02
      -5.87181561e-03 -4.57692854e-02 -7.20571354e-02 -3.35374139e-02
      -1.42614931e-01 -8.26073587e-02 7.95978587e-03 6.87660873e-02
      4.63390909e-02 6.35685027e-02 7.06598163e-02 -5.84964827e-02
      4.48438674e-02 -6.09071180e-02 -1.06788613e-01 4.98423986e-02
      6.67168349e-02 5.68810329e-02 3.99705321e-02 4.87852395e-02
      5.95898181e-02 6.11691661e-02 -7.81773701e-02 -1.24715388e-01
      5.63953817e-02 8.38589817e-02 5.37707657e-02 3.97669561e-02
      3.97873782e-02 8.28125179e-02 -1.75567288e-02 -9.01056528e-02
      -5.85332401e-02 4.56935838e-02 7.61883333e-02 5.09609766e-02
      3.85212265e-02 5.67466989e-02 -2.48003588e-03 5.06241806e-02
      -5.81867285e-02 -1.04787290e-01 5.31033874e-02 7.92410895e-02
      7.90582225e-02 5.89295290e-02 4.79989797e-02 5.15330024e-02
      7.52290636e-02 -7.70434737e-02 -8.36438388e-02 6.67981729e-02
      6.74837306e-02 4.64385748e-02 2.07644328e-02 3.27252895e-02
      5.65419421e-02 1.41459033e-02 -8.62508789e-02 -5.24779744e-02
      3.90597396e-02 6.35884050e-03 3.59260514e-02 3.46972048e-02
      4.55960110e-02 2.71059591e-02 5.55461012e-02 -5.57313599e-02
      -1.10252455e-01 5.64393848e-02 5.36474735e-02 8.62587392e-02
      5.41283898e-02 2.52578426e-02 5.50844781e-02 2.68874802e-02
      -1.53774908e-02 -4.93475087e-02 5.06928414e-02 -4.93452735e-02
      2.41986066e-02 4.75567859e-03 3.26112658e-03 3.96377370e-02
      -4.13257778e-02 5.79915417e-04 3.01327067e-03 5.14006913e-02
      -5.93668558e-02 -1.02812203e-03 1.00601055e-02 2.39003319e-02
      -3.80442962e-02 2.98067834e-02 1.02378681e-01 1.00391805e-01
      2.95368340e-02 -9.65327695e-02 -6.38391217e-03 -5.44580491e-03
      1.20275989e-02 -8.07269849e-03 2.88428692e-03 2.61932821e-03
      8.64088684e-02 5.45623377e-02 -1.34313792e-01 -6.34490401e-02
      -2.93490849e-02 7.99641199e-03 -8.87480006e-03 3.19446623e-02
      6.38443604e-02 9.70744193e-02 1.60504915e-02 -1.35129109e-01
      -5.63910007e-02 -4.45161760e-03 -4.46294434e-03 1.62025858e-02
      1.91965885e-02 4.06838730e-02 3.30263339e-02 3.32749449e-02
      -1.08408779e-02 -4.23365878e-03 -8.53163227e-02 -2.49803904e-02
      -1.09871980e-02 -1.29416268e-02 3.78668904e-02 4.91333045e-02
      6.16377108e-02 3.91698778e-02 1.08966790e-02 -2.87560895e-02
      -3.19211148e-02 -5.47861420e-02 3.62898484e-02 4.28338349e-02
      4.25641499e-02 3.61734740e-02 -4.57809679e-02 -1.08724842e-02
      1.64697189e-02 2.24974938e-02 3.14125163e-03 -4.48894408e-03
      5.20849042e-02 5.56022115e-02 6.91919848e-02 3.59717421e-02
      2.16491483e-02 -1.12097906e-02 -3.15455459e-02 -5.18504828e-02
      -5.34050986e-02 -1.63899921e-02 -3.30436626e-03 7.02508390e-02
      7.48789757e-02 5.20888194e-02 2.92313788e-02 -4.07042876e-02
      -7.89695457e-02 -4.40063365e-02 -7.08141625e-02 -3.10662258e-02
      6.18848391e-02 8.65347758e-02 4.42883596e-02 4.36405987e-02
      3.38822044e-02 -4.23145443e-02 -6.95916712e-02 6.01435546e-03
      7.52167776e-03 7.35684931e-02 7.23073855e-02 5.80929480e-02
      2.38456894e-02 -1.90332700e-02 -7.37720802e-02 -5.19646443e-02
      -4.83793728e-02 3.55019514e-03 5.51016554e-02 8.91572684e-02
      6.16219155e-02 5.47026023e-02 3.04730088e-02 -6.50427828e-04
      -5.40465750e-02 -7.56919980e-02 -4.36423086e-02 5.35824969e-02
      5.66630252e-02 3.71482894e-02 2.68900879e-02 4.47987504e-02
      -1.52894594e-02 2.52525304e-02 -3.82200927e-02 -9.78877991e-02
      2.02214252e-02 5.00538126e-02 6.99560195e-02 5.52162379e-02
      4.86790165e-02 5.55980615e-02 -4.93234247e-02 -3.09379827e-02
      1.67446546e-02 2.46190820e-02 4.93980385e-02 3.20925415e-02
      3.37621793e-02 5.25472611e-02 1.05050374e-02 2.48840693e-02
      -3.56132016e-02 -1.46500207e-02 -5.37411834e-04 2.18564216e-02
      4.40429598e-02 4.95900288e-02 6.97043762e-02 8.35101753e-02
      4.99530844e-02 -5.34170642e-02 -1.54759482e-01 -1.93496943e-02
      -6.68233074e-03 4.98027094e-02 3.68328877e-02 2.05948893e-02
      8.40446800e-02 3.57672237e-02 -1.76396072e-02 -7.10290372e-02
      -7.32111046e-03 -1.02526471e-01 -2.57907342e-02 -3.64245400e-02
      -7.52581470e-03 4.85886633e-02 4.60976176e-02 -2.15243697e-02
      -4.07104008e-02 -2.69175526e-02 1.43193640e-02 3.50292400e-02
      3.77059691e-02 4.68360633e-02 1.04579709e-01 5.00059165e-02
      3.20764743e-02 4.50502262e-02 -6.35369541e-03 -6.44084364e-02
      -1.10749612e-02 -1.10567815e-03 1.81819387e-02 7.52174556e-02
      3.20216455e-02 5.15586957e-02 1.09209672e-01 6.09880053e-02
      -1.73009172e-01 -3.65334898e-02 -1.49843069e-02 2.36711581e-03
      2.56450474e-02 2.99849734e-02 4.49789353e-02 9.95553806e-02
      2.97006164e-02 -1.68273896e-01 -5.65723628e-02 1.51203265e-02
      1.07509817e-03 3.53933536e-02 4.91042398e-02 7.63470009e-02
      1.08996622e-01 1.33403698e-02 -1.06905669e-01 -5.04067051e-04
      2.35434286e-02 4.46613319e-02 5.07050529e-02 2.25832127e-02
      4.56494614e-02 8.26987252e-02 5.21195540e-03 -1.26600504e-01
      -3.23462151e-02 3.74752767e-02 2.43388731e-02 6.44859113e-03
      -3.89950536e-02 -3.96656571e-03 -1.34024881e-02 -9.44186375e-03
      -6.84821978e-02 -3.43297347e-02 -3.28640491e-02 2.82694437e-02
      -5.25497831e-02 -5.24842851e-02 -2.12271251e-02 8.98973364e-03
      2.40670703e-02 -2.69773277e-03 -1.38606895e-02 -2.41600741e-02
      -2.71875858e-02 -5.03663197e-02 1.63025670e-02 -9.48719867e-03
      1.29382247e-02 -9.65992175e-03 -6.95760595e-04 -5.66017814e-03
      -4.02758047e-02 -1.12507427e-02 2.99732778e-02 3.73854442e-03
      -3.56368758e-02 6.38848823e-03 5.45347808e-03 1.67832933e-02
      3.48757096e-02 -1.38493581e-02 1.78471231e-03 3.20716314e-02
      -1.13254964e-01 1.34887581e-03 1.55416736e-02 1.16784703e-02
      1.61332712e-02 -1.38381524e-02 -1.88655891e-02 -4.70435396e-02
      -7.91008845e-02 -6.69052526e-02 -4.88289855e-02 -1.94272697e-02
      1.42865926e-02 2.10801698e-02 1.63518209e-02 2.30895951e-02
      -1.75284203e-02 -4.21001986e-02 2.31195651e-02 -2.94070356e-02
      5.12144156e-03 2.12445371e-02 4.93969209e-02 5.86282136e-03
      1.50246089e-02 1.96783803e-02 3.71993333e-02 2.06257831e-02
      -5.55775873e-02 -2.09320243e-02 4.71664928e-02 5.44010624e-02
      1.82248112e-02 3.73635031e-02 9.07520577e-03 3.57361808e-02
      -2.10139696e-02 -5.78104258e-02 -4.52279299e-02 -6.96131727e-03
      2.51873974e-02 1.90974399e-02 1.09033249e-02 -3.44056915e-03
      -2.47307513e-02 -2.20953003e-02 -4.51142080e-02 -2.36303825e-02
      -6.05567358e-02 3.98386382e-02 4.85474430e-03 -1.02989096e-02
      9.74753685e-03 -1.64110735e-02 5.04037999e-02 -6.03873394e-02
      -1.81202777e-02 3.77972797e-02 7.53040984e-02 2.35390924e-02
      2.10384391e-02 -1.74392927e-02 5.57265282e-02 5.18009551e-02
      1.00841904e-02 -3.37912217e-02 -1.50964037e-03 5.76470569e-02
      7.17126764e-03 2.44428334e-03 -2.52342075e-02 4.41997759e-02
      4.83546294e-02 2.51908358e-02 -2.07202751e-02 -7.11060166e-02
      1.43267950e-02 -1.04140425e-02 -7.56649254e-03 -4.88148909e-03
      4.22929823e-02 2.52372194e-02 2.71756835e-02 4.77000140e-02
      -5.87847382e-02 -1.43530801e-01 -5.06608114e-02 -5.71878329e-02
      -4.86167669e-02 -1.07145989e-02 4.94596809e-02 3.73508930e-02
      -1.73811230e-03 -2.03026477e-02 3.78828123e-02 8.66074953e-03
      2.75196554e-03 -1.44067146e-02 3.89764160e-02 1.52180400e-02
      4.12318744e-02 4.81264703e-02 -1.45426864e-04 -7.83890188e-02
      -1.31966770e-02 -3.36376429e-02 -9.37509350e-03 8.62287544e-03
      2.18846686e-02 2.91846581e-02 5.28868102e-02 7.57050235e-03
      -9.79899988e-02 -1.06382789e-02 -2.39712875e-02 -3.15221697e-02
      -2.77674366e-02 -4.40863483e-02 -2.71412283e-02 1.14516700e-02
      -1.53080393e-02 -1.08509704e-01 -2.15963386e-02 -1.85792409e-02
      -3.33998911e-02 -5.60167395e-02 5.00894971e-02 6.61232919e-02
      8.16429779e-02 3.42990607e-02 1.18300309e-02 2.72923466e-02
      2.06213314e-02 -5.83747402e-03 1.92261599e-02 6.98865624e-03
      1.70697067e-02 4.21879217e-02 1.42353466e-02 1.35247232e-02
      1.44720813e-02 -2.64405571e-02 -4.68921401e-02 -3.23149413e-02</_></support_vectors>
  <uncompressed_sv_total>79</uncompressed_sv_total>
  <uncompressed_support_vectors>
    <_>
      1.14011280e-01 6.05777763e-02 7.35763535e-02 2.05267757e-01
      2.58735687e-01 7.84040093e-02 1.56734465e-03 1.18218981e-01
      4.30629514e-02 1.04861647e-01 9.99788120e-02 1.13080703e-01
      7.58540630e-02 9.29855779e-02 8.52764025e-02 4.61979173e-02
      1.24596044e-01 7.35822394e-02 2.82902330e-01 5.53647690e-02
      2.82902330e-01 2.59164691e-01 2.71996766e-01 2.31101647e-01
      1.33688301e-01 1.40910253e-01 1.95910454e-01 2.82902330e-01
      1.57574192e-01 2.82902330e-01 2.14290619e-01 9.04663727e-02
      6.26435056e-02 4.00015824e-02 8.45594406e-02 2.82902330e-01
      1.13832019e-01 3.07765882e-02 4.06610295e-02 2.86415443e-02
      7.93525353e-02 9.99859944e-02 1.66685954e-01 1.28052309e-01
      1.28769651e-01 2.68597931e-01 1.29025236e-01 3.46043296e-02
      2.43653264e-02 7.57388324e-02 4.14984040e-02 1.83447152e-01
      2.67622858e-01 2.68597931e-01 2.68597931e-01 8.56189355e-02
      1.25802577e-01 1.35876030e-01 1.27107814e-01 1.40828103e-01
      7.85469636e-02 1.29721999e-01 2.68597931e-01 2.67991841e-01
      1.06788531e-01 4.84281071e-02 1.56819314e-01 2.30624944e-01
      2.68597931e-01 6.11529313e-02 2.68597931e-01 2.68597931e-01
      2.15413168e-01 1.61769584e-01 6.51071519e-02 2.35255528e-02
      5.55630960e-02 8.03476665e-03 4.30950969e-02 1.37538195e-01
      2.82047957e-01 2.68565476e-01 1.55795649e-01 1.23163372e-01
      1.75593980e-02 6.45484626e-02 1.41515676e-02 1.87676579e-01
      2.21674532e-01 2.82047957e-01 1.22287147e-01 1.48676798e-01
      4.09254842e-02 6.10227510e-02 1.64460897e-01 2.27585033e-01
      4.80548181e-02 1.77863434e-01 2.82047957e-01 1.07002348e-01
      9.74374563e-02 5.39994761e-02 2.59647351e-02 1.09520204e-01
      1.61881849e-01 2.82047957e-01 2.82047957e-01 2.82047957e-01
      2.90033549e-01 1.98965088e-01 1.07062750e-01 3.31208520e-02
      5.01141325e-02 1.63257346e-02 1.07342392e-01 8.15530568e-02
      2.17802525e-01 1.94768369e-01 3.09523255e-01 1.79042101e-01
      8.20629224e-02 1.04437523e-01 2.45921295e-02 3.19692232e-02
      7.23144487e-02 1.56364396e-01 2.40987986e-01 2.87531279e-02
      8.09832513e-02 4.19407859e-02 6.46478683e-02 7.43350387e-02
      3.07070464e-01 1.37571052e-01 3.09523255e-01 3.09523255e-01
      9.85894278e-02 1.95739344e-01 1.46118701e-01 4.64593731e-02
      2.11496092e-02 5.58581874e-02 1.57614574e-01 3.09523255e-01
      1.25548363e-01 1.09560549e-01 1.30068168e-01 2.77250782e-02
      7.41419122e-02 2.10054033e-02 2.29514856e-02 2.94205938e-02
      1.12711631e-01 2.45176867e-01 1.26043260e-01 1.22137070e-01
      1.09283946e-01 6.53747246e-02 1.98579971e-02 9.83503684e-02
      5.94867654e-02 1.28593594e-01 4.08974022e-01 1.25102162e-01
      1.10470846e-01 7.95023963e-02 2.04874501e-02 1.06783572e-03
      7.40239117e-03 1.19412273e-01 4.08974022e-01 4.08974022e-01
      1.30410135e-01 4.88385446e-02 5.36507554e-02 1.59909278e-02 0.
      8.93770307e-02 2.11398602e-01 4.08974022e-01 2.55155593e-01
      2.07279176e-01 6.66926950e-02 2.83795688e-02 1.07959621e-02
      3.96628194e-02 7.02622905e-02 5.51303364e-02 1.03140868e-01
      2.67160326e-01 1.31573543e-01 6.01743385e-02 4.22093533e-02
      2.91445386e-02 2.32585985e-02 4.85596918e-02 6.30893409e-02
      2.67160326e-01 2.67160326e-01 2.67160326e-01 2.67160326e-01
      2.67160326e-01 3.44299898e-02 3.66564952e-02 7.19511062e-02
      3.30782048e-02 9.05518010e-02 2.67160326e-01 1.97920203e-01
      1.18344173e-01 2.67160326e-01 2.49039888e-01 1.99820355e-01
      1.02137417e-01 9.12729204e-02 2.67160326e-01 1.88541591e-01
      2.53583677e-02 3.21655758e-02 9.00172964e-02 5.32200225e-02
      1.57648116e-01 1.23913623e-01 1.33872226e-01 2.94591069e-01
      1.39069688e-02 9.43555497e-03 6.18794467e-03 7.18639791e-02
      5.36310598e-02 2.61059374e-01 6.45332560e-02 1.11149818e-01
      1.32301465e-01 1.65283009e-01 4.89479229e-02 7.32422844e-02
      2.94591069e-01 2.74504751e-01 2.94591069e-01 2.12565497e-01
      1.73299536e-01 2.94591069e-01 1.64801199e-02 1.64371237e-01
      5.75030632e-02 2.94591069e-01 1.02289945e-01 2.94591069e-01
      1.12452231e-01 1.08972065e-01 9.10955667e-02 1.52651286e-02
      3.02323680e-02 3.29040922e-03 2.19942499e-02 3.52035873e-02
      1.27375171e-01 2.32988894e-02 8.22378621e-02 8.12131688e-02
      3.65213156e-02 1.92039236e-01 1.11945413e-01 1.91262364e-02
      1.75894145e-02 5.99976182e-02 8.65218937e-02 1.33452222e-01
      1.23948008e-01 8.68029594e-02 4.68655407e-01 2.25633502e-01
      4.10318449e-02 3.67780700e-02 9.11728889e-02 2.70631276e-02
      8.74577314e-02 5.11404797e-02 2.36579329e-01 5.01125276e-01
      5.01125276e-01 3.23074833e-02 1.03928300e-03 1.02475230e-02
      1.91714782e-02 5.71914017e-02 5.35757989e-02 9.78574082e-02
      1.73406214e-01 8.41318071e-02 6.28799247e-03 2.96905194e-03
      9.40048415e-03 2.58096363e-02 1.42841665e-02 4.28594016e-02
      3.65898311e-01 3.01002413e-01 6.49373084e-02 4.74502565e-03
      1.21102366e-03 1.54506229e-03 6.09731348e-03 2.02502105e-02
      6.15744516e-02 1.15451455e-01 3.65898311e-01 3.65898311e-01
      1.10987639e-02 0. 1.31686137e-03 3.88406217e-03 6.04843162e-03
      2.97195110e-02 3.65898311e-01 3.65898311e-01 3.56563509e-01
      4.37962310e-03 0. 2.20336166e-04 5.73586579e-03 3.36899348e-02
      1.88602522e-01 3.20726067e-01 1.34921566e-01 7.48348748e-03
      4.71627805e-03 5.80040389e-04 1.70043425e-03 5.84804278e-04
      4.12291512e-02 1.32105052e-01 3.20726067e-01 4.46606725e-02
      3.15139216e-04 2.44723773e-03 7.79658882e-03 2.44807824e-02
      9.07028615e-02 1.43486634e-01 3.20726067e-01 3.20726067e-01
      2.68605560e-01 4.22982946e-02 7.97712244e-03 2.44687544e-03
      1.19030401e-02 2.49032080e-02 1.17212914e-01 2.39204377e-01
      3.20726067e-01 4.73608151e-02 1.40403183e-02 5.30951843e-02
      1.76950574e-01 1.81579724e-01 1.90812051e-01 2.42924169e-01
      3.20726067e-01 3.74193937e-02 4.74801138e-02 1.49769798e-01
      2.87047654e-01 9.27557424e-02 9.05926749e-02 8.99413973e-02
      1.02593610e-02 1.52014764e-02 5.62362187e-02 2.71704979e-02
      4.94102426e-02 2.98687011e-01 1.67630717e-01 2.98687011e-01
      2.15649575e-01 1.56223163e-01 6.17604256e-02 1.17857745e-02
      9.42461658e-03 3.83659191e-02 1.27227694e-01 1.14258938e-01
      1.35660440e-01 2.98687011e-01 2.98687011e-01 2.98603997e-02
      6.19030520e-02 1.65774990e-02 7.34111061e-03 7.79978558e-02
      6.97013959e-02 2.53560424e-01 2.98687011e-01 2.98687011e-01
      2.98687011e-01 4.80284207e-02 2.11401042e-02 2.17574108e-02
      2.52532274e-01 8.77609998e-02 1.99871495e-01 1.21755466e-01
      1.90056890e-01 1.17267646e-01 2.20973611e-01 2.92222589e-01
      2.31246557e-02 9.21588317e-02 2.41300389e-02 6.06836230e-02
      3.33293229e-02 9.25395116e-02 1.46756977e-01 1.70350894e-01
      1.35027869e-02 2.58420873e-03 2.51023360e-02 3.45716476e-02
      1.21326394e-01 1.78895175e-01 3.23385566e-01 3.23385566e-01
      3.23385566e-01 3.23385566e-01 7.68870767e-03 6.46536844e-03
      1.24757038e-02 3.10227778e-02 2.73944382e-02 1.89933464e-01
      3.23385566e-01 9.83008519e-02 3.68230015e-01 9.75194648e-02
      3.35982838e-03 3.45969759e-03 3.60250054e-03 2.80414685e-03
      1.26449978e-02 2.09087450e-02 3.95336598e-02 3.68230015e-01
      3.68230015e-01 1.35043329e-02 0. 8.11574937e-05 1.64689656e-04
      3.32463509e-03 3.94273549e-03 3.68230015e-01 3.68230015e-01
      7.61839077e-02 0. 1.45862310e-03 3.43427947e-03 1.17897324e-03
      8.33372958e-03 9.80426297e-02 9.45732072e-02 3.68230015e-01
      3.68230015e-01 1.99448708e-02 2.08374753e-04 4.90611361e-04 0.
      1.17090447e-02 2.45180614e-02 3.54096629e-02 3.35262269e-01
      3.35262269e-01 1.65563971e-02 0. 0. 0. 1.23713980e-03
      1.15893614e-02 2.65113592e-01 3.35262269e-01 1.98073789e-01
      4.79897484e-03 6.21340284e-03 3.20413299e-02 1.18843121e-02
      7.10816979e-02 1.78259686e-01 3.09540369e-02 3.35262269e-01
      3.35262269e-01 2.60431077e-02 0. 1.65418501e-03 4.63996641e-03
      3.10130790e-03 1.84031799e-02 1.29981548e-01 3.35262269e-01
      2.53231317e-01 8.18733871e-03 9.07988399e-02 2.31314301e-01
      4.82968278e-02 8.34902450e-02 1.37307480e-01 2.80070037e-01
      2.11149991e-01 3.56849805e-02 2.26654019e-02 3.10558118e-02
      1.44560024e-01 7.81891271e-02 2.13223800e-01 2.58269459e-01
      1.04710586e-01 1.12903807e-02 5.54960258e-02 9.56707969e-02
      2.80070037e-01 2.46077746e-01 1.16933435e-01 1.67239532e-01
      1.23595215e-01 1.21147126e-01 1.69577330e-01 2.89376602e-02
      9.31818485e-02 2.80070037e-01 2.80070037e-01 9.31958705e-02
      2.09453523e-01 1.22576430e-01 8.33494067e-02 5.04087992e-02
      1.00498118e-01 1.65403917e-01 2.80070037e-01 2.80070037e-01
      6.32389486e-02 1.47791311e-01 7.70193785e-02 8.55266582e-03
      3.59211825e-02 5.05147502e-02 6.18516207e-02 3.77248079e-02
      2.99185049e-02 3.58933300e-01 3.63471150e-01 9.22996849e-02
      6.94044679e-02 2.01155301e-02 4.31109266e-03 5.85964276e-03
      9.67468508e-03 3.46253887e-02 2.85069942e-01 3.63471150e-01
      3.63471150e-01 1.81714501e-02 4.59504910e-02 7.23929256e-02
      1.03718057e-01 3.69481482e-02 3.26916389e-03 3.66768725e-02
      2.26047173e-01 1.17409110e-01 1.04814686e-01 3.06536760e-02
      1.76604968e-02 9.62327141e-03 1.93619188e-02 3.92207969e-03
      4.24876697e-02 3.63471150e-01 3.63471150e-01 2.09057838e-01
      2.67106923e-03 0. 0. 7.23596802e-03 7.07607856e-03 3.14712487e-02
      3.03201675e-01 3.54497939e-01 3.54497939e-01 1.66571364e-01
      4.97420726e-04 0. 5.99037623e-03 6.28427416e-03 2.11380888e-03
      5.68798631e-02 3.54497939e-01 2.36004964e-01 6.87377527e-03
      3.40202032e-03 2.51213874e-04 9.54404008e-03 9.26200883e-04
      3.74630233e-03 1.07870378e-01 3.54497939e-01 3.54497939e-01
      8.30927491e-02 7.45048234e-03 5.85085305e-04 3.80793028e-03
      3.13565671e-03 3.53743508e-03 1.22939162e-02 3.54497939e-01
      3.48317087e-01 3.48317087e-01 3.76099423e-02 0. 1.94290862e-03
      4.57451306e-03 0. 3.51243420e-03 1.57086626e-01 2.64193058e-01
      3.48317087e-01 2.70004332e-01 3.59543529e-03 6.81404723e-04
      1.60434016e-03 5.32612670e-04 1.15431342e-02 2.90440787e-02
      3.48317087e-01 3.13822836e-01 1.96797997e-02 2.53635662e-04
      2.77558400e-04 4.33517015e-03 9.16014332e-03 1.97647512e-03
      2.00096160e-01 2.77470708e-01 3.48317087e-01 4.19572555e-02
      1.74896931e-03 3.60940956e-03 9.87885799e-03 2.26699337e-02
      2.21532136e-02 3.44801024e-02 1.28227994e-01 3.59383106e-01
      3.59383106e-01 1.67518202e-02 1.44114590e-03 9.60182119e-03
      1.80829037e-02 1.77524872e-02 4.33355421e-02 5.59463911e-02
      3.59383106e-01 2.90643692e-01 1.76661722e-02 2.00829908e-01
      3.59383106e-01 1.67539760e-01 1.33096710e-01 1.16639465e-01
      1.23587027e-01 3.59383106e-01 7.02271387e-02 1.65218413e-02
      1.47610335e-02 2.03409083e-02 4.18493226e-02 5.01596481e-02
      4.87145558e-02 5.44947982e-02 1.18838653e-01 6.75292388e-02
      3.27804573e-02 6.25513643e-02 1.92775637e-01 9.52298641e-02
      2.01244414e-01 5.03232218e-02 2.44093221e-02 2.26155873e-02
      1.45320008e-02 3.98650095e-02 2.77495086e-01 2.77495086e-01
      9.60958973e-02 2.47078568e-01 1.40909985e-01 2.70133018e-01
      7.30711743e-02 1.08558565e-01 6.38932437e-02 2.77495086e-01
      1.61353841e-01 4.30785418e-02 2.77495086e-01 2.77495086e-01
      3.75812948e-02 1.50053250e-02 6.40964881e-03 6.12567831e-03
      4.39516678e-02 1.30795002e-01 6.08386658e-02 2.77495086e-01
      2.33723193e-01 2.77495086e-01 3.95827293e-02 5.07346541e-02
      2.72336346e-03 4.39800806e-02 5.27207442e-02 3.36959884e-02
      2.77495086e-01 2.77495086e-01 5.66076376e-02 6.50059059e-02
      2.03079492e-01 1.67439044e-01 2.27113694e-01 5.61305918e-02
      1.11964405e-01 1.38242558e-01 1.95694700e-01 2.51192451e-01
      7.85477161e-02 1.08343944e-01 2.65350342e-02 1.57064423e-01
      2.30948627e-02 1.16033621e-01 1.45586073e-01 2.83436358e-01
      4.23667356e-02 1.11295329e-02 9.06351134e-02 1.84225067e-01
      2.83436358e-01 1.89071879e-01 2.20180154e-01 1.37652412e-01
      1.36679530e-01 1.49602398e-01 2.23327614e-02 1.36321023e-01
      2.99592689e-02 2.40823865e-01 1.93466485e-01 2.83436358e-01
      2.49276161e-01 2.17604309e-01 3.50058049e-01 7.64632374e-02
      4.22713719e-02 3.72182415e-03 1.35984138e-01 1.20459795e-02
      4.00781855e-02 4.70837504e-02 3.50058049e-01 3.50058049e-01
      2.40403384e-01 1.54023677e-01 2.15552039e-02 5.74178956e-02
      3.29946801e-02 4.20841053e-02 1.32040875e-02 3.50058049e-01
      1.57608166e-01 4.59123962e-02 3.10108662e-02 2.64319312e-03
      2.17673063e-01 1.97612867e-01 1.74377739e-01 1.17554292e-01
      7.16442093e-02 1.94816932e-01 2.23237291e-01 9.81292874e-02
      5.93659729e-02 1.97798401e-01 2.85361826e-01 3.86161283e-02
      3.45108882e-02 5.58978040e-03 2.81219453e-01 2.62749404e-01
      1.40734822e-01 1.35946544e-02 4.91176452e-03 4.96227182e-02
      1.28049940e-01 2.84795575e-02 2.81219453e-01 2.81219453e-01
      1.81731105e-01 6.69132620e-02 1.56211574e-02 1.52539201e-02
      6.51066154e-02 2.49971628e-01 2.65120417e-01 1.81211218e-01
      2.02465981e-01 1.87666193e-01 5.84281459e-02 5.85919879e-02
      1.30477458e-01 1.57505512e-01 8.59897286e-02 5.85562736e-02
      5.00283092e-02 2.74396360e-01 1.40545547e-01 1.30546493e-02
      4.19886000e-02 1.18401356e-01 5.87628558e-02 1.80404127e-01
      2.81219453e-01 2.81219453e-01 2.16019914e-01 8.79143998e-02
      3.63362245e-02 5.19670583e-02 3.41669582e-02 3.18781659e-02
      1.14353389e-01 2.52830476e-01 1.77051559e-01 2.61346310e-01
      2.46233910e-01 9.60981548e-02 7.43136331e-02 5.85315041e-02
      6.69620838e-03 5.43579943e-02 2.61346310e-01 2.48203382e-01
      2.50535041e-01 5.95972389e-02 3.70655879e-02 1.89791396e-01
      1.08731203e-01 7.21372245e-03 5.69308102e-02 2.61346310e-01
      2.61346310e-01 2.46447891e-01 1.31501868e-01 6.55843988e-02
      2.61346310e-01 1.31665885e-01 2.38881726e-02 5.96920028e-02
      2.29308292e-01 2.61346310e-01 1.67063400e-01 9.46215689e-02
      2.08801366e-02 1.33178728e-02 2.06141230e-02 3.19762118e-02
      5.89949526e-02 3.32047135e-01 3.32047135e-01 3.32047135e-01
      9.03018378e-03 0. 0. 1.60318166e-02 9.69114304e-02 9.30764675e-02
      3.32047135e-01 3.32047135e-01 1.08217791e-01 7.42226243e-02
      1.13251023e-02 7.06658289e-02 8.25630203e-02 1.60473421e-01
      1.47745073e-01 1.46154687e-01 1.99052393e-01 1.40728325e-01
      7.26036206e-02 0. 3.94259989e-02 7.63009936e-02 3.32047135e-01
      1.65971011e-01 1.52084440e-01 2.31305465e-01</_>
    <_>
      8.23190063e-02 1.33789927e-01 2.02735011e-02 1.72656626e-01
      1.90940782e-01 1.96411442e-02 2.85875052e-02 8.34099799e-02
      7.15221390e-02 1.82152018e-02 1.72102734e-01 2.93456372e-02
      9.15559009e-02 1.74106762e-01 1.10869490e-01 9.05486569e-02
      2.35162720e-01 8.46911818e-02 3.05644184e-01 1.06882654e-01
      4.67059538e-02 2.17991129e-01 1.99024454e-01 5.97637296e-02
      5.17673306e-02 6.56581149e-02 3.05644184e-01 3.05644184e-01
      1.86658427e-01 4.13885862e-02 1.33517832e-01 2.90557384e-01
      3.01328540e-01 1.14610888e-01 1.10133633e-01 3.05644184e-01
      3.93798109e-03 2.86264747e-01 8.62268656e-02 4.05628905e-02
      9.05435756e-02 8.26616362e-02 6.33702427e-02 1.77840829e-01
      1.12684093e-01 3.33584398e-02 2.86264747e-01 1.03512473e-01
      5.77902272e-02 7.78692514e-02 2.47158885e-01 1.02287486e-01
      9.06953812e-02 1.54239967e-01 1.07203469e-01 2.86264747e-01
      7.64033198e-02 3.17231901e-02 1.87371612e-01 2.86264747e-01
      1.71303049e-01 1.29920900e-01 1.99445426e-01 5.69660179e-02
      2.15811491e-01 2.12744221e-01 4.98091206e-02 1.36850506e-01
      2.86264747e-01 1.93231404e-01 2.16027081e-01 2.24488497e-01
      4.53723073e-02 7.91572407e-02 3.70635763e-02 4.87584844e-02
      3.67411040e-02 1.52596191e-01 2.80541386e-02 3.54970545e-02
      1.86286300e-01 4.27464843e-02 7.15050772e-02 4.24543060e-02
      1.66117862e-01 1.79002255e-01 1.29551500e-01 1.12475557e-02
      7.00796098e-02 1.26377508e-01 3.00934389e-02 1.17951199e-01
      1.00855850e-01 7.30563626e-02 5.33157140e-02 2.50823289e-01
      5.91681488e-02 8.49990249e-02 2.63717473e-01 4.06406790e-01
      4.06406790e-01 4.06406790e-01 1.30207956e-01 1.31308988e-01
      2.60636270e-01 3.75929512e-02 5.26255853e-02 1.95302159e-01
      2.62128394e-02 4.75893021e-02 7.00651435e-03 1.51814381e-02
      3.09163742e-02 1.67624410e-02 6.16132654e-03 1.49957333e-02
      1.82891209e-02 2.00140029e-01 1.79355130e-01 5.90349361e-02
      6.65787933e-03 1.29202576e-02 1.30055230e-02 9.63809155e-03
      9.62318387e-03 1.41835883e-01 1.77187800e-01 3.76099259e-01
      3.76099259e-01 5.19339601e-03 3.28683816e-02 2.14788448e-02
      2.92916177e-03 7.75498850e-03 6.55576661e-02 3.76099259e-01
      3.76099259e-01 3.76099259e-01 5.97982900e-03 3.13855298e-02
      1.20642819e-02 8.69484916e-02 4.83074039e-03 3.76099259e-01
      2.19343379e-01 2.23130882e-01 8.03301409e-02 6.82327943e-03
      4.83839447e-03 3.02204839e-03 2.62033148e-03 1.88029592e-03
      1.11835696e-01 2.89965659e-01 2.32194826e-01 7.76355341e-02
      9.61524900e-03 1.89831182e-02 1.18695423e-02 5.26826903e-02
      9.69055146e-02 2.72893250e-01 2.89965659e-01 2.89965659e-01
      1.93492457e-01 1.17647788e-02 9.79257561e-03 2.12458870e-03
      9.14596021e-02 2.05379780e-02 2.09866270e-01 2.89965659e-01
      2.89965659e-01 1.11465387e-01 6.96762884e-03 2.75916666e-01
      1.16785340e-01 1.58331037e-01 2.44836494e-01 1.86593071e-01
      2.49708012e-01 2.49805570e-01 1.31856129e-01 8.58350098e-03
      4.41541187e-02 3.95180061e-02 4.20443043e-02 7.45990453e-03
      1.72633067e-01 2.10329130e-01 7.54389912e-02 6.91586733e-02
      2.01063175e-02 1.81622520e-01 1.08122632e-01 7.00308383e-02
      7.29077915e-03 1.63952827e-01 2.45837376e-01 2.69435108e-01
      2.69435108e-01 2.69435108e-01 2.55678505e-01 9.52258483e-02
      6.14748746e-02 3.52538051e-03 1.22350015e-01 1.80062234e-01
      1.37406111e-01 2.69435108e-01 2.69435108e-01 2.69435108e-01
      1.61989540e-01 1.05203561e-01 9.45489388e-03 1.02045730e-01
      1.08903639e-01 2.70207822e-02 3.76468822e-02 2.05891766e-02
      2.44636714e-01 2.06304789e-01 6.23586513e-02 4.01908681e-02
      1.07196875e-01 7.61282146e-02 6.63549155e-02 6.11156113e-02
      8.46079644e-03 3.16586420e-02 8.49535018e-02 4.48970757e-02
      6.47286698e-02 3.77624221e-02 3.15406471e-01 9.10714567e-02
      2.72151768e-01 2.17909470e-01 3.63729805e-01 2.13513434e-01
      8.91014338e-02 5.39223440e-02 7.46722445e-02 3.63729805e-01
      3.63729805e-01 3.63729805e-01 4.08295309e-03 1.99309774e-02
      4.81444634e-02 6.77187964e-02 5.40122949e-02 4.36491445e-02
      7.20045948e-03 8.41367394e-02 1.23001367e-01 6.34811539e-03
      4.27222857e-03 1.02886865e-02 5.53814694e-03 5.52893430e-03
      7.87100289e-03 5.23697361e-02 4.01677907e-01 4.01677907e-01
      5.50592039e-03 2.76898802e-03 1.43683301e-02 4.38813819e-03
      2.44370429e-03 8.68944172e-03 3.64540555e-02 4.01677907e-01
      4.01677907e-01 2.80125090e-03 3.81227676e-03 2.58950656e-03
      5.40363183e-03 2.74705002e-03 7.78051279e-03 1.47712398e-02
      4.01677907e-01 4.01677907e-01 1.68075075e-03 6.41190563e-04
      1.91269945e-02 7.08831009e-03 9.83449444e-03 9.56481230e-03
      6.66430518e-02 3.12943190e-01 3.12943190e-01 2.51316029e-04
      1.90254003e-02 8.24019779e-03 6.88960950e-04 2.24046735e-03
      2.70170178e-02 1.84409142e-01 3.12943190e-01 3.12943190e-01
      1.15286782e-02 6.57462478e-02 1.23172440e-02 3.93762328e-02
      1.72707401e-02 1.98632687e-01 2.99575198e-02 3.12943190e-01
      3.12943190e-01 1.40985812e-03 1.15757873e-02 1.50579531e-02
      1.95603399e-03 5.71276015e-03 1.47253592e-02 8.19839686e-02
      3.12943190e-01 3.12943190e-01 3.15380394e-02 3.12943190e-01
      4.14054245e-02 5.67479758e-03 2.87845675e-02 1.34696588e-01
      2.54307687e-01 3.18853706e-01 1.12068027e-01 5.67603149e-02
      1.38619319e-01 2.73430701e-02 1.29628345e-01 4.57796752e-02
      2.11214140e-01 1.40978128e-01 9.39441323e-02 1.66598596e-02
      3.62517647e-02 3.18853706e-01 1.99108884e-01 1.60947502e-01
      9.35241207e-02 4.93980385e-02 6.44784495e-02 3.18853706e-01
      1.28718331e-01 1.17146552e-01 3.18853706e-01 1.08647443e-01
      6.84020296e-02 5.05585447e-02 2.26244867e-01 5.12845963e-02
      1.44481482e-02 1.18115563e-02 1.32208467e-01 3.18853706e-01
      2.05375463e-01 2.03528374e-01 1.70289278e-02 9.21719670e-02
      5.63355274e-02 9.37773213e-02 1.57987610e-01 2.85011619e-01
      2.85011619e-01 1.25393271e-01 5.67980856e-02 5.12462035e-02
      5.28235920e-02 1.77750781e-01 5.94311580e-02 1.69078171e-01
      2.85011619e-01 2.85011619e-01 8.35008025e-02 9.56448466e-02
      9.76876542e-02 2.11626098e-01 1.51206642e-01 0. 1.38766747e-02
      9.25004408e-02 1.79970533e-01 1.78935692e-01 1.45106480e-01
      1.14554420e-01 2.78815031e-01 2.85011619e-01 1.23681679e-01
      4.62166816e-02 5.10955676e-02 1.42661840e-01 1.02458999e-01
      1.67477831e-01 1.65606320e-01 2.85011619e-01 1.95145354e-01
      1.35468051e-01 1.27983108e-01 2.90378239e-02 2.79683135e-02
      6.04923489e-03 1.33315967e-02 1.58886835e-02 9.86615717e-02
      2.71896154e-01 3.12243015e-01 3.12243015e-01 6.40489860e-03
      7.46780832e-04 4.93724784e-03 4.20219963e-03 2.72924197e-03
      2.36363206e-02 3.12243015e-01 3.12243015e-01 1.94439739e-01
      3.22623784e-03 8.83365422e-03 6.97940635e-03 2.52023395e-02
      2.04901975e-02 3.12243015e-01 3.12243015e-01 3.12243015e-01
      3.12243015e-01 1.06748315e-02 1.93717435e-03 2.34074630e-02
      2.59193650e-04 0. 1.34288490e-01 8.78975689e-02 3.36903095e-01
      3.36903095e-01 1.59649905e-02 4.54502791e-04 1.47214287e-03
      1.51764764e-03 1.13949506e-03 1.26985861e-02 1.99885983e-02
      3.36903095e-01 3.36903095e-01 9.57899354e-03 5.95558144e-04
      5.97783923e-03 4.71437117e-03 6.19318895e-03 8.80425982e-03
      2.70280719e-01 3.36903095e-01 3.36903095e-01 2.66083144e-02
      6.53485768e-04 7.71741662e-03 4.17687435e-04 2.30590522e-04
      2.46325284e-02 6.98849410e-02 3.36903095e-01 3.36903095e-01
      1.70520395e-02 3.80775915e-03 6.59097126e-03 4.33382718e-03
      6.08803472e-03 8.69659055e-03 2.99326740e-02 3.44149023e-01
      3.44149023e-01 5.92871197e-03 5.09153493e-03 1.24933487e-02
      3.57761211e-03 5.31191612e-03 1.34134870e-02 5.33562377e-02
      3.44149023e-01 3.44149023e-01 4.96035106e-02 3.44149023e-01
      1.13363788e-01 5.23222785e-04 1.94071308e-02 5.26386164e-02
      2.90781893e-02 2.77932733e-01 3.44149023e-01 6.48382632e-03
      1.29160397e-02 2.44684406e-02 9.42875631e-03 1.34546142e-02
      4.15322892e-02 6.01980798e-02 4.78670821e-02 4.86604981e-02
      1.91156287e-02 3.44149023e-01 1.83642924e-01 1.34648783e-02
      8.16048309e-02 1.21419951e-01 4.20888923e-02 6.58473298e-02
      3.78875174e-02 4.65001687e-02 3.10487777e-01 1.66379526e-01
      7.56914727e-03 3.16901505e-02 9.88047570e-02 1.87725663e-01
      1.18888423e-01 7.41186291e-02 7.02056736e-02 3.10487777e-01
      9.86126065e-02 4.07333262e-02 2.13689264e-02 1.88969657e-01
      1.72162980e-01 1.30123302e-01 7.76182767e-03 1.34440577e-02
      3.10487777e-01 2.30725750e-01 5.25018573e-03 1.61302090e-01
      2.45147273e-01 3.10487777e-01 3.10487777e-01 9.83899459e-02
      1.12056630e-02 2.03410819e-01 1.14557773e-01 5.64427988e-04
      1.11473113e-01 3.10487777e-01 3.34245116e-01 5.82892208e-05
      3.96296522e-03 1.00592282e-02 9.23070218e-03 3.42177972e-02
      1.45471528e-01 8.18864331e-02 3.34245116e-01 3.34245116e-01
      2.01527953e-01 4.12129983e-02 2.95035215e-03 3.14352219e-03
      2.13973690e-02 5.28079532e-02 4.45306823e-02 3.34245116e-01
      3.34245116e-01 1.95489172e-03 3.32100457e-03 2.29171896e-03
      1.43286064e-02 7.09318975e-03 6.67406246e-02 4.23584916e-02
      3.34245116e-01 3.34245116e-01 1.35857388e-01 2.97961328e-02
      4.78757732e-03 2.39179377e-03 8.65860842e-03 5.63315302e-03
      9.84241627e-03 3.34245116e-01 2.96988457e-01 2.96988457e-01
      1.46530136e-01 9.77952848e-04 1.46127291e-04 7.05257757e-03
      1.77248307e-02 6.74187345e-03 2.96988457e-01 2.96988457e-01
      2.96988457e-01 2.96988457e-01 5.25807403e-03 3.52910580e-03
      1.49995293e-02 2.06161896e-03 5.93209872e-04 1.94285631e-01
      2.96988457e-01 2.82459974e-01 8.54972526e-02 7.25169061e-03
      3.25339264e-04 4.60313866e-03 4.89507616e-03 1.52188330e-03
      2.83049971e-01 2.47958809e-01 2.62458444e-01 1.10679574e-01
      1.49984090e-02 6.58746995e-03 1.12291519e-02 6.25197683e-03
      4.48200991e-03 9.66268852e-02 3.87461007e-01 3.87461007e-01
      3.87461007e-01 2.28410438e-02 7.96794519e-03 2.85037868e-02
      1.46806203e-02 5.12074959e-03 1.05429143e-01 2.24347934e-01
      3.75011772e-01 3.87461007e-01 3.58295515e-02 7.05066044e-03
      2.02229209e-02 3.54721546e-02 3.03614587e-02 2.47025453e-02
      2.66365141e-01 2.01507106e-01 1.28442988e-01 1.76952798e-02
      1.70962550e-02 3.46826613e-02 3.60519588e-02 3.30499075e-02
      9.50276330e-02 1.21457539e-01 5.29046915e-02 5.18616810e-02
      3.04971896e-02 2.34978413e-03 1.62196290e-02 5.08155525e-02
      7.85652548e-02 1.26072437e-01 7.56179914e-02 1.61510333e-01
      2.85403460e-01 7.22484738e-02 3.56676392e-02 1.17766775e-01
      1.09874912e-01 9.57600027e-02 1.76614061e-01 2.24742636e-01
      4.82912213e-02 4.47884239e-02 6.07624836e-02 2.85403460e-01
      2.85403460e-01 1.29331648e-01 2.06281334e-01 2.85403460e-01
      1.06060371e-01 4.90646623e-02 5.71814068e-02 8.88345987e-02
      2.38445513e-02 5.72340749e-02 1.73713863e-01 2.70201415e-01
      1.70676321e-01 1.53964415e-01 9.37517732e-02 3.30493636e-02
      1.23561069e-01 9.82649922e-02 2.54023969e-01 2.85403460e-01
      2.52626657e-01 1.40066937e-01 3.50875050e-01 2.00874612e-01
      6.85424311e-03 1.33195296e-02 2.83411145e-01 1.99516237e-01
      2.37607900e-02 2.29296491e-01 3.50875050e-01 3.50875050e-01
      3.50875050e-01 4.62618172e-02 1.81757519e-03 1.37088344e-01
      7.74932802e-02 8.17630533e-03 1.77347034e-01 3.50875050e-01
      1.09653302e-01 3.01471576e-02 1.09667890e-02 3.02810036e-02
      6.00359999e-02 5.51609099e-02 5.77371679e-02 5.96985556e-02
      1.12555347e-01 1.54981241e-01 6.63620979e-02 4.70005255e-03
      1.11966906e-02 1.31829202e-01 2.49464177e-02 4.50257249e-02
      6.48432001e-02 1.25041097e-01 3.07896644e-01 6.47393316e-02
      8.32491443e-02 6.71040267e-02 5.10528944e-02 4.44265343e-02 0.
      4.88702841e-02 3.07896644e-01 3.07896644e-01 1.34185940e-01
      1.63441211e-01 1.14263624e-01 1.06706936e-02 5.90922534e-02
      2.75349594e-03 3.02423444e-02 3.07896644e-01 2.70233035e-01
      2.43408129e-01 2.30444461e-01 1.15328468e-01 6.14359565e-02
      6.34664809e-03 0. 6.98146923e-03 3.52630839e-02 3.07896644e-01
      3.07896644e-01 2.92811483e-01 1.15646482e-01 1.56166792e-01
      8.44175089e-03 0. 4.18888172e-03 1.25897348e-01 3.02541852e-01
      1.58705533e-01 1.61228210e-01 3.44122760e-02 1.80113548e-03
      2.12708600e-02 5.78929763e-03 2.64314166e-03 2.09094897e-01
      3.55780810e-01 2.25714460e-01 1.54575571e-01 3.17927226e-02
      1.64742451e-02 4.43429314e-02 1.03604803e-02 1.34163285e-02
      1.26378849e-01 3.55780810e-01 3.55780810e-01 1.47298336e-01
      1.78777687e-02 1.09452806e-01 3.03869438e-03 0. 4.25076112e-04
      4.79560234e-02 3.55780810e-01 3.55780810e-01 1.27175167e-01
      2.99329939e-03 1.41948089e-01 5.94963133e-03 0. 2.97553255e-03
      9.16587263e-02 3.00086379e-01 1.60349473e-01 3.94965783e-02
      6.93890359e-03 1.20299943e-02 1.91266555e-02 1.58095676e-02
      4.68481481e-02 1.04495548e-01 2.16269255e-01 1.00917399e-01
      4.42870855e-02 5.22489334e-03 1.56205473e-03 3.71269160e-03
      2.81769466e-02 2.23939449e-01 3.29627126e-01 3.64561647e-01
      2.37454668e-01 1.29344836e-02 0. 5.73019721e-02 1.84840546e-03 0.
      4.02900390e-02 2.26083085e-01 3.64561647e-01 8.45577717e-02
      1.84884686e-02 0. 5.48223220e-02 0. 2.03249836e-03 3.53213936e-01
      3.64561647e-01 6.56100884e-02 2.50425879e-02 3.00676543e-02
      1.11954398e-02 4.27316502e-03 9.63087659e-03 1.02029495e-01
      3.00352484e-01 2.23411128e-01 1.17836162e-01 1.90125871e-02
      7.79084628e-03 2.23287605e-02 1.11994073e-02 2.51992159e-02
      2.24166930e-01 3.07308853e-01 1.98550582e-01 2.77815282e-01
      2.24495493e-02 1.76075213e-02 0. 9.99178067e-02 4.74940287e-03
      8.25026631e-02 3.07308853e-01 3.07308853e-01 2.26734549e-01
      6.44030236e-03 3.02944332e-03 1.42435832e-02 1.47075206e-01
      1.86948329e-02 3.07308853e-01 3.07308853e-01 3.07308853e-01
      1.83072239e-01 2.73961630e-02 1.57651473e-02 4.96866256e-02
      2.72158664e-02 2.04715058e-02 2.32910275e-01 2.67420232e-01
      2.15436488e-01 1.85001984e-01 5.64397052e-02 9.45908949e-03
      5.73557690e-02 1.04704194e-01 4.72601913e-02 2.03532934e-01
      1.51633903e-01 1.54497579e-01 1.93329141e-01 3.22752423e-03
      2.25216383e-03 8.07833374e-02 1.98888168e-01 9.03747678e-02
      2.98493892e-01 2.98493892e-01 2.25522161e-01 9.46496576e-02
      1.84587296e-02 1.35129853e-03 6.80786669e-02 1.92176625e-01
      2.68468082e-01 2.98493892e-01 2.54784882e-01 2.16263264e-01</_>
    <_>
      5.94977736e-02 9.31636095e-02 7.79759437e-02 7.73224905e-02
      2.80728322e-02 5.22793382e-02 6.10006973e-02 5.23006022e-02
      9.10196826e-02 4.35523801e-02 5.94555549e-02 1.41946867e-01
      1.37516126e-01 6.05495274e-02 1.18765384e-01 1.70067221e-01
      1.81531623e-01 1.09283537e-01 3.96969467e-01 1.38469905e-01
      8.67884085e-02 1.28680959e-01 9.44527332e-03 5.04390150e-02
      1.21782742e-01 6.35809749e-02 3.96969467e-01 3.96969467e-01
      1.09980017e-01 1.42723948e-01 2.25570112e-01 1.02153160e-01
      9.23799723e-02 1.32046789e-01 5.04678898e-02 3.96969467e-01
      2.53099725e-02 2.85048801e-02 1.28975943e-01 4.92068082e-02
      9.67267826e-02 1.53637096e-01 1.60575926e-01 2.81819791e-01
      1.40094146e-01 1.74682602e-01 6.83030039e-02 1.84852421e-01
      8.24010652e-03 6.52456582e-02 9.73381624e-02 1.66779190e-01
      2.81819791e-01 2.81819791e-01 2.12260038e-01 8.70549455e-02
      1.87655300e-01 1.13696538e-01 1.28932178e-01 1.57807663e-01
      8.37620124e-02 9.19528157e-02 2.50071913e-01 2.81819791e-01
      1.36059389e-01 2.81819791e-01 9.00904685e-02 6.37176037e-02
      1.73038691e-01 9.45181847e-02 1.44676536e-01 2.81819791e-01
      2.15535477e-01 7.10379481e-02 6.86326250e-02 8.82038381e-03
      3.34545597e-02 4.41118665e-02 8.29852223e-02 1.22166201e-01
      1.99443966e-01 2.55966902e-01 1.22291982e-01 1.07249655e-01
      9.50544626e-02 1.34308234e-01 8.35144967e-02 5.39699569e-02
      8.75342786e-02 9.20699090e-02 2.39424810e-01 6.55813590e-02
      2.35633180e-01 7.24836215e-02 5.74845225e-02 9.70957056e-02
      8.27956572e-02 1.25944003e-01 1.62011892e-01 3.58961046e-01
      3.58961046e-01 3.58961046e-01 1.40767902e-01 1.45675197e-01
      2.76968330e-01 1.05706722e-01 1.63608178e-01 6.35935068e-02
      4.51502576e-02 1.77196022e-02 1.38398567e-02 2.63858866e-02
      3.54390629e-02 1.71856172e-02 4.80352389e-03 4.77117300e-03
      1.11041367e-02 1.50242656e-01 7.86631182e-02 5.70151806e-02
      2.02689692e-02 4.12298068e-02 1.03974165e-02 3.18803382e-03
      1.22174788e-02 9.89663973e-02 2.94866234e-01 3.87388676e-01
      3.87388676e-01 1.95101295e-02 1.76741928e-02 3.17010842e-02
      6.64839614e-03 1.45805320e-02 4.82390001e-02 3.87388676e-01
      3.87388676e-01 3.87388676e-01 1.21613834e-02 9.90144070e-03
      9.70279519e-03 1.93032641e-02 2.42262948e-02 3.22657347e-01
      1.67234316e-01 5.90954088e-02 4.62035201e-02 3.02613131e-03
      1.29761435e-02 1.31382502e-03 2.02395907e-03 3.23096034e-03
      1.46081463e-01 3.25254798e-01 2.68460400e-02 2.69862358e-02
      3.51555622e-03 1.06586125e-02 1.37290580e-03 2.79642586e-02
      3.26424763e-02 2.49650225e-01 3.25254798e-01 3.25254798e-01
      3.13074350e-01 1.17198955e-02 2.25110911e-03 5.29685849e-03
      3.31149288e-02 4.79692174e-03 3.25254798e-01 3.25254798e-01
      1.57140806e-01 1.03752986e-01 1.46643415e-01 1.36949509e-01
      5.34303207e-03 1.68056607e-01 1.94509551e-01 3.25254798e-01
      2.50170708e-01 2.39236340e-01 1.10665776e-01 7.76937371e-03
      3.98970693e-02 5.54092564e-02 1.71214845e-02 3.75222624e-03
      1.97043940e-01 1.76412836e-01 7.39433542e-02 5.66294678e-02
      3.09962798e-02 1.60161123e-01 1.18340753e-01 2.18099188e-02
      8.65767302e-04 2.00269744e-01 2.55261153e-01 2.55261153e-01
      2.55261153e-01 2.55261153e-01 2.55261153e-01 1.53155506e-01
      1.93086602e-02 4.34207614e-04 1.90287247e-01 1.40629590e-01
      1.87064797e-01 2.55261153e-01 2.55261153e-01 2.55261153e-01
      2.17716157e-01 3.22652869e-02 0. 1.26543730e-01 8.67063999e-02
      4.59593572e-02 7.06124231e-02 1.07284568e-01 2.83177614e-01
      1.45802990e-01 1.18497387e-02 1.47254008e-03 1.22551635e-01
      5.67908622e-02 8.00025091e-02 1.52362540e-01 1.20682418e-01
      5.46816029e-02 3.43714319e-02 1.14220250e-02 1.14881722e-02
      3.98537703e-02 1.42749906e-01 1.50512218e-01 3.14537376e-01
      3.56692940e-01 3.56692940e-01 1.82822317e-01 2.00553108e-02
      1.55904068e-04 1.27452567e-01 2.16223285e-01 3.56692940e-01
      3.56692940e-01 1.87462971e-01 7.04314336e-02 1.56476442e-02
      2.78351828e-02 1.02242986e-02 1.06486194e-01 1.44889532e-02
      6.37264103e-02 9.32959765e-02 1.90670788e-02 1.19931828e-02
      3.98490811e-03 4.32630349e-03 3.06170713e-03 5.18258801e-03
      8.17881674e-02 4.02230173e-01 4.02230173e-01 1.05978968e-02
      1.05638942e-02 9.67213977e-03 4.96325688e-03 7.74702802e-03
      6.98462711e-04 2.92413644e-02 4.02230173e-01 4.02230173e-01
      1.91833433e-02 1.13975294e-02 3.76162701e-04 7.49342656e-03
      2.55009509e-03 1.35904374e-02 4.82314900e-02 4.02230173e-01
      4.02230173e-01 5.67441992e-03 1.61223188e-02 2.25697615e-04
      3.46539682e-03 1.18565010e-02 1.51747353e-02 1.12094074e-01
      3.09517473e-01 3.09517473e-01 8.22969771e-04 1.19136018e-03
      3.02627799e-03 3.22153303e-03 9.49288439e-03 6.37537241e-03
      3.09517473e-01 3.09517473e-01 3.09517473e-01 0. 1.53495725e-02
      2.77383365e-02 1.14306156e-02 6.26568682e-03 8.51580799e-02
      5.54393828e-02 3.09517473e-01 3.09517473e-01 3.25921923e-04
      3.11491522e-03 2.68506497e-04 4.96388925e-03 1.58636775e-02
      1.91250874e-03 2.11324051e-01 3.09517473e-01 3.09517473e-01
      4.92997747e-03 2.09869951e-01 1.39102265e-01 2.58643050e-02
      8.36200546e-03 3.70671526e-02 2.94380009e-01 2.94380009e-01
      1.66212022e-01 9.24342033e-03 7.12369904e-02 8.75712633e-02
      3.69964018e-02 5.64102957e-04 1.55885234e-01 2.84374803e-01
      8.53824243e-02 3.99841666e-02 2.02729851e-01 2.94380009e-01
      5.91987930e-02 7.29632825e-02 6.59205467e-02 1.25654683e-01
      2.54280567e-01 2.29408383e-01 1.91175103e-01 4.43815999e-02
      2.94380009e-01 2.94380009e-01 4.81188074e-02 1.77551992e-04
      6.09177053e-02 9.24741253e-02 3.63560468e-02 1.01243285e-02
      1.37869522e-01 2.94380009e-01 2.41441593e-01 2.67102495e-02
      7.03464204e-04 3.65207344e-02 5.25273047e-02 8.24497789e-02
      1.13366410e-01 2.46483564e-01 2.46483564e-01 2.46483564e-01
      7.93395638e-02 2.65926775e-02 6.71170428e-02 1.15289800e-01
      7.86305815e-02 1.21938296e-01 2.46483564e-01 2.39240080e-01
      1.68457344e-01 1.32305190e-01 4.54474650e-02 1.60499096e-01
      1.04308546e-01 3.04294955e-02 1.57002844e-02 5.60870618e-02
      1.44664079e-01 2.46483564e-01 2.37827867e-01 1.89272836e-01
      2.03713164e-01 2.46483564e-01 1.84082866e-01 3.85504439e-02
      3.74071449e-02 1.10468589e-01 2.46483564e-01 2.34748647e-01
      1.95465565e-01 2.46483564e-01 1.52961090e-01 1.69565648e-01
      1.18318781e-01 4.00100388e-02 2.54179854e-02 1.04393382e-02
      1.85764097e-02 9.22587048e-03 1.01630762e-01 2.01040685e-01
      3.02996129e-01 3.02996129e-01 1.31254410e-02 1.84155628e-03
      2.95006816e-04 1.86904287e-03 1.01092430e-02 7.14783370e-02
      3.02996129e-01 3.02996129e-01 1.62867516e-01 9.14846640e-03
      8.80756136e-03 2.60798894e-02 2.84871459e-02 1.20334968e-01
      3.02996129e-01 3.02996129e-01 3.02996129e-01 3.02996129e-01
      8.79522972e-03 5.86855924e-04 1.77004098e-04 8.65343900e-05
      1.12691298e-01 2.86375701e-01 6.80878386e-02 3.42584819e-01
      3.42584819e-01 1.29300673e-02 1.78144209e-03 0. 1.48592459e-03
      5.24791004e-03 3.18645537e-02 2.60051806e-02 3.42584819e-01
      3.42584819e-01 6.63049007e-03 8.40523373e-03 1.36035174e-04
      4.90075967e-04 2.33344408e-03 2.76345648e-02 1.66096836e-01
      3.42584819e-01 3.42584819e-01 1.84180271e-02 2.47555925e-03 0. 0.
      3.32593806e-02 1.05593577e-01 9.12555307e-02 3.42584819e-01
      3.42584819e-01 1.10508166e-02 9.87401698e-03 1.43267610e-03
      4.65537480e-04 7.09499791e-03 3.82226631e-02 1.87872648e-02
      3.41087162e-01 3.41087162e-01 0. 5.45129972e-03 2.19360623e-03
      5.06608514e-03 7.92481657e-03 8.83784238e-03 4.34608236e-02
      3.41087162e-01 3.41087162e-01 4.55672592e-02 3.41087162e-01
      1.15454361e-01 4.10097800e-02 9.85456072e-03 1.01254033e-02
      4.35614735e-02 3.41087162e-01 3.41087162e-01 0. 1.12100001e-02
      9.34970286e-03 4.46316646e-03 1.27093755e-02 1.68878976e-02
      3.62912267e-02 9.50032175e-02 8.39801133e-02 5.05650043e-02
      3.41087162e-01 7.17477202e-02 1.28173694e-01 2.00368464e-02
      4.03848700e-02 2.79938281e-02 5.50624914e-02 7.10210204e-02
      8.29927921e-02 3.10104012e-01 1.22997463e-01 5.30415699e-02
      2.86506861e-03 2.76104137e-02 5.41830733e-02 5.87410890e-02
      6.73685819e-02 1.34151474e-01 3.10104012e-01 1.32029682e-01
      3.40960808e-02 3.52946855e-03 5.14448509e-02 1.52548254e-01
      2.58962177e-02 8.41507968e-03 5.99187836e-02 3.10104012e-01
      6.32667020e-02 2.58943826e-01 1.36182476e-02 2.73026407e-01
      3.10104012e-01 2.80552953e-01 2.00483322e-01 1.23165198e-01
      3.10104012e-01 5.29696383e-02 1.57456577e-01 1.49061270e-02
      3.10104012e-01 2.91180283e-01 5.25295772e-02 6.36096485e-03
      3.05733527e-03 1.02505293e-02 7.71133229e-02 2.82395363e-01
      2.17318147e-01 2.91180283e-01 2.91180283e-01 2.91180283e-01
      3.29938382e-02 6.91318698e-03 1.44668017e-02 1.16433330e-01
      6.56020343e-02 1.03492022e-01 2.91180283e-01 2.91180283e-01
      3.05754635e-02 4.91875340e-04 1.77747186e-03 1.26006631e-02
      9.50399414e-03 1.42700478e-01 8.20734277e-02 2.91180283e-01
      2.91180283e-01 1.96787640e-01 2.00560503e-02 2.72213155e-03
      1.19735310e-02 1.29911713e-02 1.47780450e-02 1.76849905e-02
      2.91180283e-01 2.95305431e-01 2.95305431e-01 9.54262242e-02
      8.81986227e-03 2.48287851e-03 3.18036452e-02 5.90827037e-03
      1.33461878e-01 2.86994874e-01 2.95305431e-01 2.95305431e-01
      2.95305431e-01 3.25954542e-03 3.97600187e-03 0. 4.11383854e-03
      1.06487565e-01 2.95305431e-01 2.95305431e-01 2.73272723e-01
      4.25077155e-02 4.24649147e-03 2.52381060e-03 4.54337802e-03
      1.15852384e-02 3.15337181e-02 1.93737715e-01 2.95305431e-01
      2.03802213e-01 6.26382604e-02 9.64343362e-03 7.04075489e-03 0.
      1.56609435e-02 3.13437916e-02 1.24848716e-01 3.76868129e-01
      3.76868129e-01 3.76868129e-01 1.23129152e-02 2.29192041e-02
      1.93996425e-03 1.08258929e-02 5.36976606e-02 2.35790431e-01
      2.26837546e-01 3.76868129e-01 3.76868129e-01 1.48815485e-02
      4.76214215e-02 2.01633237e-02 1.26694487e-02 2.48191971e-02
      7.50784203e-02 3.07948023e-01 1.53339833e-01 8.36183801e-02
      3.04426681e-02 2.74064746e-02 3.23327375e-03 2.26755757e-02
      1.72841568e-02 9.84446704e-02 1.24806985e-01 7.62552992e-02
      3.48966271e-02 4.50577997e-02 2.28796862e-02 2.57475711e-02
      2.56367587e-02 2.19621733e-02 3.93543430e-02 1.57034844e-01
      2.95124680e-01 2.95124680e-01 1.57096591e-02 1.06853850e-01
      7.90330097e-02 1.12721026e-02 8.26292858e-02 9.89109725e-02
      2.92241931e-01 1.28718689e-01 9.33419243e-02 5.57473712e-02
      2.95124680e-01 1.88473254e-01 2.95124680e-01 8.64880979e-02
      2.85056442e-01 2.95124680e-01 6.96024746e-02 6.41217828e-02
      4.68615480e-02 4.40229960e-02 7.54815266e-02 2.37453096e-02
      9.55637321e-02 1.34623125e-01 2.95124680e-01 2.05889821e-01
      1.16544597e-01 3.26480269e-02 1.06982507e-01 6.78777546e-02
      4.75812480e-02 8.92365053e-02 2.17188478e-01 3.72327447e-01
      6.49855733e-02 2.15112045e-02 2.82946564e-02 2.76461780e-01
      5.07781357e-02 2.83360273e-01 2.26003733e-02 3.72327447e-01
      3.72327447e-01 3.26855361e-01 1.78638235e-01 4.69875075e-02
      8.61325189e-02 1.66187193e-02 1.70016170e-01 2.60778181e-02
      3.72327447e-01 1.00395247e-01 7.23634809e-02 3.99544947e-02
      3.93397585e-02 2.55032070e-02 3.79551528e-03 9.58800875e-03
      2.87979059e-02 8.28220472e-02 1.42193750e-01 7.65599385e-02
      3.05512156e-02 3.81364785e-02 2.19699368e-02 0. 3.54758371e-03
      6.26828149e-02 1.96054161e-01 3.19717497e-01 2.33274233e-02
      2.21873783e-02 5.29367812e-02 8.96976665e-02 3.70128788e-02
      2.09785812e-02 4.15053666e-02 3.19717497e-01 3.19717497e-01
      1.33986562e-01 5.12546934e-02 3.81670669e-02 1.10833064e-01 0.
      1.92244723e-02 2.74782609e-02 3.19717497e-01 1.57700941e-01
      9.76615250e-02 1.21764578e-01 1.45282805e-01 1.06380336e-01
      5.28755458e-03 1.25871487e-02 6.16975315e-02 3.19717497e-01
      3.19717497e-01 3.19717497e-01 1.28967986e-01 5.34312390e-02
      1.50212973e-01 0. 2.74635339e-03 2.18912326e-02 3.19717497e-01
      3.28071564e-01 1.09051041e-01 4.34295163e-02 1.49221132e-02
      2.03754101e-02 0. 5.25920913e-02 5.04083671e-02 1.82251781e-01
      3.03800285e-01 1.02740549e-01 4.53180559e-02 3.59655656e-02
      9.95576289e-03 0. 4.76658195e-02 1.07049279e-01 3.28071564e-01
      3.28071564e-01 3.28071564e-01 7.17570260e-02 6.56437315e-03
      1.07779376e-01 0. 7.42041040e-03 1.45321488e-02 1.79954126e-01
      3.28071564e-01 3.28071564e-01 3.73629704e-02 4.90445318e-03
      1.21801518e-01 0. 6.16018008e-03 6.77240565e-02 3.28071564e-01
      1.42869443e-01 8.44325721e-02 2.16540266e-02 3.98851484e-02
      1.67501792e-02 8.81384709e-04 1.42493555e-02 8.53500217e-02
      3.03828537e-01 3.13249558e-01 1.57485694e-01 1.13227423e-02
      3.30170617e-02 8.53872206e-03 6.16969215e-03 1.68386064e-02
      6.93509802e-02 2.36276969e-01 3.85876060e-01 8.55538845e-02
      9.55374073e-03 3.91588267e-03 5.23275472e-02 0. 1.33297488e-03
      1.07328206e-01 3.85876060e-01 3.85876060e-01 1.32709071e-01
      2.73486308e-04 5.59411768e-04 5.56729175e-02 0. 1.62739726e-03
      2.08054572e-01 3.85876060e-01 3.22621882e-01 8.82041752e-02
      8.10491666e-03 9.83873662e-03 2.85818218e-03 4.71837446e-02
      3.71512547e-02 1.03526823e-01 1.57773897e-01 2.67122656e-01
      4.67408635e-02 1.06082978e-02 3.43555841e-03 3.94336469e-02
      1.29244015e-01 1.05572522e-01 1.42985448e-01 1.95509925e-01
      3.15128088e-01 9.97421667e-02 0. 0. 9.68882069e-02 2.66040135e-02
      8.11506435e-02 3.26020300e-01 3.26020300e-01 2.05828547e-01
      1.22295069e-02 0. 0. 1.99746981e-01 1.13492735e-01 1.93305105e-01
      3.26020300e-01 3.26020300e-01 1.85408995e-01 7.18813762e-02
      5.34898564e-02 6.31086677e-02 5.62042817e-02 1.09636366e-01
      9.39605981e-02 1.26445591e-01 1.89654931e-01 1.19520582e-01
      1.83762535e-01 8.11561421e-02 1.28101036e-01 6.44868240e-02
      4.53295037e-02 7.79932216e-02 1.63328111e-01 2.01633811e-01
      2.76619732e-01 1.10851917e-02 6.66714599e-03 1.74256861e-02
      1.61723852e-01 1.97449669e-01 1.74181208e-01 3.05738866e-01
      3.05738866e-01 3.05738866e-01 7.75963441e-02 1.40930098e-02
      8.76839310e-02 1.95145860e-01 1.06198415e-01 1.44204527e-01
      3.05738866e-01 3.05738866e-01</_>
    <_>
      3.78372222e-02 3.44672240e-02 1.85832456e-01 2.35088721e-01
      1.97628751e-01 1.68323368e-01 2.89464518e-02 1.56149849e-01
      2.99023539e-02 5.42778075e-02 7.81085417e-02 1.31680533e-01
      9.83734876e-02 1.57946587e-01 1.07712448e-01 4.55144718e-02
      5.93384542e-02 5.26177622e-02 2.85064489e-01 1.74255431e-01
      1.49909109e-02 1.05881341e-01 1.19934849e-01 2.85064489e-01
      2.85064489e-01 2.09786728e-01 2.62518406e-01 2.85064489e-01
      2.42623761e-01 5.77854887e-02 6.89819381e-02 6.63171634e-02
      1.41361028e-01 1.15788102e-01 2.23786250e-01 2.85064489e-01
      1.05689228e-01 4.72381823e-02 5.46153709e-02 1.14214092e-01
      1.52234003e-01 8.69002715e-02 7.79858530e-02 8.16025734e-02
      2.04279646e-01 2.87945300e-01 2.00195149e-01 4.25310433e-02
      6.72142580e-02 1.52319044e-01 1.40318200e-01 1.09209284e-01
      1.70897767e-01 3.03334415e-01 3.03334415e-01 1.12170689e-01
      5.23263365e-02 1.40744030e-01 8.57338831e-02 1.13231696e-01
      9.88098010e-02 2.06113681e-01 3.03334415e-01 3.03334415e-01
      2.48025477e-01 5.10746650e-02 1.43773884e-01 6.81494549e-02
      9.57280993e-02 1.05008990e-01 1.25048518e-01 2.61034578e-01
      3.13872725e-01 1.45243093e-01 9.15898383e-02 5.24751134e-02
      9.55134481e-02 4.77992110e-02 6.62831813e-02 1.23274043e-01
      3.13872725e-01 3.13872725e-01 7.41959736e-02 8.36930871e-02
      3.38689350e-02 1.11202590e-01 8.13190714e-02 7.65060186e-02
      1.64817259e-01 3.13872725e-01 3.10242534e-01 1.81135118e-01
      5.44621982e-02 1.28343955e-01 7.60847777e-02 3.66877876e-02
      6.69704601e-02 4.97497804e-02 9.82241482e-02 3.13872725e-01
      9.47329849e-02 3.52559723e-02 1.04461789e-01 8.83458853e-02
      2.03985766e-01 8.35314617e-02 1.72622874e-01 3.09567332e-01
      2.54008293e-01 8.09435770e-02 2.60262806e-02 1.09257596e-02
      6.06603622e-02 3.14946510e-02 1.07402317e-02 4.75303940e-02
      3.70740175e-01 2.77039438e-01 1.92862198e-01 8.97484943e-02
      7.09256157e-02 1.68800130e-01 3.75219472e-02 2.66128965e-03
      1.09844627e-02 2.49124438e-01 3.35428178e-01 6.62680417e-02
      1.22222137e-02 2.11929865e-02 2.75735836e-02 1.73673436e-01
      4.16881554e-02 9.51375440e-02 2.79358625e-01 3.70740175e-01
      1.51624173e-01 4.03056554e-02 4.39209342e-02 7.14414716e-02
      1.05830602e-01 2.11527944e-02 7.32283592e-02 3.70740175e-01
      1.44684628e-01 1.60682648e-01 7.60937482e-02 3.65869105e-02
      1.33803234e-01 1.53534058e-02 1.84097560e-04 9.22846259e-04
      9.72414315e-02 1.04834341e-01 1.73352718e-01 4.64655049e-02
      8.90356749e-02 1.11587636e-01 3.62450741e-02 1.47903124e-02
      6.45233842e-04 5.05279116e-02 4.22802061e-01 1.58045277e-01
      4.24081422e-02 2.69909240e-02 5.25498763e-02 2.29958966e-02
      1.28868280e-03 3.61498594e-02 4.22802061e-01 4.22802061e-01
      1.41565084e-01 5.62649667e-02 7.71642774e-02 2.92909723e-02
      1.20751366e-01 2.25362293e-02 2.33186126e-01 4.22802061e-01
      1.81006432e-01 1.75396949e-01 7.46522993e-02 2.27077957e-03
      7.27384537e-03 6.17867149e-02 8.13653767e-02 3.42722051e-02
      1.41665548e-01 2.71992892e-01 1.74378619e-01 4.41711284e-02
      3.71303856e-02 2.99705341e-02 3.43162417e-02 4.75410335e-02
      8.38930681e-02 2.71992892e-01 1.88503131e-01 2.71992892e-01
      2.71992892e-01 1.37316197e-01 5.39044552e-02 6.32943064e-02
      5.80120869e-02 1.71366017e-02 1.15991242e-01 2.71992892e-01
      2.71992892e-01 2.71992892e-01 2.71992892e-01 2.59957641e-01
      1.37537792e-01 9.43657160e-02 1.08145274e-01 2.71992892e-01
      2.64322400e-01 4.38947380e-02 7.46187894e-03 9.99027491e-02
      8.94177705e-02 1.43381670e-01 6.85157329e-02 1.27149716e-01
      3.03268552e-01 6.71252012e-02 4.45855968e-02 3.19662765e-02
      6.14891872e-02 1.02101259e-01 9.27854702e-02 3.10864225e-02
      2.14649905e-02 5.13573885e-02 2.03160197e-01 6.25980124e-02
      1.33990422e-01 3.03268552e-01 3.03268552e-01 3.00230831e-01
      1.09239921e-01 2.00821459e-01 3.03268552e-01 6.93039671e-02
      1.88781902e-01 1.30888715e-01 3.03268552e-01 2.75901109e-01
      1.61675572e-01 3.79667506e-02 4.55011912e-02 5.07752895e-02
      1.70400646e-02 3.50264870e-02 4.05616947e-02 1.67787168e-02
      2.37432849e-02 9.04407538e-03 4.41254303e-02 1.15431054e-02
      1.57279931e-02 7.60476515e-02 2.52541751e-01 1.32794484e-01
      1.80794634e-02 8.65113642e-03 2.55325045e-02 3.14549133e-02
      3.74555252e-02 7.81992599e-02 2.39850581e-02 4.87789065e-01
      3.98498505e-01 2.36116983e-02 4.24868539e-02 9.49750654e-03
      5.19129224e-02 9.01055429e-03 2.14629266e-02 6.71170577e-02
      4.87789065e-01 4.87789065e-01 2.54498143e-02 2.18612561e-03
      3.35615501e-03 2.92419083e-02 1.62018761e-02 8.23905393e-02
      1.32169276e-01 2.72558779e-01 6.37848899e-02 4.74818330e-03
      3.20764631e-03 1.88477524e-02 3.34506598e-03 9.73505247e-03
      2.08923668e-02 3.61704379e-01 3.51889431e-01 3.07653211e-02
      6.28856476e-04 4.36035683e-03 1.50842331e-02 2.68431683e-03
      9.18744877e-03 1.37028500e-01 1.46014765e-01 3.61704379e-01
      3.61704379e-01 1.01348227e-02 3.49917682e-04 1.84951618e-03
      3.42277257e-04 2.14112061e-03 4.49906476e-02 3.61704379e-01
      3.61704379e-01 1.92803994e-01 1.44783175e-03 5.83196117e-04
      2.68172263e-03 2.43375562e-02 4.53508310e-02 1.95715085e-01
      2.94797271e-01 7.50721321e-02 1.21296267e-03 2.38052526e-04
      5.46593126e-03 1.17577557e-02 2.19834186e-02 4.01660576e-02
      2.94797271e-01 2.43602753e-01 7.20498897e-03 2.59569567e-03
      1.66636752e-03 3.78357135e-02 9.64608341e-02 1.54395446e-01
      1.48589179e-01 2.94797271e-01 2.94797271e-01 1.36290804e-01
      7.16745760e-03 2.16410924e-02 7.14964196e-02 7.28843361e-02
      8.50614384e-02 1.05118535e-01 2.94797271e-01 1.66270465e-01
      4.22599725e-04 4.42070840e-03 3.60684879e-02 2.94797271e-01
      2.94797271e-01 2.80175060e-01 1.50277525e-01 2.94797271e-01
      1.73065830e-02 6.79098368e-02 2.10408986e-01 1.79271832e-01
      9.48990583e-02 1.67713642e-01 9.61485952e-02 3.06480634e-03
      1.27240131e-02 2.53952909e-02 5.16336523e-02 1.62120506e-01
      2.83996791e-01 2.41327524e-01 2.69102156e-01 2.53118634e-01
      8.82198438e-02 7.26077333e-02 8.85292515e-03 2.00010906e-03
      2.65292320e-02 9.57334042e-02 6.82565793e-02 2.83996791e-01
      2.83996791e-01 1.64883643e-01 8.09032619e-02 4.59912308e-02
      5.83663583e-04 1.61125790e-02 4.97516468e-02 1.18939914e-01
      2.83996791e-01 2.83996791e-01 2.83996791e-01 2.83996791e-01
      8.78317282e-02 1.22218737e-02 4.82206307e-02 2.49249160e-01
      1.73464254e-01 1.00221835e-01 1.14658415e-01 1.21773556e-01
      1.20035179e-01 3.02548170e-01 2.84344375e-01 4.52601016e-02
      9.75706801e-02 5.83879910e-02 1.94282010e-02 1.16153248e-02
      5.64980060e-02 1.00510284e-01 2.72028208e-01 1.36419125e-02
      6.59580762e-03 2.15985291e-02 7.63942823e-02 7.31713772e-02
      1.84851229e-01 3.18008006e-01 3.18008006e-01 3.18008006e-01
      3.18008006e-01 1.65093951e-02 8.05975869e-03 1.74839739e-02
      6.60320465e-03 1.60882566e-02 1.19046561e-01 3.18008006e-01
      1.06595635e-01 3.63386214e-01 1.60651699e-01 5.82011230e-03
      3.78308864e-03 3.09900672e-04 1.94516766e-03 2.34630378e-03
      1.00110332e-02 3.67685892e-02 3.63386214e-01 3.63386214e-01
      1.91139989e-02 2.66501971e-04 3.88245680e-05 9.58304387e-04 0.
      3.60144023e-03 3.63386214e-01 3.63386214e-01 1.29199177e-01
      9.91304219e-03 3.26497611e-05 0. 0. 3.95746808e-03 3.49955335e-02
      1.19425707e-01 3.63386214e-01 3.63386214e-01 2.58203428e-02 0. 0.
      0. 0. 1.31629512e-03 1.03727452e-01 3.01708430e-01 3.01708430e-01
      2.00878568e-02 4.06134699e-04 1.36909378e-03 0. 4.11648396e-03
      3.90310176e-02 3.01708430e-01 3.01708430e-01 1.38393909e-01
      3.12948902e-03 2.24219523e-02 7.39129558e-02 6.72493801e-02
      1.07825048e-01 1.44586414e-01 9.43065137e-02 3.01708430e-01
      3.01708430e-01 1.43423900e-02 1.28817474e-02 2.02084389e-02
      1.18069351e-03 2.04118397e-02 1.54711585e-02 1.99783981e-01
      3.01708430e-01 1.58635870e-01 2.06855293e-02 3.01708430e-01
      3.01708430e-01 7.87715241e-02 1.17054492e-01 8.42667893e-02
      2.61614203e-01 6.77873716e-02 1.05455769e-02 4.26974557e-02
      1.37143999e-01 1.67067796e-01 1.47148594e-01 1.30764812e-01
      1.26181260e-01 2.37955116e-02 0. 1.41276736e-02 8.32630321e-02
      3.68852764e-01 2.82307535e-01 1.01049311e-01 3.48668732e-02
      5.78527860e-02 9.56867412e-02 4.43812720e-02 1.70136578e-02
      7.78439417e-02 3.68852764e-01 3.68852764e-01 1.61714226e-01
      1.05864711e-01 6.47877604e-02 4.11422960e-02 0. 8.54380280e-02
      2.34389588e-01 3.68852764e-01 2.07047850e-01 6.75813034e-02
      3.47806551e-02 4.43027653e-02 2.13360880e-02 3.21516618e-02
      7.03294426e-02 4.01050858e-02 5.30330464e-03 8.23565423e-02
      3.47916096e-01 3.23332310e-01 2.08449498e-01 1.16489321e-01
      1.32967867e-02 6.96695177e-03 7.15263828e-04 2.96031265e-03
      7.86727294e-02 3.28549266e-01 3.47916096e-01 3.47916096e-01
      3.29970568e-02 6.82617500e-02 1.17407508e-01 2.61487626e-02
      1.79563034e-02 0. 4.91029583e-02 1.36043862e-01 1.61078706e-01
      1.72542483e-01 3.55158970e-02 1.81224588e-02 6.10645395e-03
      5.31021692e-03 1.20237688e-04 4.09540534e-02 3.47916096e-01
      3.47916096e-01 2.92556822e-01 1.32691534e-02 1.77885682e-04 0.
      1.10186440e-04 6.20164815e-03 3.23519036e-02 2.88331419e-01
      3.16373795e-01 3.16373795e-01 3.16373795e-01 2.16458738e-03 0. 0.
      0. 2.07429635e-03 5.42682670e-02 3.16373795e-01 2.96598047e-01
      1.61435474e-02 1.23657880e-03 0. 2.88385712e-03 2.20116955e-04
      7.69712171e-03 1.22474447e-01 3.16373795e-01 3.16373795e-01
      1.39714241e-01 1.27344998e-03 1.93568808e-03 3.22977337e-03
      1.32070185e-04 6.29848195e-03 1.94054302e-02 3.16373795e-01
      3.66266072e-01 3.66266072e-01 7.32823014e-02 5.37046278e-03 0. 0.
      7.31081294e-04 5.04604308e-03 9.85402912e-02 2.20150530e-01
      3.66266072e-01 3.00554067e-01 1.00720050e-02 2.53793015e-03 0.
      1.21846888e-03 1.59636489e-03 1.69837009e-02 3.66266072e-01
      3.25382411e-01 9.83987469e-03 3.25775729e-03 1.44863478e-03 0.
      6.36264216e-03 1.13541065e-02 1.47728011e-01 2.01807931e-01
      3.66266072e-01 2.65414566e-02 1.21582644e-02 6.85866876e-03
      2.27486948e-03 9.17684752e-03 1.21370312e-02 3.75913195e-02
      1.14420079e-01 3.27856183e-01 3.27856183e-01 1.44626424e-02
      4.61017340e-02 6.41387925e-02 8.25080369e-03 4.18373682e-02
      1.27892010e-02 7.50199258e-02 2.27417931e-01 1.29231572e-01
      6.14341684e-02 3.27856183e-01 3.27856183e-01 1.60715237e-01
      2.16394797e-01 1.41595542e-01 8.45620409e-02 2.73101598e-01
      3.85158956e-02 6.09526783e-02 2.77759805e-02 3.37906405e-02
      1.42778046e-02 1.90075766e-02 1.81816723e-02 6.18620776e-02
      6.53192699e-02 6.00020997e-02 8.10996220e-02 8.99252072e-02
      3.25152785e-01 1.26061276e-01 2.71286964e-01 2.51799673e-01
      1.35343343e-01 6.50610682e-03 3.15013193e-02 5.86244874e-02
      2.78335065e-01 2.78335065e-01 1.67296186e-01 1.06468596e-01
      2.43708372e-01 2.78335065e-01 3.63361351e-02 2.28568822e-01
      2.30094448e-01 2.78335065e-01 8.26245025e-02 9.06456187e-02
      4.68274690e-02 2.59467244e-01 1.91056564e-01 5.31944726e-03
      3.87671180e-02 2.14372054e-02 3.74682173e-02 1.23266146e-01
      1.03763461e-01 1.47157699e-01 2.78335065e-01 2.78335065e-01
      7.15540722e-02 1.57927260e-01 9.76516455e-02 8.74434039e-02
      1.89995859e-02 5.38322814e-02 6.58484101e-02 2.78335065e-01
      6.84605762e-02 1.17965944e-01 3.04596514e-01 1.48855418e-01
      2.75643855e-01 3.80953215e-02 2.01394968e-02 1.26462448e-02
      1.18788324e-01 2.67743647e-01 1.21406406e-01 1.97082192e-01
      1.04451708e-01 1.06687307e-01 5.65786380e-03 1.14376038e-01
      5.21947369e-02 3.04596514e-01 5.90145625e-02 3.10940817e-02
      2.10240722e-01 1.88291609e-01 3.04596514e-01 2.30265617e-01
      2.21034065e-02 2.35184166e-03 5.90145625e-02 6.04318194e-02
      2.96655446e-01 3.04596514e-01 1.78868815e-01 2.33376950e-01
      3.74834985e-02 6.77131042e-02 1.45246498e-02 6.44565672e-02
      3.25635046e-01 9.14032385e-02 1.33404180e-01 2.38424093e-02
      8.67453516e-02 5.38330059e-03 1.16258658e-01 4.36638631e-02
      3.25635046e-01 3.25635046e-01 7.46463835e-02 7.19250441e-02
      2.49975622e-02 6.30100816e-02 3.22998012e-03 8.82441998e-02
      1.72895133e-01 3.25635046e-01 2.55675036e-02 1.81536898e-01
      3.25635046e-01 1.24486864e-01 1.84775189e-01 3.22998012e-03
      6.27421066e-02 3.15137096e-02 1.14246242e-01 1.34298533e-01
      6.77776560e-02 1.49330184e-01 7.66435415e-02 1.64168954e-01
      1.93798821e-03 7.29604661e-02 2.71049976e-01 3.25635046e-01
      2.87904739e-01 1.40366524e-01 3.18006687e-02 2.83073634e-02
      3.05490475e-02 0. 2.81103291e-02 1.32852867e-01 2.87904739e-01
      2.87904739e-01 2.51755774e-01 6.01637475e-02 6.48355111e-02
      5.98772950e-02 5.62869683e-02 5.06391115e-02 1.10675000e-01
      2.87904739e-01 1.94353536e-01 1.47054121e-01 8.86121988e-02
      2.48485059e-02 7.33936056e-02 0. 3.89605127e-02 2.87904739e-01
      2.87904739e-01 1.75797939e-01 1.86186090e-01 1.50296912e-01
      6.77906498e-02 1.45801008e-01 1.02512412e-01 1.01271659e-01
      2.71457613e-01 2.87904739e-01 1.03727564e-01 2.56036401e-01
      8.06066468e-02 1.06601089e-01 5.64151891e-02 9.70005915e-02
      6.65535927e-02 6.86099827e-02 2.07993001e-01 1.47373766e-01
      2.56036401e-01 2.56036401e-01 1.78039968e-01 2.60376725e-02
      8.11930820e-02 6.40946925e-02 2.36911297e-01 2.56036401e-01
      1.06512494e-01 8.35282058e-02 4.24535982e-02 3.86157185e-02
      1.81206748e-01 2.56036401e-01 2.29676604e-01 1.77781850e-01
      2.56036401e-01 1.41924188e-01 1.55183882e-01 1.06049314e-01
      1.22230724e-01 1.65999636e-01 2.56036401e-01 2.54359841e-01
      1.13839716e-01 9.79348272e-02 2.97725528e-01 1.15682170e-01
      2.15330154e-01 9.85670090e-02 2.18945853e-02 3.24144363e-02
      1.20858802e-02 2.11245716e-01 3.78009409e-01 3.78009409e-01
      2.18178496e-01 1.21462733e-01 8.49688798e-02 1.59843490e-02
      1.58912484e-02 2.52544675e-02 1.79250792e-01 3.78009409e-01
      1.05133839e-01 1.41207531e-01 1.26233682e-01 6.04104735e-02
      1.28686488e-01 1.35035709e-01 7.41667077e-02 4.25571725e-02
      3.54868583e-02 1.44539699e-01 1.48029670e-01 9.60299745e-02
      2.43133605e-02 1.78611860e-01 5.51499650e-02 1.74650103e-01
      1.09551102e-01 1.90484032e-01</_>
    <_>
      3.79943401e-02 1.26149477e-02 6.79955026e-03 2.37186383e-02
      5.34544177e-02 8.15151110e-02 5.90482503e-02 8.97582769e-02
      1.20868757e-01 2.60003936e-02 2.59798635e-02 1.49580911e-02
      3.96801643e-02 9.30364281e-02 1.51131317e-01 1.00343175e-01
      2.25200534e-01 1.03879504e-01 3.72848839e-01 3.85554358e-02
      1.49580911e-02 3.78454551e-02 7.65345097e-02 6.91746175e-02
      2.50418186e-01 3.72848839e-01 3.72848839e-01 2.80421942e-01
      1.48972452e-01 6.77748695e-02 1.21919349e-01 6.99257255e-02
      1.37785152e-01 1.60423487e-01 2.23006278e-01 3.72848839e-01
      1.69048384e-01 3.72522436e-02 4.70149703e-03 7.29314685e-02
      1.01415619e-01 1.64449021e-01 1.38294235e-01 2.72739857e-01
      1.53033793e-01 2.72739857e-01 1.49591774e-01 0. 4.05327193e-02
      8.46308023e-02 1.19224727e-01 2.28985295e-01 2.29983747e-01
      2.72739857e-01 2.66933352e-01 2.72739857e-01 4.80833314e-02
      1.00112297e-01 1.11345597e-01 1.31962255e-01 1.92376494e-01
      9.10994411e-02 1.22705601e-01 2.72739857e-01 2.72739857e-01
      3.74683645e-03 2.67420486e-02 1.31077155e-01 1.01995379e-01
      1.91791415e-01 6.12782352e-02 2.05990255e-01 2.95659184e-01
      2.03005254e-01 5.71409799e-03 4.09244187e-03 3.34436297e-02
      1.61616504e-02 1.24248743e-01 2.00582772e-01 2.95659184e-01
      2.95659184e-01 2.95659184e-01 6.63632825e-02 6.82073645e-03
      2.29851194e-02 3.30842286e-02 1.82343796e-02 7.67361298e-02
      2.95659184e-01 2.95659184e-01 2.28815749e-01 1.01349819e-02
      2.86470912e-02 5.59782311e-02 1.60324611e-02 6.80614859e-02
      6.53779432e-02 2.14834929e-01 2.95659184e-01 2.95659184e-01
      1.30206719e-01 4.77451570e-02 3.25804912e-02 5.51403798e-02
      4.76254597e-02 6.52680993e-02 2.13377953e-01 2.75076121e-01
      2.75076121e-01 8.20499584e-02 2.40130797e-02 4.11713906e-02
      3.90902236e-02 3.45817581e-03 1.88708620e-03 2.75076121e-01
      2.69920647e-01 2.75076121e-01 2.75076121e-01 1.80520654e-01
      9.57693160e-02 1.20588047e-02 4.94025066e-04 9.08304472e-04
      2.20919177e-01 2.10655361e-01 2.12073043e-01 1.69762447e-01
      4.07595187e-02 7.36729726e-02 8.78110677e-02 1.78106651e-02
      4.27482091e-02 1.04908168e-01 1.79433122e-01 2.75076121e-01
      2.75076121e-01 2.21585363e-01 2.05364138e-01 5.78658432e-02
      6.55040937e-03 2.15155296e-02 1.41499668e-01 1.62933156e-01
      2.62418956e-01 2.62418956e-01 2.55779207e-01 1.33529261e-01
      2.61548720e-03 3.58427800e-02 8.22905749e-02 9.43034813e-02
      9.46518406e-02 2.19306082e-01 1.61229834e-01 1.05057001e-01
      2.06833914e-01 5.63771389e-02 8.02601948e-02 2.62418956e-01
      1.72193766e-01 1.44618243e-01 1.90794021e-01 2.05059960e-01
      2.37541839e-01 1.37035146e-01 3.14535871e-02 5.02291247e-02
      7.93264881e-02 2.40918621e-01 2.62418956e-01 1.05833963e-01
      9.26480219e-02 4.50814329e-02 4.88491915e-02 1.27757579e-01
      1.24992765e-01 2.27153748e-01 2.62418956e-01 2.80007690e-01
      2.14908868e-02 6.61963969e-02 7.47304503e-03 1.10682361e-01
      4.58841957e-03 6.72500059e-02 1.92086175e-01 2.80007690e-01
      1.07043236e-01 3.44569534e-02 6.49048239e-02 2.65872721e-02
      2.80007690e-01 9.91733745e-03 1.40410773e-02 5.32884672e-02
      2.63512790e-01 2.66082346e-01 1.04036346e-01 2.80007690e-01
      1.36537924e-01 2.80007690e-01 4.60480936e-02 9.38905701e-02
      1.15985878e-01 2.80007690e-01 9.27879065e-02 1.55547500e-01
      2.80007690e-01 1.06325284e-01 2.80007690e-01 2.14852765e-02
      3.64345647e-02 3.07475198e-02 2.23020867e-01 2.17051223e-01
      2.17386767e-01 8.35231096e-02 1.12051353e-01 3.61757398e-01
      8.56524184e-02 8.12401921e-02 3.15286927e-02 1.64346248e-01
      2.09712505e-01 1.35476857e-01 1.35519914e-02 2.10579317e-02
      8.87025297e-02 8.01850334e-02 1.66495606e-01 6.55289143e-02
      1.49735823e-01 1.90049559e-01 2.61124820e-01 3.34071159e-01
      2.52245158e-01 3.61757398e-01 4.57474254e-02 4.02539037e-02
      2.51675416e-02 1.55438110e-01 1.41001731e-01 1.13007016e-01
      3.42380479e-02 8.11094716e-02 5.59836999e-02 6.32964745e-02
      1.98112145e-01 1.60517380e-01 1.62829593e-01 1.34256929e-01
      4.54807580e-02 3.39039825e-02 3.13722827e-02 3.57679464e-02
      1.56370327e-02 6.96027130e-02 6.03404604e-02 1.03003457e-01
      1.66074127e-01 4.75293174e-02 1.02850720e-01 3.62226591e-02
      1.57851111e-02 1.06197698e-02 6.83963075e-02 9.99298617e-02
      1.34719044e-01 2.42903799e-01 1.47975892e-01 4.71397452e-02
      9.50599089e-02 3.41863297e-02 6.36579245e-02 1.15413897e-01
      1.17315263e-01 1.31678820e-01 4.16338444e-01 4.16338444e-01
      4.16338444e-01 1.06695063e-01 3.09119206e-02 3.66984159e-02
      8.90776962e-02 1.46001592e-01 4.16338444e-01 3.65443416e-02
      3.03906295e-02 3.03176511e-02 3.51221953e-03 1.38605544e-02
      6.65251724e-03 1.06278183e-02 2.37829573e-02 1.39202131e-02
      2.63658389e-02 5.08956611e-02 3.34512331e-02 1.54085476e-02
      4.62824516e-02 8.02843738e-03 9.54454858e-03 2.14282908e-02
      2.84646899e-02 4.60817724e-01 3.10821384e-01 1.41328409e-01
      3.68881971e-03 1.16888564e-02 1.29497740e-02 1.55634265e-02
      3.14001553e-02 4.60817724e-01 4.60817724e-01 1.00175403e-01
      2.72203032e-02 1.53335731e-03 1.76027305e-02 2.15829592e-02
      1.49853183e-02 5.97385578e-02 4.60817724e-01 1.73378736e-02
      1.54047525e-02 1.19789364e-02 7.14691263e-03 1.73302013e-02
      3.36855557e-03 1.26074981e-02 1.28774159e-02 3.29163782e-02
      3.25850546e-02 1.46723567e-02 1.31918211e-02 4.61803080e-04
      3.03595793e-03 9.80005972e-03 1.80829186e-02 1.21077299e-02
      2.21202504e-02 4.95699733e-01 2.21627560e-02 7.82328378e-03
      5.35826082e-04 3.41408909e-03 3.05532711e-03 9.39244032e-03
      3.89115326e-02 4.95699733e-01 4.95699733e-01 3.71852070e-02
      1.61688067e-02 0. 1.07604302e-02 9.91916051e-04 6.22735685e-03
      5.68198599e-02 4.95699733e-01 3.28501835e-02 3.14267129e-02
      2.57748276e-01 1.19760476e-01 2.79810876e-01 8.49023238e-02
      3.10093462e-01 5.88745885e-02 3.84693705e-02 4.33925465e-02
      5.29136397e-02 2.03100920e-01 7.51474947e-02 1.19334616e-01
      4.42661904e-02 2.88328975e-01 1.11315094e-01 5.17068394e-02
      9.02053341e-02 3.12866010e-02 1.66252833e-02 2.53440067e-02
      1.16834745e-01 7.61293843e-02 3.10093462e-01 3.10093462e-01
      7.39256442e-02 2.61983156e-01 4.65132706e-02 1.30061116e-02
      1.72802377e-02 2.93617696e-02 5.35512939e-02 3.10093462e-01
      3.10093462e-01 2.58648723e-01 6.94879368e-02 2.74035316e-02
      3.66010666e-02 1.66232251e-02 3.20003890e-02 6.16918376e-04
      5.07573672e-02 5.82273044e-02 6.40948191e-02 1.20832980e-01
      1.23000272e-01 8.58198628e-02 5.28133335e-03 5.49342437e-03
      2.90456857e-03 2.53574904e-02 1.65727995e-02 1.30035654e-01
      3.49922419e-01 1.18080065e-01 5.04378267e-02 2.95647793e-03
      2.96910806e-03 4.77235438e-03 2.08877608e-01 3.49922419e-01
      3.49922419e-01 3.49922419e-01 3.49922419e-01 3.49922419e-01
      4.78334085e-04 7.49874115e-03 2.21942784e-03 2.07601078e-02
      7.38342777e-02 3.49922419e-01 1.17472127e-01 1.88566327e-01
      1.30914479e-01 9.59209725e-03 4.42955224e-03 4.70975321e-03
      9.46100522e-03 3.94149823e-03 8.20723921e-02 2.43680075e-01
      3.00541967e-01 2.83998400e-01 1.27545195e-02 2.18375353e-03
      2.82585202e-03 7.13702571e-03 4.14890144e-03 1.53316021e-01
      3.00541967e-01 3.00541967e-01 3.00541967e-01 6.75948197e-03
      1.11288596e-02 4.12440207e-03 8.33674893e-03 3.59218311e-03
      2.87210256e-01 3.00541967e-01 3.00541967e-01 3.00541967e-01
      1.08625740e-02 5.94829302e-03 2.47464143e-03 2.56225355e-02
      7.96806440e-03 2.09346101e-01 3.02255064e-01 2.61170387e-01
      1.17092960e-01 4.27842792e-03 1.34538335e-03 1.31347263e-03
      1.84466981e-03 3.48482048e-03 2.06968814e-01 3.02255064e-01
      8.38174000e-02 1.45527748e-02 5.14315814e-03 1.65128987e-03
      2.18912121e-03 6.89332897e-04 9.00379382e-03 3.02255064e-01
      3.02255064e-01 3.02255064e-01 2.92809129e-01 6.85514323e-03
      1.58227130e-03 3.26067733e-04 7.27074500e-03 1.14671029e-02
      1.98297724e-01 3.02255064e-01 2.52777457e-01 1.39361456e-01
      1.38336159e-02 5.15140109e-02 3.53071205e-02 3.36127020e-02
      1.07206427e-01 3.02255064e-01 3.34509552e-01 3.12830359e-02
      1.13264075e-03 4.46714228e-03 1.89904962e-03 2.90878164e-03
      3.49182868e-04 1.69041231e-02 3.34509552e-01 3.34509552e-01
      1.19254198e-02 3.04646930e-03 1.37384180e-02 1.16550988e-02
      1.80629715e-02 1.99433323e-02 5.57520054e-02 3.34509552e-01
      3.34509552e-01 8.58910680e-02 1.30026480e-02 3.92248482e-02
      1.67793199e-01 1.32220313e-01 4.75540124e-02 1.92270100e-01
      3.34509552e-01 1.68941036e-01 1.17539112e-02 1.72176082e-02
      1.54686555e-01 1.91947833e-01 1.13499708e-01 4.78885435e-02
      9.43451375e-02 3.34509552e-01 1.71292230e-01 3.83800082e-02 0.
      1.42850506e-03 7.90505577e-03 2.10293103e-02 2.97406495e-01
      2.97406495e-01 2.01003894e-01 2.97406495e-01 6.55183047e-02 0.
      6.65940403e-04 5.07903285e-03 2.75230184e-02 2.87931889e-01
      2.97406495e-01 2.97406495e-01 1.54169366e-01 1.51095474e-02
      3.86980682e-04 5.76818967e-03 5.92987286e-03 6.85730902e-03
      1.16110757e-01 2.17340574e-01 2.00476721e-01 2.97406495e-01
      2.90808976e-02 3.07597744e-04 6.32356852e-03 2.70786718e-03
      8.22927058e-03 6.11240231e-02 2.97406495e-01 2.97406495e-01
      2.92384028e-01 6.44771680e-02 9.65741836e-03 7.55060828e-05
      4.96877474e-04 3.02964891e-03 4.07594517e-02 2.92384028e-01
      2.92384028e-01 2.92384028e-01 2.50983834e-01 1.21441439e-01 0.
      3.04021128e-03 8.56984640e-04 9.33233416e-04 1.34639084e-01
      2.92384028e-01 2.52388865e-01 1.53846238e-02 3.48762442e-05
      9.94979753e-04 2.59333616e-03 2.49737757e-03 4.35227714e-03
      2.92384028e-01 2.92384028e-01 2.92384028e-01 1.90742463e-01
      4.66986885e-03 3.36027151e-04 3.30804242e-03 9.13322670e-04
      3.50461970e-03 1.59635395e-01 2.92384028e-01 2.86397725e-01
      2.86397725e-01 1.40833229e-01 8.32988531e-04 9.34980065e-03
      2.63555208e-03 1.46422244e-03 5.06872497e-03 2.86397725e-01
      2.86397725e-01 2.86397725e-01 2.86397725e-01 1.38831418e-03
      5.97757474e-03 1.58133137e-03 9.39833187e-03 4.15218156e-03
      2.03587070e-01 2.86397725e-01 2.86397725e-01 2.40838118e-02
      5.24319476e-04 1.75859337e-03 6.52070332e-04 2.08987016e-03
      8.43451824e-03 2.58101791e-01 2.86397725e-01 2.28172004e-01
      2.06717238e-01 1.06335268e-03 3.37526854e-03 5.85417496e-04
      3.27034900e-03 1.03129428e-02 1.87548801e-01 2.99878001e-01
      2.99878001e-01 2.99878001e-01 4.84687509e-03 3.80486459e-03
      1.61368656e-03 5.55608561e-03 8.67380574e-03 1.86486840e-01
      2.99878001e-01 2.99878001e-01 2.55248368e-01 5.38373403e-02
      2.99878001e-01 7.44949803e-02 6.15502410e-02 1.62508056e-01
      2.53875613e-01 2.28517875e-01 1.35061398e-01 2.10304528e-01
      3.26346210e-03 6.40943041e-03 3.55923478e-03 5.80202043e-03
      6.06631581e-03 1.11746863e-01 8.60166848e-02 5.14106825e-02
      6.48557171e-02 7.65791237e-02 2.99878001e-01 8.45081583e-02
      8.09610263e-02 3.95695865e-02 4.06822674e-02 1.88121080e-01
      4.15465422e-02 1.44696757e-02 1.25381425e-01 3.38576347e-01
      1.84589893e-01 5.77924103e-02 1.66733623e-01 8.42432976e-02
      2.39059143e-02 1.90431077e-03 1.19917514e-02 2.08332315e-01
      3.38576347e-01 1.74125239e-01 2.90093888e-02 4.06971611e-02
      2.03006212e-02 9.96026676e-03 4.99903318e-03 8.70464090e-03
      1.54572189e-01 3.38576347e-01 2.14063287e-01 2.28118315e-01
      1.40400350e-01 1.40234074e-02 2.93897167e-02 6.49066716e-02
      3.98821607e-02 1.21655107e-01 3.38576347e-01 2.81108171e-01
      1.99285686e-01 2.22084612e-01 6.31397739e-02 2.79611528e-01
      1.09708086e-01 5.05516380e-02 7.97467455e-02 5.95277548e-02
      7.90776610e-02 4.02457081e-03 7.49934167e-02 3.34245265e-01
      3.34245265e-01 1.45161822e-01 3.12000569e-02 9.67867896e-02
      1.40203357e-01 9.65017602e-02 9.52506959e-02 3.34245265e-01
      3.34245265e-01 1.05264068e-01 1.52518153e-01 1.24771468e-01
      1.30762935e-01 1.20405711e-01 1.33068770e-01 4.19429911e-04
      4.95262705e-02 1.34649873e-01 6.11925386e-02 1.86255038e-01
      8.87002200e-02 9.31827351e-02 3.34245265e-01 2.17670456e-01
      8.37448016e-02 3.48753966e-02 1.53757542e-01 3.91621798e-01
      3.38066556e-02 8.74115969e-04 2.18251683e-02 4.37883064e-02
      4.45180088e-02 8.37639198e-02 3.39608908e-01 3.91621798e-01
      3.91621798e-01 2.45764419e-01 4.39258851e-02 6.33359551e-02
      2.72047035e-02 5.00134565e-02 1.12012282e-01 2.37542018e-01
      3.91621798e-01 4.36362848e-02 3.07525862e-02 6.25516381e-03
      2.29015239e-02 8.11788440e-02 8.05341378e-02 9.13469344e-02
      2.82304157e-02 5.26247881e-02 1.56882674e-01 2.59796865e-02
      3.42729203e-02 1.12636372e-01 4.48935926e-02 9.06615630e-02
      1.68238863e-01 7.87063017e-02 6.25250563e-02 3.62125605e-01
      3.62125605e-01 6.97338656e-02 3.75157632e-02 9.61303897e-03
      2.20058262e-02 1.24605820e-01 8.89122784e-02 3.62125605e-01
      3.62125605e-01 2.71009535e-01 1.27715170e-01 2.01648101e-02
      1.90706663e-02 1.48570305e-02 8.90111998e-02 1.30586594e-01
      3.08481872e-01 1.77660614e-01 1.30317314e-02 2.46152319e-02
      5.95746189e-02 6.42650798e-02 6.33855090e-02 1.93251103e-01
      8.88864920e-02 1.52346045e-01 8.25167000e-02 5.14393225e-02
      6.32145628e-02 1.52007816e-02 7.42425695e-02 3.29483040e-02
      1.65190488e-01 1.78294525e-01 1.97051927e-01 1.65864170e-01
      7.68594146e-02 7.85116479e-02 1.12775741e-02 2.50643976e-02
      3.64969112e-02 4.88374382e-02 4.32245955e-02 9.51747522e-02
      9.20963287e-02 4.80336696e-02 9.05923173e-02 8.90151188e-02
      4.34822887e-01 3.94525886e-01 4.34822887e-01 3.24720502e-01
      4.71707284e-02 4.50686663e-02 6.57073259e-02 8.73337239e-02
      1.61169283e-02 5.74751273e-02 1.96394268e-02 8.68664011e-02
      8.40190947e-02 4.78428155e-02 7.12229386e-02 6.49164617e-02
      1.68602362e-01 2.15720199e-02 2.17262506e-01 8.26405957e-02
      2.96042204e-01 2.30578959e-01 6.67578503e-02 5.19985594e-02
      2.18848791e-03 6.14866521e-03 3.07141058e-02 2.67137080e-01
      1.33707151e-01 2.67137080e-01 2.67137080e-01 7.17832521e-02
      2.67137080e-01 1.82581931e-01 1.02044389e-01 1.70492157e-02
      2.67137080e-01 1.32920861e-01 2.67137080e-01 2.67137080e-01
      2.67137080e-01 9.55234095e-02 2.41329591e-03 1.26310214e-02
      2.84581678e-03 3.12066097e-02 1.83644928e-02 1.68206304e-01
      1.41774297e-01 1.01692826e-01 2.67137080e-01 1.07944667e-01
      7.00454786e-02 1.48489536e-03 3.03777698e-02 1.22618219e-02
      1.97289050e-01 2.63399363e-01 2.67137080e-01</_>
    <_>
      4.62771058e-02 1.16022557e-01 1.44872040e-01 1.67929664e-01
      1.59402922e-01 7.67299160e-02 7.70239756e-02 1.18259139e-01
      1.52724817e-01 6.20139576e-02 1.10708386e-01 1.28776968e-01
      8.40561930e-03 1.30999342e-01 4.30617109e-02 3.20109576e-02
      8.70010182e-02 2.50020444e-01 3.43603164e-01 1.09884985e-01
      1.01186454e-01 1.19783543e-01 2.58778065e-01 2.01506704e-01
      2.13400319e-01 1.32656947e-01 2.53344625e-01 3.43603164e-01
      1.82968885e-01 1.13478974e-01 5.88393360e-02 1.69426009e-01
      4.34160978e-02 4.96363975e-02 1.60458162e-01 3.43603164e-01
      6.60683960e-02 5.26900031e-02 6.77013844e-02 8.33522063e-03
      1.70827344e-01 1.26338452e-02 2.75908373e-02 1.99402243e-01
      3.18234295e-01 3.19056779e-01 7.27913603e-02 7.89193586e-02
      4.71929945e-02 2.01811433e-01 0. 3.52295600e-02 3.19056779e-01
      3.19056779e-01 2.90558785e-01 8.34018588e-02 6.42107129e-02
      3.22341137e-02 1.63805544e-01 2.31948961e-02 1.62957069e-02
      1.79088026e-01 3.19056779e-01 1.38258919e-01 1.99848920e-01
      1.81893125e-01 1.55103981e-01 6.12890460e-02 2.22429298e-02
      1.59069728e-02 1.43717527e-01 2.31001198e-01 4.02383327e-01
      8.04879740e-02 6.15386218e-02 2.59162635e-02 1.00820832e-01
      1.82616971e-02 1.24153206e-02 9.53354388e-02 4.02383327e-01
      4.02383327e-01 1.23675473e-01 3.73775177e-02 2.83867344e-02
      1.01850994e-01 7.59005696e-02 4.07586694e-02 3.06652971e-02
      4.02383327e-01 1.18709743e-01 2.01096863e-01 1.70108169e-01
      8.39204565e-02 2.75881849e-02 2.18163095e-02 1.24334525e-02
      2.77466401e-02 1.42804757e-01 1.65678024e-01 1.77508205e-01
      9.39303190e-02 7.55639598e-02 8.20076540e-02 1.20077655e-01
      9.31561813e-02 5.61567321e-02 2.48767033e-01 3.62355560e-01
      4.97556850e-02 3.14563178e-02 2.38020681e-02 1.05547860e-01
      4.58466709e-02 2.52543688e-02 3.82060930e-03 3.62355560e-01
      3.62355560e-01 2.70204935e-02 2.92790495e-02 3.92941907e-02
      1.55943096e-01 1.02997668e-01 4.11931798e-02 1.55705390e-02
      3.62355560e-01 2.52804607e-01 7.34177008e-02 6.33732080e-02
      7.68423527e-02 1.03565380e-01 6.76881671e-02 5.59863299e-02
      1.70898698e-02 1.35727704e-01 3.62355560e-01 4.16781902e-02
      7.82821327e-02 1.05546430e-01 9.76274684e-02 1.88615233e-01
      3.88502181e-02 3.85908037e-03 3.16124350e-01 3.35756361e-01
      4.49874736e-02 9.51475091e-03 3.40822302e-02 8.81240591e-02
      5.66751584e-02 4.04275917e-02 5.44171073e-02 2.18790129e-01
      2.48799056e-01 7.90924877e-02 2.88731121e-02 5.09340279e-02
      5.85950539e-02 9.79291834e-03 2.41510347e-02 6.47857562e-02
      2.97873825e-01 3.75512093e-01 5.77563830e-02 1.42125282e-02
      5.76005764e-02 4.34884056e-02 1.43689245e-01 6.34516552e-02
      1.72480159e-02 3.75512093e-01 3.75512093e-01 1.28348514e-01
      6.60305237e-03 3.22458372e-02 1.87597014e-02 4.16541956e-02
      6.59316927e-02 1.62570521e-01 3.75512093e-01 2.66619176e-01
      2.19928175e-01 4.33811918e-02 7.88028911e-03 2.14043297e-02
      1.58353876e-02 3.91744487e-02 4.34558541e-02 9.69663113e-02
      2.66619176e-01 1.77246541e-01 2.10988820e-02 4.39757816e-02
      2.25613825e-02 3.39186266e-02 7.57712722e-02 3.97242047e-02
      2.66619176e-01 2.66619176e-01 2.66619176e-01 2.66619176e-01
      1.64049089e-01 6.87982440e-02 3.81147191e-02 2.76790205e-02
      3.78037170e-02 1.10983156e-01 2.66619176e-01 2.66619176e-01
      1.30129069e-01 2.66619176e-01 2.66619176e-01 1.66929558e-01
      1.26067311e-01 2.16437485e-02 2.66619176e-01 1.54469535e-01
      3.25966962e-02 9.51661821e-03 8.77143443e-02 4.76375297e-02
      1.98635444e-01 1.48240656e-01 1.28590927e-01 3.04474801e-01
      2.90618259e-02 4.52794321e-02 2.59570181e-02 4.83628996e-02
      5.08202352e-02 2.05527574e-01 2.49517895e-02 8.71332735e-02
      8.41314346e-02 1.04411490e-01 3.48718464e-02 6.38839304e-02
      3.04474801e-01 3.04474801e-01 3.04474801e-01 2.44119376e-01
      7.62662068e-02 3.04474801e-01 2.77424809e-02 1.21985421e-01
      5.49469516e-02 3.04474801e-01 2.48523504e-01 3.04474801e-01
      4.87340577e-02 5.28787002e-02 4.28989492e-02 2.81664524e-02
      7.93377087e-02 6.55672550e-02 3.85245867e-02 1.85770690e-02
      4.07090299e-02 1.12097459e-02 2.15189066e-02 3.55950966e-02
      7.13176951e-02 2.77557552e-01 1.23385705e-01 8.10168162e-02
      1.54245393e-02 1.10811479e-02 2.68964730e-02 4.00261544e-02
      5.86158596e-02 1.56664141e-02 5.03185213e-01 2.68999606e-01
      8.88225064e-02 6.76827729e-02 7.83698410e-02 3.86791192e-02
      1.64979789e-02 1.08844144e-02 4.63415980e-02 5.03185213e-01
      5.03185213e-01 1.06577322e-01 1.05881710e-02 8.80993716e-03
      3.21356468e-02 1.98811069e-02 1.99053939e-02 1.15918197e-01
      2.52947956e-01 4.98774387e-02 1.35533866e-02 6.45772507e-03
      2.54789530e-03 4.02416615e-03 4.79946751e-03 2.58942023e-02
      3.66233945e-01 3.08022201e-01 3.65282334e-02 5.83194010e-03
      4.89036227e-03 1.02333603e-02 9.96882911e-04 0. 1.00676008e-01
      9.82592329e-02 3.66233945e-01 3.66233945e-01 1.55413644e-02
      4.37948061e-03 2.01017177e-03 1.14083686e-03 1.83663261e-03
      2.16883253e-02 3.66233945e-01 3.66233945e-01 2.67271399e-01
      3.40998080e-03 2.49364274e-03 1.20610301e-03 1.47565585e-02
      4.30751080e-03 2.37191007e-01 3.07876468e-01 6.00341633e-02
      3.19607137e-03 1.83764123e-03 2.09670071e-03 9.38736461e-03
      5.34041319e-03 1.50375608e-02 1.65432602e-01 3.07876468e-01
      1.26673132e-02 7.62632990e-05 7.68366619e-04 6.08539116e-03
      2.29895711e-02 9.75181833e-02 1.81678489e-01 3.07876468e-01
      3.07876468e-01 1.71342745e-01 1.70327481e-02 2.96919700e-03
      4.29146411e-03 1.85178611e-02 5.93989938e-02 4.93745506e-02
      2.93208688e-01 3.07876468e-01 1.30412001e-02 0. 1.78902484e-02
      1.82830557e-01 2.45420396e-01 2.73264438e-01 2.50683069e-01
      3.07876468e-01 3.03582661e-02 6.69850037e-02 1.96201324e-01
      2.03295887e-01 1.65433258e-01 1.38479874e-01 5.45958318e-02
      3.89505527e-03 1.88723635e-02 2.97167674e-02 4.41374108e-02
      7.78698176e-02 2.78876632e-01 2.78876632e-01 2.55075663e-01
      2.38745794e-01 9.33112800e-02 5.87012917e-02 1.16839139e-02
      3.73220094e-03 4.95365374e-02 8.26314166e-02 1.47591770e-01
      2.78876632e-01 2.78876632e-01 2.78876632e-01 5.21146469e-02
      4.28542718e-02 0. 4.20734063e-02 6.24304600e-02 1.67516068e-01
      2.29345575e-01 2.78876632e-01 2.78876632e-01 2.29064807e-01
      5.60093597e-02 4.72259661e-03 2.06120964e-02 2.54752517e-01
      1.98913455e-01 1.07794322e-01 1.40437484e-01 1.39323011e-01
      7.69822448e-02 2.21182421e-01 2.73015440e-01 3.90065126e-02
      1.16345853e-01 7.11907148e-02 2.77310833e-02 1.91391557e-02
      6.35991246e-02 8.59236121e-02 2.81393707e-01 1.29437232e-02
      6.01015845e-03 3.31853479e-02 8.46958682e-02 6.06280193e-02
      2.19479680e-01 3.17413509e-01 3.17413509e-01 3.17413509e-01
      3.17413509e-01 2.99214739e-02 1.97734125e-02 2.27630213e-02
      3.29130329e-03 2.27573365e-02 1.74222827e-01 3.17413509e-01
      8.88480395e-02 3.62618417e-01 1.22206114e-01 1.54669052e-02
      8.70602950e-03 4.46932903e-03 5.28497435e-03 1.13670342e-03
      8.91650468e-03 2.97645573e-02 3.62618417e-01 3.62618417e-01
      1.19704325e-02 3.09893209e-03 2.17916211e-03 2.36507133e-03
      4.12698835e-04 0. 3.62618417e-01 3.62618417e-01 1.02407463e-01
      9.56348609e-03 7.22370285e-04 0. 4.15698218e-04 1.73950312e-03
      7.59992301e-02 1.79962113e-01 3.62618417e-01 3.62618417e-01
      5.34778275e-02 1.69850606e-03 9.39798774e-04 5.93854602e-05
      2.48500466e-04 1.57917745e-03 3.23421285e-02 3.33264530e-01
      3.33264530e-01 6.72363304e-03 8.96094646e-03 4.95761400e-03
      1.29098989e-04 2.84699287e-04 1.01856263e-02 2.05280319e-01
      3.33264530e-01 1.97410792e-01 3.09383380e-03 2.69321036e-02
      2.87474599e-02 7.06527606e-02 2.01301891e-02 2.32502222e-01
      6.19209297e-02 3.33264530e-01 3.33264530e-01 2.31724866e-02
      6.59717759e-03 5.72660565e-03 5.25718089e-03 1.69089658e-03
      1.46218110e-02 1.16581105e-01 3.33264530e-01 2.06917599e-01
      4.41976270e-04 2.50977159e-01 1.49939224e-01 1.23236164e-01
      3.65548469e-02 1.54140368e-01 2.11267844e-01 1.74595907e-01
      1.83532219e-02 1.34881232e-02 6.89504668e-02 1.32759482e-01
      1.99376270e-01 4.32268605e-02 2.78018564e-01 7.81317800e-02
      3.82536254e-03 2.96098180e-02 1.24238618e-01 2.98261553e-01
      2.98261553e-01 1.99586704e-01 5.22262938e-02 1.01551540e-01
      5.41178435e-02 1.50438696e-01 1.71272941e-02 4.14874516e-02
      2.98261553e-01 2.98261553e-01 2.25411594e-01 4.62538153e-02
      1.19110875e-01 1.01691671e-02 4.30438817e-02 5.37380502e-02
      2.71725923e-01 2.98261553e-01 2.57873237e-01 1.38710886e-01
      2.13526152e-02 1.99362859e-02 1.75802987e-02 2.51713768e-02
      2.29881629e-02 2.71275174e-02 1.60850156e-02 7.56409466e-02
      3.34758133e-01 3.55421901e-01 1.72670588e-01 9.62185934e-02
      2.02568038e-03 1.17975529e-02 5.93618490e-03 4.04032273e-03
      3.33728977e-02 2.19992831e-01 3.55421901e-01 3.55421901e-01
      2.65943743e-02 3.21223810e-02 1.72508284e-02 8.80356431e-02
      1.56163117e-02 1.44892337e-03 5.22382334e-02 3.02364200e-01
      2.01721340e-01 9.25489739e-02 1.26719698e-02 4.41671303e-03
      2.02202834e-02 6.64421357e-03 8.69354000e-04 4.14723754e-02
      3.55421901e-01 3.55421901e-01 3.17481250e-01 3.64541472e-03
      1.15408760e-03 5.32779784e-04 0. 1.74653833e-03 3.11255753e-02
      2.62210518e-01 3.37954968e-01 3.37954968e-01 2.01204076e-01
      2.73826928e-03 0. 0. 0. 2.74286955e-03 4.41597961e-02
      3.37954968e-01 2.82903701e-01 1.69344284e-02 2.97199236e-03
      5.42434352e-03 2.01750128e-03 0. 2.36804900e-03 9.96936262e-02
      3.37954968e-01 3.37954968e-01 8.87571722e-02 1.58861512e-03
      1.53724861e-03 6.72726985e-03 0. 0. 1.10573657e-02 3.37954968e-01
      3.33651543e-01 3.33651543e-01 3.44120562e-02 3.52192810e-03 0. 0.
      0. 2.55271024e-03 1.40822530e-01 3.01704109e-01 3.33651543e-01
      3.33651543e-01 2.60766856e-02 1.66850502e-03 0. 0. 1.73998915e-03
      1.13203079e-02 3.33651543e-01 2.82709897e-01 6.58630300e-03
      4.27938020e-03 6.79503055e-03 0. 0. 7.52593158e-03 1.34380534e-01
      3.24237913e-01 3.33651543e-01 9.81078520e-02 3.81673314e-02
      1.60461310e-02 0. 2.78832484e-03 8.25700257e-03 3.40524875e-02
      1.34940088e-01 3.13918799e-01 3.13918799e-01 2.25810632e-02
      1.11766364e-02 1.27760498e-02 2.89691482e-02 1.15467068e-02
      4.09618840e-02 7.48934895e-02 3.13918799e-01 1.61571011e-01
      1.60071754e-03 3.13918799e-01 3.13918799e-01 2.92408586e-01
      7.23317266e-02 1.06277891e-01 9.80585068e-02 2.97838658e-01
      1.66256398e-01 6.38905764e-02 3.77704240e-02 8.89024790e-03
